,0,1,2,3,4,5,6,7,8,9,10,11,12,13,14,15,16,17,18,19,20,21,22,23,24,25,26,27,28,29,30,31,32,33,34,35,36,37,38,39,40,41,42,43,44,45,46,47,48,49,50,51,52,53,54,55,56,57,58,59,60,61,62,63,64,65,66,67,68,69,70,71,72,73,74,75,76,77,78,79,80,81,82,83,84,85,86,87,88,89,90,91,92,93,94,95,96,97,98,99,100,101,102,103,104,105,106,107,108,109,110,111,112,113,114,115,116,117,118,119,120,121,122,123,124,125,126,127
asxwr_0000-00000000-00000144,0.00870377707231289,-0.03328507900459002,-0.10012589226830408,-0.05264364839580706,0.0051215165712345636,-0.0920079512902469,-0.04165501823323331,0.03473405569446481,0.015614448982727083,0.05507221032654046,0.018688684427926924,-0.05540443200734358,0.004718166265533326,0.06405729271505481,-0.0071446542389396505,-0.008757878087819257,-0.04692935687083506,-0.027168964487751326,-0.06355463901375381,0.010795093849311094,0.09111221049618107,-0.02406423310342882,0.05550296465594201,0.06472968918376926,-0.1476968195657327,0.11668138512534718,-0.025468596048501827,0.11032734434833641,0.1153592184567993,-0.023120796152669158,0.059185273489182996,0.08742580472633424,0.1935254455691992,-0.0799929834481079,0.005419113072637237,-0.09627435222412604,-0.08665729698045298,0.04647028073388296,0.02754025080447198,0.14590740747887054,0.13856505504788044,0.22708848330279696,-0.08860899227697179,-0.019859406157854583,-0.03524976984312509,-0.10174349862989975,-0.20072410685625539,-0.11767134225779279,0.08394864896658068,-0.037744635530360865,0.0061095940432188975,-0.023765870457651505,0.02800476072884757,0.06908420187419481,0.13001511198917617,0.010768917503696789,0.10071441920583434,0.05788223169821753,-0.16334494816019485,0.023904376226589117,0.06610745718553825,0.0434703534721883,-0.05257088402107014,0.027422672672185407,-0.02481012464249925,-0.007741194267640415,-0.0087472393830437,0.04570239105663153,0.08807956228331602,0.13022072886763328,0.06946185286574429,0.24607500314532377,0.10310900691512792,-0.023810629321039892,0.11457442772477164,-0.03814878709909098,0.0026641795146856995,0.02976563004905558,0.2109057890579926,0.13021878058530134,-0.10280874048687376,0.1440023499679719,-0.14219641234224717,-0.015303781753321805,-0.10953683947603007,0.0651489158281567,-0.03848054438034408,-0.025029010393035567,-0.028932634800353615,0.11429717147905422,0.036821562788753676,-0.05916770592337794,-0.05060803529854878,-0.040198623707029375,0.11341464930695899,0.044427395562012854,0.15839852378141156,0.05048239893805597,0.13027570472390884,0.03811654685153637,0.04339526044530322,-0.1578311720706498,-0.07626524431924821,-0.039134519346621474,-0.10181697723723133,-0.08385669125051866,-0.017909987350769367,0.0448172314367952,0.00617218673816885,-0.01365334229459622,-0.0659765600160241,-0.015103289515852138,0.0748094581463183,0.1237797125444121,0.11185078681082872,0.04392598581847097,-0.011610065366248931,0.030395992394186687,0.11519571281083145,0.11699058889729151,0.08707131912955474,-0.009935344531923915,0.021730005101233938,0.05121639205434921,-0.003750180271678575,-0.26626854761050084,-0.05127827867301876,-0.1183600017038644
asxwr_0000-00000024-00000168,0.017961610397966454,-0.021341866883438525,-0.04924107829196969,-0.028877597186077346,-0.015530686393191743,-0.07603110625531335,-0.026745954549435597,0.03732441966183395,0.010597800841542396,0.01645454048430445,0.05151659966011866,-0.027558674555916197,0.023313588262854824,0.057530956157923946,-0.03784012075737251,-0.016229652832408,-0.04501296732398008,0.027584369799419587,-0.06389809442526248,0.02001788344931779,0.08852182805032269,-0.03519418083329409,0.05874098451006718,0.04929045520347671,-0.1561449196898801,0.09037792457718367,-0.052485686899628306,0.13435352596781844,0.13647794246500816,-0.06503570268234274,0.08375009781905991,0.045564273886595036,0.2266870293133321,-0.061288833301431395,-0.01369614960356941,-0.0330224948221374,-0.06404790522893247,0.02513573903131265,0.013029774058127419,0.13003576179352597,0.13423784877717787,0.2163435067002832,-0.08401197061805046,-0.03896797511288695,-0.011490194913988429,-0.03781663547339222,-0.1530991543133597,-0.1361769291069356,0.067843736424505,-0.014566148705431835,-0.011320815209709022,-0.03401151001898415,0.07431072080057112,0.03456206616171487,0.17769164715456648,0.017921464325199258,0.08620927135566842,0.080477017903971,-0.17158207884138968,-0.01088360961271905,0.010891801268175239,-0.004865997986472213,-0.09814849182904463,-0.027345232501139922,-0.08923252883862874,0.025143029319948988,0.04017076758078717,0.0053132287819092315,0.08211006644881415,0.08180618633966845,0.07258609036284044,0.18565007710413134,0.06171509314132358,-0.03202779353312303,0.08725155181297543,-0.0476131183376651,-0.02555439030051185,-0.0389174171244854,0.19876870404724223,0.15671074307340707,-0.032017818135644624,0.09161635048031032,-0.21071892445159707,-0.051098326139534224,-0.05674883966149038,0.1085630314135849,-0.08102777479183669,0.04030818865757802,-0.032397771117516155,0.1138272815547558,0.05737211450463296,-0.1437707563885223,-0.11591807970579225,-0.08329569189534708,0.11774848864088033,0.04769735590916355,0.20289241830260468,0.00980896201061453,0.17604648127754416,0.00017050116107130846,-0.025077913259722865,-0.1462790321646959,0.022876652777154855,0.017842750262237823,-0.10763969134944748,-0.17481954673245204,-0.02789743614274675,0.06154261142719314,-0.08051685349207022,0.018355639316248853,-0.03483831427844593,-0.04034864095439188,0.07696391864708232,0.10507571846147182,0.09481469810248555,0.0934748678757365,0.04564847923589466,0.05443833178150474,0.08013806957488133,0.023689229931155055,0.13465598189330055,-0.008046285971309627,-0.02583628688070221,0.020643933396136325,0.00725653948643508,-0.20196659802062,-0.03422894739382305,-0.13815159433015547
asxwr_0000-00000048-00000192,0.02511284210122903,-0.048372739882638904,-0.06592877081568357,-0.014615110100926467,-0.009685261262397627,-0.07010490269482657,-0.027810534345853396,0.03434908117287442,0.034052844258690054,0.007675589160793525,0.02347480194309027,-0.005752595808902968,0.04467709152631934,0.0660280140704075,-0.03442603162757517,-0.02673895727399666,-0.07091856465798901,0.06045603321200847,-0.06132974417365195,0.016637588950086046,0.13049748657613675,-0.019012009171927205,0.0774268251588244,0.024587928054810686,-0.11790062039397398,0.07863662418690498,-0.03261041294812356,0.10720554719805654,0.12816604210817506,-0.09351777099678098,0.07589608104478154,0.028801213905521265,0.22788891111544193,-0.08313334456710192,-0.034407102234744316,-0.009201410799716604,-0.08319111388862936,0.004437856110600824,0.031669732944681665,0.11407527468736073,0.12411884690406304,0.20616350764570884,-0.09448714535830446,-0.056255332509922526,-0.008936241012223336,-0.03483470976516188,-0.16786195554350833,-0.16564997071189216,0.07559595466807653,-0.08676180346104896,0.015406919536237877,-0.013722512742640655,0.0527854759656962,0.008476506930298078,0.18741617240251754,0.038905521265944105,0.059512347677869955,0.076274767000087,-0.18053370805218485,-0.07273498667029715,-0.009528023302085678,0.06684850805643629,-0.10543669716180347,-0.05603471966008131,-0.033653809328981966,-0.005686910911615487,0.10655203737358229,0.03849544509914609,0.12740180939572807,0.08349435954981212,0.030781475982893946,0.17888363569465077,0.041800568148077484,0.019689778459533493,0.08509347710025399,-0.09227560986700818,-0.05083173504173696,-0.033352812088540164,0.14529685536063752,0.13093427852575104,-0.024489537534064285,0.09468942687646546,-0.1536983794163028,-0.033617016170574276,-0.01986022647554272,0.06200670820141188,-0.1392617866555665,0.11828758728458387,-0.03904326085801723,0.11724445379703946,0.010931159597281992,-0.1644513548178743,-0.13515530574963672,-0.03380928547530071,0.07384066625205819,0.0628504175859785,0.20605325463966215,-0.043394220625438094,0.17340964025046357,0.0003641098637245941,-0.039902154162308585,-0.13607846384442543,0.056858101679507354,-0.02316746356566385,-0.06835986377078716,-0.22315620097345912,-0.03664290483178643,0.06090205337552898,-0.07096496759049618,0.03215681413106437,0.05109617606818177,-0.062420320930242426,0.044279052971167424,0.12017138431075858,0.06352947277388213,0.10399875335821712,0.05118078738599583,0.048285608659264546,0.00012607484282798432,0.07439157672610341,0.14915417349232268,0.006088656685822682,-0.05652388213337782,0.09138849483003507,0.025923208897873046,-0.13089610800698623,0.021570484687338583,-0.0985547856827479
asxwr_0000-00000072-00000216,0.03261165487534728,-0.0432176049774765,-0.02631045285133358,0.012311744800309372,-0.008996010954563578,-0.043384537846481566,0.0031225645338871506,0.013714959324879244,0.032430934811041236,-0.012837541288919467,0.04301368777680919,-0.009212816426398167,0.04544511807239907,0.0563367025598329,-0.03906434916431814,-0.0068854213105689075,-0.041390194350135426,0.06815279674187942,-0.06584991299965541,-0.014340813886747286,0.13308326290434463,-0.031013433669069564,0.06826451052225134,0.017580413590558067,-0.11120931975813636,0.021745741933638776,-0.05149237565105416,0.10488072335909693,0.12662605987540854,-0.06597881681961969,0.0962146216299595,0.05538166024848861,0.22571414685089167,-0.051046244877771374,-0.07809369459176596,-0.046786302820434576,-0.13372890011488472,-0.013663597246114316,0.003368201353903475,0.08851658561533729,0.09172841518799836,0.1742058931662979,-0.13825903724653196,-0.057561231272129344,-0.003902992381670537,-0.022940394331437824,-0.14970293991784817,-0.13741061295971652,0.09431936582798865,-0.07997917602510857,0.012676183693731156,-0.04037548462119583,0.041136800364876235,0.008844653228211026,0.12945826668621205,0.0648308460446468,0.05349709355141538,0.09130266077471522,-0.16298117807005175,-0.05359237009366422,-0.04148784796540594,0.1157386738004369,-0.10088734506558437,-0.02746492328301939,-0.010525936834116548,-0.06584388839339048,0.09696687388377825,0.020919464347593893,0.13074523894098247,0.09575677812647107,0.019839929833874715,0.15500346697370126,0.08758005425906522,-0.0011939364866397559,0.06544337019557768,-0.14090059418546097,-0.04652672252854785,-0.0929446948281847,0.17093584953542293,0.09223509361640123,-0.01961479436344504,0.10094623922273847,-0.12243427540448429,-0.0517875676230757,-0.03812104567281473,0.13481493903070413,-0.11195987532117639,0.11743839985188843,-0.006221567173994311,0.08258705411958894,0.01658960570995453,-0.15546284639293473,-0.17528985876616793,0.0029847151246228812,0.07841771237561429,0.14800242020935572,0.21579373792944317,-0.13048560143046206,0.20338948414697494,0.030643460007392844,-0.03392806237412192,-0.11665208179180217,0.06425780630563742,0.0016123293063938318,0.03591261227227181,-0.180454610724871,-0.033532009781025995,0.13353350859492805,-0.08123527678820675,-0.034698628331648516,0.11943619612469467,-0.03634742653961375,0.09359923189985181,0.11518222222097442,0.014252213059612554,0.07800991558709255,-0.00445233285047652,0.05797834383300947,0.011363010423731813,0.05839371995531312,0.1682926746198422,-0.026476832099664737,-0.08752713969620937,0.052717241525724434,-0.019770464152963185,-0.04737363703545756,0.03741471876068377,-0.06121925917895673
asxwr_0000-00000096-00000240,0.049737531825674905,-0.036875850074026745,-0.006059446548165312,-0.01721038515254361,-0.014130768944834882,-0.019797886096722103,-0.010819216699361799,-0.0008147083927959213,0.01296694321792087,-0.011187876083923853,-0.007527530436551761,0.02411476887885165,0.0651049583556303,0.0669449580265105,-0.02800135735738495,0.031620175417441505,-0.009625306065004556,0.10068608101267904,-0.054878159304885606,-0.006488419223479843,0.14911264166034155,-0.026745650607491515,0.07190241258169551,0.011558621808742113,-0.11905237072248213,0.032991110735369034,-0.02217340824378999,0.13579258082011353,0.10268997947911719,-0.07114777213845996,0.08943149472182436,0.053256070386032806,0.19103530355501389,0.006565948368447254,-0.09372178485656268,-0.021606734107262292,-0.11463755064019195,-0.05062156806762797,0.04961455572712271,0.11949489022852652,0.06268145103165611,0.17663853189068465,-0.1738442077491069,-0.07442960152528534,-0.051096652308325906,0.026295495572131677,-0.16359726512949496,-0.1440930728904388,0.060627674374382504,-0.03468281424833281,0.04236734894732519,-0.01633792818002571,0.10558511242716438,0.02528234910794473,0.09452733123979062,0.07087728309396416,0.056385788168175556,0.0860777667233128,-0.13780385490035357,-0.048998924359406226,-0.027514476311164292,0.09163683827377991,-0.09639021282020005,-0.03408847025703645,-0.030150182145953518,-0.03775930889279008,0.06966725634181856,-0.02203211062942943,0.1651267729044301,0.07885509939793486,0.0703962795302407,0.12770606180289293,0.0480841453243293,-0.0812428869861429,0.11656846245613425,-0.12983336705133414,-0.06148871209820385,-0.16017585874568666,0.13373261220278482,0.15266848867092894,-0.021849959054732172,0.03371983874571207,-0.13151526403686423,-0.0029765785141973524,-0.03655904812591682,0.13966873333272803,-0.027473453670816227,0.08968143311071686,0.005398775932724529,0.08752770062992245,0.02059855757935107,-0.18589185644611433,-0.17398236391999558,-0.0511269145573755,0.06931030105956584,0.11994215847644693,0.24367048502153504,-0.14193455045407516,0.1727492073337036,-0.055395267117773886,0.008626578146441586,-0.06990805931495382,0.06873641164526877,0.0010409518782725207,0.004353917900394993,-0.21714664882612644,-0.07997877414510812,0.06104242701282886,-0.07693741715516288,-0.004598536727830624,0.09519300247243784,-0.02358750081918141,0.05996121512858168,0.09983723983715365,0.027964146512902962,0.024064626910575957,0.025795621333138632,0.013322906515157761,0.030739939654979568,0.1331577636318157,0.14814516675273048,-0.0797346487222217,-0.05582028608943919,0.07200671711902247,-0.01788762138450097,-0.05885798234116923,0.030100893514029902,-0.10422412939065087
asxwr_0000-00000120-00000264,0.06589582553241165,-0.04217680075083859,-0.00801535372517364,-0.00749709609752794,0.001757188625536845,-0.05217160130593553,-0.00810703932024955,0.027210018436855825,0.007215645677368086,-0.009000142796571445,-0.008774769793000908,0.013876558872197305,0.05196874951751927,0.06492456754886068,-0.0408224647948887,-0.0030409899900222925,-0.0060751584053276644,0.07674119170609742,-0.03534645951279974,0.010817423762900789,0.1361926795597788,-0.012052660152198056,0.04588991293314514,-0.004510447753754945,-0.09040151627850315,0.03793411487921598,0.01723431197321509,0.11477638801261993,0.06402373940491402,-0.06006722931110532,0.10104284879515224,0.07864573886778561,0.14827822208570043,0.022504353490701845,-0.09707964347959822,-0.04722803760788557,-0.10620286231046328,-0.05684038007093539,0.06069927703027947,0.10599370124442915,0.05077914533428312,0.1681344478267597,-0.14550072442179304,-0.09109670044309161,-0.04230051470288188,0.06524080543304814,-0.16413240729718884,-0.15204800674246763,0.08013515384879712,-0.03232167643986341,0.03174018492529171,-0.0491005258640728,0.12093359097607922,0.01949874085807809,0.07342958179568085,0.05132641603378325,0.05697578485210881,0.10103532826692783,-0.13088946548759375,-0.02504787792575323,-0.049913678233074334,0.08398093160737255,-0.10006549663208641,-0.028783539402047247,-0.06544467359970595,-0.02308174834715979,0.034738978007235834,-0.003345101310677646,0.14387754874223316,0.05630756143204103,0.07732086456477964,0.14259426220566088,0.02016998851318358,-0.0898724060294589,0.13611123723289953,-0.1791889442844482,-0.09688107916558784,-0.18462788280379241,0.0790336209520657,0.1956423007644152,-0.017397078607299058,0.03687713699706573,-0.12168059470878005,-0.03084998724018852,-0.04636780276401818,0.11158850473786053,-0.019500443896707433,0.17069219764485355,0.025248597191223052,0.04036738042307136,-0.005230598745096053,-0.18344693032750964,-0.14349715309197184,0.022057991302032738,0.06242045060344633,0.12194758332383795,0.24277816540034133,-0.1371844495214387,0.11867115550989335,-0.046150316087422864,-0.03143935132408414,-0.04056526727299093,0.07250843242457837,-0.01830495699808181,-0.03932586715295984,-0.2645271598770823,-0.11059927207166038,0.05488600728010632,-0.12708485536057895,-0.043231616849953206,0.0869158868904688,-0.052442028950915764,0.03892519618264494,0.10809572407157281,0.06250935381246027,0.05844983161168856,0.024491710485436833,0.010762294058396661,0.02864820796750995,0.09737122689390622,0.11411699045381207,-0.042817033460205246,-0.07926020966800303,0.09400929687156073,-0.007160118957353373,-0.0605079568312321,0.015026596462668726,-0.13044538989288304
asxwr_0000-00000144-00000288,0.06410628575608696,-0.06352096145592886,-0.00031250068226753864,-0.027149733387185748,-0.010473507463290321,-0.05678667518816026,-0.04501614990186853,0.05038457617015341,0.019857827278113017,0.0011959664866051558,-0.002734944534445878,0.03608995374518309,0.03282785516349724,0.077763036752747,-0.05353493366860228,0.009382965428754544,-0.02427581590174685,0.10562394013983382,-0.0282929559823666,0.008394821085412061,0.14600990396235086,-0.002769753097370938,0.058784407441603,-0.015260740626784458,-0.0962905310164427,0.008698962370338457,0.04214029064412141,0.11491944574181621,0.002237573654535167,-0.0664657715830216,0.12256768268065617,0.09473992247298407,0.11262285526377605,0.07203081506366084,-0.09621300689308572,-0.05689128074471946,-0.08402741027257159,-0.06173550152694316,0.024069385777058416,0.00659066843607923,0.07538345921474414,0.1289473162921978,-0.11373085287234966,-0.08197764498029285,-0.0789276561353018,0.12343487406874755,-0.13325038226229044,-0.1757681523787742,0.098689799072534,-0.01641069733434735,0.03273796265045378,-0.07300644273832592,0.12074259582810956,-0.01607661344128898,0.07551646530519897,0.055690121675751984,0.054289160953622455,0.08075614650258688,-0.15654722172164787,-0.018837669403799627,-0.05203009355370968,0.07231523384536889,-0.11093280041367883,-0.03167301736176277,-0.0888081739755501,-0.007419075763890394,0.018129280662073134,0.010018784150696652,0.10581095591860733,0.06385232896213956,0.08675997725761446,0.11131993463596601,-0.01901744606314625,-0.06169541718987696,0.10111364448542362,-0.14821795952670141,-0.12475578732478752,-0.16465992669775403,0.019911282669970883,0.19305942508820395,-0.02113558117025405,0.07105438745203674,-0.11298598283760684,0.013204974369071235,0.0043015492523673276,0.11560268194833923,-0.010637655183193963,0.18437451795420756,-0.016146208581570492,0.042649547284736015,-0.021936081847194967,-0.20869454776470234,-0.12663674749810622,0.008402208935273053,0.01735619484425793,0.2174452937195932,0.23701785515024432,-0.08699611397435579,0.1357961308402112,-0.039661092944790186,-0.07032714057430052,-0.08042161139793981,0.0765023677241231,0.021309133359052143,-0.03868083389179443,-0.25424355661666603,-0.1186832473096656,0.02792997812219285,-0.14491801047147998,-0.05979194349698317,-0.006958190773963731,-0.024888018833528678,0.06731945933409791,0.10201353897546708,0.06411116540549765,0.020997754134024344,0.07784168178418552,-0.02391844776820948,0.016602311028043246,0.10017769868598035,0.15507140196337266,-0.04515086490578616,-0.040345927764794315,0.10689346571499422,0.012713045738056683,-0.03811993235484875,-0.018456591720427747,-0.10113426500047125
asxwr_0000-00000168-00000312,0.06331236437168845,-0.07349556907228529,-0.013800660639813304,-0.02695298118612505,-0.020122523602487556,-0.033682068985640544,-0.052238641560933725,0.029994472128855715,0.03115468935286901,-0.030279604165014365,-0.03767602439104671,0.006828498670101136,0.0022757726202843904,0.05883261659864244,-0.025812611225219426,0.06206633926232305,0.0023539260658353095,0.0988224999479489,0.01753960031767677,0.06329236232019658,0.1208770561637822,0.0077937413172548785,0.0192900187723578,0.024060426343183308,-0.09986354528781677,-0.0020582949410236934,0.07376376844668006,0.11032354198251865,-0.009029669130430231,-0.06179688896075575,0.15035061304210348,0.093595319026069,0.1064855785534276,0.06907948021386305,-0.04371920409032793,-0.1411009930204603,-0.10340352908318458,-0.09399476027136124,0.007158045407525475,0.057478100750980164,0.0961627019673499,0.105102613033022,-0.11975773549175485,-0.030350113712352328,-0.09325008306678996,0.18268217278479382,-0.1388783602156024,-0.16770635715404833,0.0949417357257323,-0.0386828627488152,0.07437958600337957,-0.08626482524732164,0.12421383501592688,0.02662249590954889,0.05195964003319872,0.06857215929865756,0.028848892143293652,0.09974048203348393,-0.09893392302892753,0.001247642016174296,0.01899852094676963,0.06111789626700963,-0.08560021561825674,0.03040682961348569,-0.05511140576978604,-0.049610786085751916,0.01894877651811869,0.0008591112590799424,0.09395382956868703,0.02190240354655763,0.06416856541343899,0.16659527760383283,0.01216385500267243,-0.058750721014058156,0.10188524400281478,-0.1410223251373522,-0.11489090959985612,-0.23168321545670667,0.036199497303913225,0.22699566800267246,-0.05669312502908393,0.09216429750791008,-0.12507678314486123,0.045875924941248605,-0.032059040568881446,0.08288135536202201,0.039131097804560554,0.1551707117308984,0.01961819738795587,0.04178398112824954,-0.0243343919614904,-0.14748546002749008,-0.1441332616908212,0.0011359152158449772,0.0336191333694656,0.21921204995517435,0.14207373341138543,-0.053843745068693355,0.1264918733587232,-0.027438799006118633,-0.08150103625246718,-0.08560212616208504,-0.007709928410849898,-0.006493328881895574,-0.07695797846536327,-0.16200702634118164,-0.11074446508112386,-0.027826929535519577,-0.08248019110146113,-0.07464731762650151,-0.05945397739824483,-0.07949361505451608,0.05579013009382896,0.1318375081105965,0.000443013360710442,-0.035563307752148596,0.10142110512988092,-0.06383656124635256,0.09932331478336996,0.17541923661301106,0.10762324520843998,-0.10991002473667395,-0.026661829997858003,0.14300208640566264,-0.023494053825526322,0.014689712464816118,-0.07349999794461573,-0.08772614888993555
asxwr_0000-00000192-00000336,0.06564023287176038,-0.07599240652414868,0.010280832298880226,-0.03760362760013155,-0.015214855549100873,-0.060699332288794046,-0.027765786536231143,0.028453176006158647,0.027881222330943835,-0.01990791969632176,-0.019985940794604085,0.0013605410533880607,0.008160101512229801,0.04580349790409933,-0.022488151657265264,0.037132677049972404,0.004528945081794841,0.0872068167437147,0.022026715613737414,0.06670561178213054,0.10836563558581568,-0.03309050884456331,0.02748509336077433,-0.00029627422490882086,-0.0659972799600666,0.010123818542522497,0.05651198474248403,0.09517235453462436,-0.021756796648688327,-0.03488383231261655,0.18455595902070765,0.1408386340554349,0.10016416494927245,0.06667056186516879,-0.03815519938475385,-0.11976146066440956,-0.10205563698699456,-0.1183670690548859,0.02496109125341179,0.02088012249451809,0.09115934834240301,0.09433698776533878,-0.13544261047154224,-0.004295775454193534,-0.020566404631248175,0.1918251303579564,-0.1056801398297789,-0.14971876887098012,0.08010420861946653,-0.007768563633023754,0.07393955631346937,-0.08046414288520068,0.08460334063476828,-0.0011402280170616154,0.0695999527880282,0.01972388821024892,0.05862285015938357,0.07462126973347592,-0.16016216294578592,0.009951810912458678,0.06118549476410298,0.002880096877645119,-0.09960949754361019,0.0021134539606516346,-0.11600635792446701,-0.0027730835982530187,0.0369867303540579,-0.005033436247662568,0.0764086270594835,0.012348734699316388,0.04303112293218142,0.16364255455883844,-0.017271527047478034,-0.06828739947486491,0.11942219068404161,-0.09525409690937185,-0.150159604777749,-0.20460299094209417,0.055672571522176036,0.23493859897600547,-0.03279020155378697,0.11319795494915144,-0.10340709377428782,0.032462732654132825,-0.07659959273952605,-0.01685410838363936,0.09877798473877372,0.14999850224061703,-0.018417671291093313,-0.002974387828097302,-0.0041402464754167175,-0.1745037452765146,-0.06545476209343261,-0.022936153319623002,-0.007034396741786555,0.22396200564504676,0.14541793290851715,0.000730422074662335,0.13562462288195964,0.01407154893822128,-0.048208352114790624,-0.08728373152470979,0.01941997812105806,-0.07985042289692904,-0.10745609291312747,-0.17889975437155103,-0.13469119517969322,-0.036693966678984155,-0.037457890728225564,-0.05812226188903256,-0.11653141396723597,-0.03739913897566716,0.12060588254196376,0.16883908001203918,-0.012524382412081859,0.008593150752994043,0.08678796724679652,-0.09007229908544294,0.07195462159161084,0.17034768711382375,0.07731017420893546,-0.1029397731362634,0.03942454404972044,0.13317081885173607,-0.025438249467120876,-0.021826636644868155,-0.08013165931831545,-0.10637560491300371
asxwr_0000-00000216-00000360,0.047504550982186367,-0.08765808889232549,-0.0013225689848719129,-0.01330019361051742,-0.03320064805991793,-0.032858029943414996,-0.01334097330536223,0.02634680318050071,0.03913278816235571,-0.00884578035247898,-0.013527472273055513,-0.03907441487956107,0.005200710374056271,0.05610855882023818,-0.04370400252781284,0.01591064543082793,-0.0035274986226489554,0.10767676268558704,0.049810641601334936,0.09185726453468539,0.07628628408196589,-0.04465933518708275,0.015005965660018182,0.013608190554558919,-0.07268467108199096,0.040636494815075856,0.09582248067216281,0.0962995666064169,0.0042047378294216824,-0.05632028003282251,0.12847597844562617,0.09050580419783714,0.12008039455275887,0.01010148534152854,0.0021151987724173085,-0.09830129964384646,-0.0454038098347444,-0.090864652334737,0.02597007755907839,0.008917166958037894,0.1335142049826248,0.13348243064951204,-0.08352572800333012,0.013779947408750956,0.015212982204265965,0.1757757095449507,-0.1017780021928309,-0.15055923051660006,0.10775741591329263,-0.04497969575917089,0.06560897384072485,-0.05586463655818083,0.07518547740311904,-0.018416905622807494,0.07431506728507282,-0.009620867412896819,0.022753890813259018,0.06066177278311063,-0.12074202690957829,0.031640461004520753,0.0639623478528503,-0.024574633899449225,-0.10196967348552878,-0.034602974912788,-0.13211991065049233,0.0462373350157045,0.1143362440498778,-0.019699596830979455,0.06561287277123086,-0.005060575403932668,0.004080328970306516,0.155200113710925,-0.059318446139772794,-0.08276793939800049,0.14554676237660238,-0.066712733774457,-0.1753885440832075,-0.19984796146007563,0.05292623210635318,0.28411835463364493,-0.05369536918049699,0.1216958328755757,-0.13463890051580657,-0.027826852925364437,-0.05631204319576961,-0.04657896546233488,0.1040428414550543,0.11826384608115537,-0.012588755150779975,0.007423243034292001,0.0048940845387426615,-0.14079733622477583,-0.08350737642935001,-0.03606456834854775,0.010299441416908852,0.18923554535213002,0.0783582376095348,0.056843005806441756,0.1406025343653763,0.015203556793098327,-0.09322995848592086,-0.12682166372991427,-0.028427830786112416,-0.07148000132814739,-0.1479244085925555,-0.1350884396650769,-0.12167143859044265,-0.021458903561620054,-0.07309142494959775,-0.05243918604001807,-0.1918676246885439,-0.08579395881199298,0.08256056639152083,0.1813992284015943,0.006421771464139951,0.058088677098428514,0.061740842454956216,-0.06573608785133536,0.04918844727558786,0.1528536803526974,0.020378078678597616,-0.08539122564185099,0.04112553043074299,0.0940076722925589,0.010491791901277985,-0.06150511937731479,-0.12208715412138899,-0.13656819146274476
asxwr_0000-00000240-00000384,0.02629783484257936,-0.07098027300842542,-0.001810174420602052,-0.0359782816580396,-0.033072746284803736,-0.059187386094391344,-0.0027986929736227165,0.05767629632619649,0.03559304688589974,-0.03371652366520763,-0.03964279830292593,-0.08723278877144783,0.0015522075640045496,0.05195133071256631,-0.04368352361976509,0.026237641086880682,-0.026108071878098504,0.12161744303437974,0.04648604118519624,0.06945746056112446,0.08309088079602095,-0.040283533543006615,-0.0037409562869679925,0.05268678296844859,-0.07452004730034005,0.07176161949645575,0.0563603885712895,0.04959488047129135,0.02733821315830341,-0.12012949397982942,0.09170455438820901,0.048741810814550354,0.10599203782105521,-0.006037878884866804,-0.007345670872464088,-0.13509811447488954,-0.09166301173133626,-0.09861397943958876,-0.008329614231918556,0.00027568783144906286,0.13557111088976004,0.058077674201810744,-0.05018042739507079,0.04930570972997895,0.006824532150599394,0.20969416655979145,-0.053834043960119426,-0.1942587828228785,0.0832397518281702,-0.04719192105000623,0.07671635347858752,-0.0028766448668623864,0.04471108850644936,0.04399768128545436,0.05894818774742624,0.005493776264746183,0.07911192606618463,0.05515990396277119,-0.11496360292118157,0.06885758625419917,0.06370544237444921,-0.0004679618615852394,-0.07922289289588418,-0.01754633267539704,-0.1524437930854517,0.06489289575932439,0.10921698357443452,-0.04974163969734211,0.05240543365750446,-0.08356769781147155,-0.0676745027988116,0.20027660003438277,-0.06974289989895353,0.014517075681897258,0.14392166025529612,-0.042412369702016686,-0.13450463315920028,-0.15417106342997952,0.06680763164851283,0.22538824164415885,0.026859709185418267,0.06164532155542546,-0.10865393669623152,-0.016636104950902834,-0.0730725173201635,-0.08113313218311025,0.04983756162704057,0.11794081843837413,-0.02446298026899082,0.03714419219206258,-0.014250910948811058,-0.12936550277260173,-0.10569525110787077,0.03397710743519244,-0.03994730070828942,0.21088940980899112,0.06933564305747454,0.06538804807528063,0.09304891744940844,0.06082801525707793,-0.07391626964153278,-0.1229085806318227,-0.10893731962123986,-0.049169261893310834,-0.21003076556260503,-0.1108669436736048,-0.11393887655211818,-0.007913315302751397,-0.0841940301081086,-0.028947181057147102,-0.21767966025388882,-0.11405485369033898,0.05407959553953888,0.2593920476524654,0.006576452715053017,0.07301360411573794,0.011006906605421186,-0.09742155756145492,0.02717943908211143,0.15506223403351393,0.03976298589524751,-0.03733267080274243,-0.0033078483025111224,0.09749320788114316,-0.006276249800815265,-0.04933341264873055,-0.1015378884212296,-0.005384390188519533
asxwr_0000-00000264-00000408,0.029327737152612186,-0.07617684546964575,-0.02202372321808873,0.004739927627603397,-0.02324978095686574,0.03815155505327772,-0.01083995967987509,0.0513914120131108,0.05405301993000257,-0.006270718617118793,-0.03324826929239195,-0.1294768909323748,-0.020932328056971636,0.06750035553512042,-0.11464649306691177,0.03317843653222101,-0.010642526209284185,0.18888021945411487,0.0026861785594913625,0.10798205479736028,0.043651172085296,-0.11472708685578038,0.05450380671643751,0.035099465131329756,-0.1365819113342603,0.040500548769428255,-0.02236022750993547,0.12958676688146606,0.1364114422350987,-0.15502872115476268,0.05215093846116771,-0.03921787544012893,0.20602936295261234,-0.012822777371625684,-0.03304989711727771,-0.03180805158812579,-0.1409648323535548,-0.10079028705039819,-0.0003450285641281817,-0.028120590162883083,0.1710667411076489,0.1474036657203672,-0.06910670773419411,0.08516997463031303,0.0024175821180299263,0.09872598101564087,-0.027594069253738085,-0.2037671266801193,0.01552069423175691,-0.04750256762460886,0.15045399024598868,-0.0010160350237868202,-0.05425836330965256,0.061749750473902854,0.09357442784992481,0.03517844615080193,0.0893577343188691,0.06656349425770806,-0.17042042061470722,0.08163534968775975,0.09521405254833262,-0.003375331129405781,-0.07216268494982561,0.06519334546398058,-0.10506215230534995,0.03676388527375584,0.029541290962782622,-0.009995922650077793,0.08251118440353301,-0.20744425405008757,-0.02036571051890041,0.058538576626084186,-0.1553906280090076,-0.08910823272463934,0.011220036939809181,-0.09011092949291179,-0.07789980226754081,-0.1606170683455838,0.15666653085655935,0.045889587709091406,-0.0537182534157643,-0.0683109118196308,-0.06199202153123064,-0.07907452476722611,-0.14426622938760975,0.03996162610366126,0.05844190546370481,0.10049726194345365,-0.02756533410302662,0.09172816103133924,0.06488791850963462,-0.09204748454957745,-0.04536380839671133,0.02003949681815074,-0.02763674352548041,0.13805583813874003,0.09647749475447445,-0.07206155242115864,0.14721388734807678,0.07584141935208621,-0.0785868842506228,-0.07812003900306616,-0.1347151244178039,-0.08486291162107888,-0.12884341537227126,-0.09549062557954459,0.030667565156364224,0.04021220643267874,-0.07356969067246448,-0.033402919347737106,0.037340916797436646,-0.022050152014692362,0.023849349459246758,0.14148142129665492,0.010965284910187867,-0.0700323333336496,-0.11390885055820704,-0.03320891149553047,0.12161661894840797,0.09859200168080903,0.04087795394588098,-0.06547127497460842,-0.027094989406958623,0.07826921983318617,-0.18490363843897356,-0.006090184090564799,-0.07798833164227595,-0.021982275941625617
asxwr_0000-00000288-00000432,0.04387625691499246,-0.08250351164165494,-0.015404692904821295,-0.02371303115441703,0.01352674185262164,0.0027653499058783995,-0.014548844586790705,0.055648600762487364,0.03185769290794755,-0.012360539370420455,-0.014638428150755235,-0.0695725995891225,0.023347697702768396,0.05629274330665969,-0.11387237608221383,0.006097344289188912,-0.013243770414717049,0.15782665040070612,-0.02111289437783575,0.08782074623187444,0.04311800948638898,-0.1115170097964107,0.059486578032449854,0.0677469569929356,-0.09455660855459869,0.0759989649174603,-0.060982421233619945,0.12256959493679112,0.19373465394963138,-0.13001521919600298,0.06190444714776594,0.013870983952447558,0.19919448640917067,-0.02575750470105116,-0.04050841450429926,-0.006122806162062083,-0.07787320008097542,-0.08003860403475395,0.031174808807705744,-0.039564645204186115,0.15523408584500475,0.14236706364013968,-0.03758315619431327,0.09321383903229534,-0.009043339024943352,0.06499287925366007,0.013146500644451492,-0.18654756114778892,0.020842198674653114,-0.06422238349667361,0.17030070005444753,0.03469630172839168,-0.0906574894896589,0.09086441796560991,0.08411697011775555,-0.015738187109578413,0.16354084705315822,0.01798849539894867,-0.15808979757111596,0.09778988246738474,0.08557450009406618,0.006080374404741854,-0.08982393419675126,0.04212391177016745,-0.13074287138373564,0.024830846922736086,0.11114906626259127,0.043117058477401556,0.14070700421542917,-0.18798365677218926,0.02287823773663492,0.07865491850954485,-0.10231081447936458,-0.06389593534375003,0.04338786376090934,-0.06836604947647629,-0.05709884567664604,-0.14087880597694977,0.17935306083780167,0.07256666394562682,0.01497505206805074,-0.057038808766166973,-0.07510785119099161,-0.09458423453557371,-0.18254160106827494,-0.04658733206387088,0.040336991454451306,0.03903388473745728,0.014869618079393184,0.10561353111347192,0.10779845912002955,-0.06141807756184717,-0.018558874950277218,0.0702551086916322,-0.02064428869469467,0.05223940244182832,0.12636193562413753,-0.07477697543744181,0.07805217895477609,-0.01147735379206356,-0.04140158217926725,-0.050758862686046485,-0.19344923043954423,-0.09759243635917057,-0.1151285106847775,-0.11302394619429178,0.020111476717314194,0.1184845105050668,-0.07386435656351534,-0.04335765720626241,0.10487366026859718,-0.05101276291421394,-0.057277971396299074,0.16408165164635938,-0.02888281457923109,-0.053426750474112786,-0.12257775920983367,-0.004519352404452242,0.09150856229068685,0.08372782555380007,0.024324976936562666,-0.06549398013284084,-0.04150634247501239,0.126726806628436,-0.18114933932353466,0.0038946593533412456,-0.02460431791480688,-0.009957849913873055
asxwr_0000-00000312-00000456,0.03695663880635589,-0.05270203826870607,-0.005008737610165007,0.008286523438923585,0.03423982580498501,-0.03913953738447018,-0.011201914441154207,0.05873331017392444,-0.005711580240271148,0.043304474395075586,0.042517610534025696,-0.05446039157992735,0.016662518303706998,0.06218600386582967,-0.13030345897232717,0.005095104003063315,0.026081096591190303,0.1122745022928226,-0.027299779700168014,0.03226692577822664,0.0037375234911962165,-0.10516634817525741,0.08887010827187691,0.057270925823278744,-0.06694636110979411,0.02311594496959119,-0.10032247098962074,0.18235516347357517,0.16882867782247057,-0.076073617964216,0.11371412784390843,0.008124338933005994,0.20794856358902283,-0.011409710565211059,-0.03025401783811497,-0.05768117969415903,-0.08503337851662826,-0.06685239518884056,0.03909303291733667,-0.06768007302437522,0.12458990104717449,0.17665551761662174,-0.059240200917627744,0.1799242897283085,-0.08277582396631708,0.028837955797298444,-0.010266125329601757,-0.16062990288318058,0.027246260876713668,-0.08062363762654517,0.08083070879767529,-0.025691075735879428,-0.09118385689329724,0.1046823234757536,0.040223959739071655,-0.02532146071316719,0.15303168250731689,-0.003867907070105288,-0.16122132436758788,-0.0069853639228947915,0.04965546358938518,-0.03155495577568082,-0.07916252865552362,0.051068301601594396,-0.12692680774587392,-0.014977410971896563,0.05549074303984776,0.035271652265044966,0.19312155872522785,-0.1229162804002778,0.06922108742631067,0.13165571964444045,0.003861350284305591,-0.036859564269448565,-0.0035362178910588868,-0.02184642988284259,-0.06208744734230324,-0.1209660050052734,0.14627705091102078,0.06394270695154304,0.06265127610098031,-0.05243062004770306,-0.04344453016314444,-0.04702931786926274,-0.17300585968709445,0.017372702911680492,0.023946416111355125,-0.01144689854676878,-0.037996535777532356,0.10919726414337198,0.0647900427975351,-0.13927483323776468,-0.060200021555544124,0.10479262050408063,0.05734179700679663,0.12362204651076149,0.11092078689747992,-0.07657045688753718,0.09165944301860406,-0.07211406846828987,-0.11824771113093277,-0.13871672980240013,-0.15843881815085645,-0.10574305505509235,-0.0963006302963313,-0.12873304389741452,0.00992836686847401,0.13701300414520085,-0.05205230146285701,0.003288336892279723,0.06964486980336035,-0.05326855564243091,0.05237885621928326,0.16602960546077525,-0.030720412127010523,-0.07997439997520361,-0.10046298725245037,0.0033950201352411116,0.21464150362526982,-0.007496894630995079,0.03210763158179718,-0.11049609586544716,-0.04904751436270739,0.023882765058447455,-0.14841936296830077,-0.052745041377671976,-0.068455865369383,-0.020767075630083454
asxwr_0000-00000336-00000480,0.03820672316960454,-0.06654403779533359,-0.00808487792870023,-0.022692003087479498,0.016323701794999205,-0.01914245395433477,-0.010648635620728675,0.05744710248383641,-0.02418567773314118,-0.0013461604195766188,-0.005374440107882992,-0.05061948175742434,0.028826280762040492,0.04886698233670496,-0.12012520458026857,0.018343341863056657,0.02422106463396769,0.11604502388485642,-0.015214706818715566,0.05725984600120617,-0.009599504942115034,-0.107329122428488,0.07798496982541188,0.05213001498258146,-0.07062774683489795,-0.0017101873260907982,-0.10328509658778581,0.19144135755267697,0.1306790082647518,-0.0909226474129947,0.11375520959797703,0.018413173353788843,0.15825553977709567,-0.005463915699275768,-0.03489430042915678,-0.06629399728854941,-0.06082963783202067,-0.052820365794313456,0.046202648339954154,-0.004360273041194477,0.12575378028897485,0.12641402992181083,-0.030535172109151312,0.1082629816494564,-0.15092968776222315,0.018086423233095204,-0.01932941618272261,-0.1910196691582652,-0.024669128340413914,-0.0302882959885068,0.11181472903822923,-0.05805971861264965,-0.08541341439715597,0.10318452212190163,0.0021684308836681073,0.0053565927004647134,0.1382136700137099,0.025133511312501838,-0.13616809733994154,0.05252596539998827,0.018799820452445635,-0.057984392668504435,-0.033055608474315955,0.13210005362166205,-0.10949171033187895,-0.047048855409937966,0.011915556941413044,0.006282352433526912,0.15073951102126557,-0.12124479502348075,0.0921745160650509,0.1051625869698036,0.011026199679948301,-0.06235536579009161,-0.05818250909800774,-0.08901189475957631,-0.05834324404804056,-0.12204140274256978,0.07333530486435604,0.08083322223324625,0.10409759045465657,-0.05347242129489722,-0.030817511352508944,-0.03314324474081765,-0.13225571645844406,0.015712294182530485,0.05514098627716029,-0.03189617031190267,0.007379218662070723,0.0994162786132914,0.014339267194001108,-0.13551939240157937,-0.04763442903980375,0.11775698804673505,0.09252602680086383,0.17355388728463836,0.19289838350823785,-0.10046223356325379,0.06566202673942072,-0.035629220670509096,-0.1565320415815739,-0.1165758292207674,-0.16286929083071702,-0.10642797921747975,-0.0811622571903963,-0.14344831804012462,0.04974858891592156,0.09923581155605862,-0.04630373197588975,0.010640463661048347,0.07898384189839092,-0.05179872835452398,0.09148262150553876,0.164392665223159,-0.0010954839850260186,-0.09914989197961023,-0.060056356902735065,0.02288696305651195,0.26417701955592515,-0.024939190674839545,0.0018781383004078142,-0.11938588800401823,-0.031744136419897456,0.059491894068178376,-0.13178044153482804,-0.001137803192463156,-0.15427932201792055,-0.00234386361503266
asxwr_0000-00000360-00000504,0.0483707470895355,-0.07135177473739418,-0.034008547907372184,-0.01826817190800829,-0.002976785424803209,-0.024603097601601433,-0.04217151671124972,0.06311281376238313,-0.021884456531456115,-0.00026668296602392927,5.2120541615457394e-05,-0.029618540953147855,0.050266077977316664,0.04348015087712231,-0.1283200477429159,0.015541038510358013,-0.004165180505931104,0.12127673272560867,-0.04244331420046487,0.061185452124314345,-0.004187439253062767,-0.10404653420200573,0.08364687154592548,0.058028187146818726,-0.09338573580110167,-0.008885291848089168,-0.10260507002464002,0.15052454601169352,0.0988640851917485,-0.10658139217193008,0.11798138629978486,0.029902778985309904,0.16608536624162507,-0.014559073464181987,-0.05750596206366265,-0.042162410224450476,-0.08077143541179409,-0.07397377917683297,0.0278381216877993,-0.009437203736618804,0.16000787642889647,0.08507084051054593,-0.060024735825971724,0.084925318739342,-0.14310716294678863,0.05534243005423786,-0.019781439347243555,-0.19611076490939588,-0.040233963292588694,-0.03513061399131837,0.14495411486538104,-0.05920073668281898,-0.07033833395628086,0.09475379750685706,0.032755007180765905,0.029791210469716955,0.12692914245114145,0.08694687827199508,-0.13566535874780686,0.06153718534991683,0.061577429170260066,-0.02989520712100284,-0.018497170762716588,0.07254826537216275,-0.11477184711976086,-0.0514476041216645,-0.010190562704258738,0.010982820966663642,0.14308380640016488,-0.10146843450328381,0.08152776004880435,0.10718812792648844,0.03285717824548406,-0.06891121707774168,-0.066452709769232,-0.0803196954296334,-0.0323251283164332,-0.11905079253039691,0.0611291998620662,0.08577098398633745,0.07473722857073566,-0.012232900969065983,-0.02282456382195773,0.006594813242865246,-0.12693794000172695,0.042179489037920535,0.07808343126631934,-0.012450003432722206,0.030016459457244654,0.08392534567244161,0.008069175325548043,-0.10288412700621015,-0.07625608670387814,0.10153364171105618,0.07353463551512332,0.1846940153406889,0.20735579154136013,-0.08938275739623763,0.1051689835280471,-0.021113998734907505,-0.1714338388767922,-0.12912436861353238,-0.14227659766913045,-0.06571130936812061,-0.10938785878922133,-0.12378405125442953,0.053186521958792504,0.10450301356521306,-0.05124652268192623,0.0028134157414831866,0.058127011304541384,-0.012901321265718892,0.07618605739095272,0.18786643615061266,0.012781098447678739,-0.09222418974388548,-0.036767496275881356,0.03392963927795268,0.28513402687436457,-0.02135665937930846,0.02298795035321817,-0.10677251025012,-0.05690822336004642,0.08494523428446582,-0.12345147541230005,0.010694196538440965,-0.16026573998790214,-0.03453547449157087
asxwr_0000-00000384-00000528,0.056017113190830164,-0.08649500826922688,-0.027861242507159475,-0.03471789672488391,0.0023405408369263697,0.003755294460373629,-0.05394253744528681,0.04222653766616026,-0.016199832735218786,0.009349690956748497,-0.026674177606563782,-0.04932866206428124,0.03140443940908159,0.053018898506723644,-0.12873635716276602,0.03739080744165219,-0.005654030298535186,0.08385707568689717,-0.008774179275968335,0.07904814219983956,0.009076669024665932,-0.10317322519871118,0.01741640010762007,0.06963851420053756,-0.09661019408190583,0.04032600079724686,-0.10717255755385977,0.13338775917302684,0.13452962590835663,-0.14495843615178508,0.15957472812261997,0.08065174292852814,0.2117596971978587,-0.01699948532737014,0.00013887248781405378,-0.0646497517896404,-0.0786032414875629,-0.05552095619494332,0.016443497711647638,0.03186414902312688,0.19028347020818795,0.07587524060768706,-0.08001862389981067,0.09259344753595451,-0.10343298919539214,0.05540281962492758,-0.02709755306789678,-0.17557562324855608,-0.05975318477505894,-0.06942693484240438,0.16507204299137646,-0.01022945782662806,-0.1237374558976951,0.08412787122933928,0.10968860700484859,0.01388962365209999,0.04864606653515326,0.06510145463579375,-0.10986248918444093,0.04226084229752421,0.09711125857749318,-0.1309959097545234,-0.004516594490323037,0.05555174341661556,-0.07299694890909336,0.01315443007869996,0.00183770984572571,0.061779167169697356,0.15732646152975094,-0.12000127696701357,0.13573662270334838,0.02986319363935131,0.04797993448895388,-0.06832172722316522,-0.08189332319098022,-0.04299857395872391,-0.0710988114677678,-0.07021300880384185,0.08620212649945634,0.08223438619038395,0.07122296364044436,0.08048835515169085,-0.019117640243689768,0.0012486991026057265,-0.09900822849113695,0.054653800190060955,0.105397185732361,-0.03988452840172411,-0.009980995150964653,0.09699855002344154,0.02971481123320815,-0.11400743909572555,-0.024664419921929373,0.05670544913247023,0.049584017145911825,0.2000949278285157,0.18907964114222697,-0.12155380906741885,0.08134268413735371,-0.04946196909426751,-0.18646981253457465,-0.10313098065501698,-0.05956544137957515,-0.023758004905928616,-0.083275719082519,-0.11667337719882812,0.09975789412055411,0.08388246462958646,-0.016735095414579713,0.012653857333761068,0.011785311077229056,0.023321685274054996,0.13971854789970536,0.11020510794266097,-0.020512714783799787,-0.09344602709488502,0.008314701703582674,0.061250109241290505,0.23684930294708467,-0.07950851471056807,0.007578429730658874,-0.14569223766714112,-0.06670646688384492,0.06767693840510025,-0.09848535986229413,0.05335396743875678,-0.12321141983723868,-0.08195638102299094
asxwr_0000-00000408-00000552,0.07133055042875314,-0.10182629886561204,-0.034337349591717845,-0.045931310645962745,-0.015950652650118073,-0.010960904324551081,-0.040083097150106176,0.10469362816467843,-0.047190558876759575,0.03799336450930889,0.014148820393883297,-0.038927839114781364,0.016866673553536465,0.0059643358555521615,-0.07899457663205718,0.023454244389296185,-0.03501044998491836,0.09710256981094002,-0.06288277363175573,-0.01775941239716119,-0.030229309394161803,-0.028872873868858014,0.0022649343423786616,0.12414612026222413,-0.11665751665647928,0.08750259506868573,-0.053984881506461795,0.07638758194415876,0.09570150465056813,-0.19819662875925845,0.10398857375444848,0.12361876547828171,0.1521470006049922,-0.03357653038235635,0.006638103724069454,-0.0708951418138931,-0.05749300235720684,-0.04351131563821023,-0.040392255948532865,0.005332375103297547,0.21082112895717978,0.02591425858765962,-0.024690633147187724,0.027552228131738993,-0.11556721825095799,0.09747531183089103,-0.05738013958595026,-0.13021889458159042,-0.010994643230627769,-0.06958816638073825,0.15798559150179375,0.010040065772766634,-0.0514804704860466,0.0574323307011694,0.07048468191020742,0.06055046736690894,-0.026255651496148988,0.07083988099164602,-0.05513159213964155,-0.008250710539247159,0.08282511435144588,-0.043162981397827455,0.024605381124868746,0.002931144827408441,-0.015141925709868255,-0.038048121243016125,0.08204809236173684,0.09772617854886977,0.14001591886015835,-0.07008560002462483,0.11069694184518308,0.11799660590970158,0.12978086600361832,0.0659846259332405,-0.07435841835587192,-0.050920305147027126,-0.026178027189574335,-0.05465540807803212,-0.056032412552095866,0.12532639549852082,0.11676734211541993,0.06219388540698027,-0.019024255671140352,0.0658879639054447,0.010003509379557044,0.06585579305612765,0.0629506967490947,-0.09582992930020375,-0.04321844506393371,0.16140351031556877,0.02641409480152184,-0.09241238945365222,-0.07686353534941065,0.013384943492561726,0.09652799524073595,0.2183009777689583,0.16581069610811774,-0.0213915765051626,0.07401831058075833,-0.008831108242390487,-0.18141557816976994,-0.1834969286337775,-0.07953544478565648,0.0008606027947279346,-0.022637776644777508,-0.19706752361892485,0.15362415902047186,0.09027346489058939,-0.07982083039900399,0.025303910272411658,-0.07706711732609754,-0.027382103465188143,0.08972194388156975,0.05462840287769255,-0.030872449216691796,-0.10814462354861529,0.05166390894220908,0.0034995268878457346,0.24086602692171422,-0.11925814595424171,0.038507396193522475,-0.18322741534183185,-0.04966187009184193,0.057357632226555086,-0.014481704352052293,0.03689633402196953,-0.18332542643447455,-0.06568264116990867
asxwr_0000-00000432-00000576,0.09105979769701071,-0.13707860644902803,-0.0732908930383177,-0.020068008877320687,-0.0637352791697359,0.04265885953173106,-0.04215786077227252,0.05242241710311895,0.007662583033751943,0.011404310964988638,-0.06677613988367172,-0.08675488652127025,0.01679610821759021,0.01797428800536862,-0.061930735006817825,0.030803393381114107,-0.05219933590791238,0.125152063310941,-0.04131348345628025,0.026866451340185785,0.03852728367424561,-0.014862409457037259,0.008610516829701742,0.07482827542660819,-0.12386136019520234,0.037046581083540975,0.03529042025475476,0.02098104126723242,0.04570448897333564,-0.17462108743753987,0.06779833571113399,0.16994092426818697,0.1428757836651891,-0.04979158827861298,0.010083385906485713,-0.11927295616835892,-0.024520757348320828,0.017209188632852437,-0.12257367671932999,-0.06171565242976601,0.20787869107141335,0.035977386271549346,-0.01647768864944168,-0.048399049420228095,-0.04485958385584681,0.08584540842098676,-0.019682536129506982,-0.12224950238853922,-0.04118241461656701,-0.061329418679636455,0.128899703853889,-0.03368674944875387,-0.09303361463474452,-0.025718499579565537,0.046622824284020266,0.04366812148411986,-0.007027403761164867,0.021587531742282912,-0.031311702345025644,-0.01669009539437916,0.10848382159737265,0.019556510011720447,0.041535882392375406,0.0010736500659710969,0.01472041458010051,-0.04041451508614723,0.05411691915983542,0.09317825610685539,0.0995466284755773,-0.05324489131572295,0.09081562440147553,0.10280719511233485,0.03325070904574618,0.06435243279095854,-0.05481029588425231,-0.08733021778846393,0.022623929493377996,0.0038089291898007927,-0.11548715586214327,0.07039445065096686,0.047878529882419224,0.12016287963978296,-0.026017001353567513,0.05522559128169335,0.005892752058521748,0.14135515806207233,0.06358375728247354,-0.12440523608109123,-0.013588855723933337,0.16511795879900973,0.040854450192328216,-0.03260789492998056,-0.0460444073704388,0.0030111540565337857,0.0829386739218773,0.2220877229944581,0.15520766965855673,-0.07081316983430941,0.0352114719849492,0.06820462482915493,-0.13522303594809226,-0.19851290686835593,-0.08631877553044084,-0.03655460514128379,-0.059993693627738875,-0.09651764812924603,0.22387799126982202,0.07045568016025207,0.01942787902416205,0.019387429223538307,-0.02049439890319899,0.004892809126213501,0.219701080891287,0.03669078715963129,-0.02588767603173398,-0.07185502837979695,-0.002964512714648834,0.042462355139075855,0.2350029231226152,-0.17156779353362075,0.13434373929458276,-0.11571911961779881,-0.1268494556225953,0.07206615649686715,0.030743384434028215,0.032293909654681506,-0.2015715411820956,-0.09650974279820926
asxwr_0000-00000456-00000600,0.07537097413135817,-0.06583966941990002,-0.07802864370197914,-0.01719865794578741,-0.05725171931385816,0.0834916597504775,-0.05189647108479145,0.07190712246135073,0.04631126170820601,-0.0028168194573965407,-0.05635117047914428,-0.14118640908787292,0.033406925129649864,0.020903784118628657,-0.04730707734159723,-0.01875107574180237,-0.13037521443941108,0.14750301134357094,-0.006232800487668069,0.051182835304962836,0.055156730817209544,-0.015969455367487787,-0.0041986475664129485,0.06001012325858094,-0.12796866096497111,0.08149942051035992,0.05315743742489313,-0.010465934245605418,0.07016486212483118,-0.2406378913370683,-0.03667119635900561,0.21818195381126554,0.10029354373560088,-0.10867597279082537,-0.07185515065732236,-0.06906212853270387,-0.030108437032176534,0.03350599207546975,-0.12013444925811825,-0.11496055988783212,0.2146764247907929,-0.02200491636345594,0.01759604749602017,-0.1231736503582734,0.0002695262196974206,0.05597984638331616,-0.07582365275036565,-0.07436857328220435,-0.011709073455934414,-0.0696058596818018,0.12075007341459491,0.0482987330883384,-0.030743740830880616,-0.13099765422254497,0.13755328604601477,0.04040997808379753,-0.07992737157936565,0.0029741402722241795,0.03504862976820109,0.04276167043531378,0.11362850413172673,0.13570787549230337,0.017829383609732786,-0.081515454228058,0.0432281094893904,-0.026949823551181893,0.09662419373526761,0.15244323669558957,0.04832922443085531,-0.03661617609500702,0.08692600237867595,-0.014224459015749636,-0.08159015918777386,0.0651920278800918,0.04050612249298542,-0.056902966688593605,0.0908292138368288,-0.05667389576312125,-0.0582254283024915,0.032062783589092585,0.03323551544318967,0.07700943159266184,-0.03793945969845842,0.0737455798006513,0.05418737002191763,0.09727805179464488,0.04607215306419204,-0.04854235704601727,-0.04666877701510859,0.18476841078580195,0.08156664954579418,-0.00324308589796834,-0.06662977248686669,-0.0779592051605567,-0.047783472870136394,0.1817723984640097,0.18090316624937275,-0.07294075044332124,0.052386305710578895,0.1829957390181681,-0.00393147650278495,-0.146329016010262,-0.08391996167973158,-0.03645654910303251,-0.021703693017344833,-0.06991237266689107,0.14525572883631135,0.07123446255196929,0.011128778255824765,0.00853753596988917,-0.019292655621905005,0.0738439645154003,0.14919807501515372,-0.061545095519376765,-0.015592990240847553,-0.0347589921112345,0.05898535120760228,0.03647946216881518,0.20688293250066658,-0.07864497643347144,0.12186271591769483,-0.06260708368132538,-0.06270327123141967,0.11047319948696191,0.08758902720364783,0.04720419601371171,-0.17953686422676593,-0.0769897954004468
asxwr_0000-00000480-00000624,0.07976709811437012,-0.040409209954987264,-0.05502316072106094,-0.046970406536709815,-0.040578502982383406,0.07541971094604678,-0.07729990198509967,0.08805936237447766,0.03480973673217403,0.016006056031196442,0.0023878695642155544,-0.15266678230810582,0.009189850980632573,-0.00244848694094858,-0.04314183005014436,-0.03055181227702933,-0.14500030898098756,0.13634963649266285,-0.0007326387355080507,-0.012623838713895533,0.03096162949067405,-0.025808256058834585,-0.00041258907824073414,0.05466497666047165,-0.09641928985179493,0.13230032901955205,0.02141712902768651,-0.021987424521339442,0.08673124092886073,-0.20061240602510638,-0.03144782589872223,0.14793984574799746,0.048172777196072096,-0.14960424999108338,0.003310576434207421,-0.07878500006609418,-0.05438210907513217,0.0834585473989086,-0.045894775091332995,-0.17340144885708833,0.21862619872249012,0.025627544936557833,0.016583413817089616,-0.11348638758025388,-0.001908085067486124,0.03137852072805689,-0.00023730239673022593,-0.08762175088035087,-0.004976035893338354,-0.04046212936999666,0.14748919409009376,0.052308381088077636,0.007879997959382809,-0.19199648002653147,0.08624102317264383,0.049168403144322394,-0.06386948518025073,-0.0029171653193454106,0.017726542453759476,0.04360030381007866,0.067252495486188,0.03284959423672728,-0.04294236589227177,-0.08098319545445819,0.04825554135192697,0.023601988882254153,0.019435521820687904,0.15618654698463982,0.10737066594832184,-0.11902209978850013,0.13318661374987456,-0.008777214840437204,-0.09726835925491528,0.10652249588022916,0.05791035088675954,-0.04913675449547284,0.053971722569273115,-0.15298612407324857,-0.05887286259729336,0.011463612039348973,-0.0014697304996280126,0.010930862281259751,-0.048471944730111044,0.08496964741178292,0.02595911614553336,0.05120233571580103,-0.0003936717733797582,-0.022622453336751648,-0.1269814056803684,0.2203361429469905,0.029984077780003376,0.01629623658720875,-0.054393916179702906,-0.06442428637283876,-0.04727125165705029,0.11711233991928449,0.14472333337084214,-0.1026844145586939,0.04701498261609427,0.12277949441225561,-0.06388442103501343,-0.11520208004606479,-0.1370918611096628,0.008545284223384313,-0.026910520227524163,-0.12142312916998853,0.12310696484287008,0.07489919508288545,0.040241116751578807,-0.05907438773729715,0.010498059075881043,-0.05440947438362676,0.11306961142654079,-0.093966590780904,-0.08007815153772331,0.014638663497281174,0.08495696835952762,0.10942560066755065,0.19807850595446302,-0.009636723738980989,0.15153494470246973,-0.11804116687161306,-0.036746661946168845,0.09225150764750475,0.09375691240462872,0.06399095630898281,-0.22269266235697702,-0.05727276311242768
asxwr_0000-00000504-00000648,0.07998656568685401,-0.02429177903858065,-0.05943804895778396,-0.07343321172725327,-0.014314881319228574,0.039807948964016626,-0.09095929888148786,0.1116601740499601,0.01603743414236586,0.015660727704798996,-0.02524218992504393,-0.11990498749300635,-0.012736716429490074,-0.02097399520848142,-0.01543320403785532,-0.06193787104679221,-0.16496281553859432,0.10444208429145589,0.06316208248704683,0.0018001245974160088,0.02246878029620928,-0.04252494255460397,-0.03870342516475592,0.06108713159720357,-0.06926861520721092,0.13531082861327526,0.04933134660412773,-0.02836715819613494,0.0728027560244779,-0.19518448458795784,-0.04817754821730498,0.11062709596462028,0.044878277038934704,-0.21067381749861108,0.0030705138845090853,-0.07375609854665026,-0.027995511356607626,0.05794246345565112,-0.026360186016880845,-0.15707254947247445,0.1808665826225135,0.04866447291732562,0.034125691223047955,-0.15998675904022314,0.023842216417993355,-0.04394689001538328,-0.043229034269644105,-0.01923833769171262,0.018956538503083716,-0.03406236617407572,0.1425652951552671,0.045461680508236325,0.04917274443146002,-0.1887033707696175,0.12328870267444418,0.03740212919055353,-0.07090524218936503,-0.04055079124069926,0.023672068070467393,0.04720673415597078,0.05826599054431287,0.006831119335072614,-0.06629043508471226,-0.103449697384478,0.03329813367769122,-0.03198581015758556,0.04376938425112579,0.11539349246821645,0.1130445004085146,-0.10864876791675175,0.147869038263652,-0.03900841044968177,-0.166236952540814,0.049127236953196436,0.13606606122431153,-0.06340221806007033,0.06387694127100144,-0.1632737128556759,-0.0012081461168600314,-0.0160259436040803,-0.005534336360460314,0.0028865358693166096,-0.06889848522667834,0.09102648833828979,0.03743681203706479,0.04481152617447682,-0.007287248654379943,-0.0008897127524479312,-0.123677214898934,0.19197237033170006,0.09345301504531099,-0.030066124850196402,0.022195300501366772,-0.07039855032867488,-0.06420110133496514,0.05604871108059876,0.18310536133271307,-0.141451239525176,0.04145068723506295,0.04328339140290198,-0.086912688882047,-0.10401250618488088,-0.13782564410577586,-0.059267228162567506,0.029169088507984896,-0.09055819906518614,0.054220792552253545,0.0726604698623261,-0.005107095980454819,-0.046844651903801104,-0.007192970255695669,0.011005258483970007,0.1083547502238263,-0.10414533418952543,0.007233167914459047,-0.008821081775388559,0.14633903895927777,0.08803178469714856,0.16614206820086647,0.029503706733796507,0.053553059941905796,-0.1437690288251825,0.013844275127154847,0.08801940818775648,0.18642957594117376,0.016073059451607755,-0.2091668023077389,-0.06867709919600118
asxwr_0000-00000528-00000672,0.09872368853050961,-0.028791434572578458,-0.027272903278397848,-0.062123040878676865,0.0034642430038977815,0.023448466541138913,-0.07089515904097356,0.078937621315352,0.004089538631007493,0.039048835549604304,0.0041152100121365845,-0.04796226885479469,-0.009502419335354768,-0.010043014435360138,-0.019841063923600775,-0.08772322241501483,-0.18790316465988355,0.08171005057644959,0.059201337753897416,-0.020485175050216867,0.04806528401963889,-0.001220689345976012,-0.026041920413146097,0.038002321052220935,-0.04342676608449882,0.11296636475989448,0.049023819223609905,-0.027591077658495496,0.06423487524564078,-0.16494833650901752,-0.01886574867077316,0.09577826346949912,0.005325426916462417,-0.17320413629365952,-0.014075655615779888,-0.029938946952900006,-0.03863243704957944,0.06469789246289852,-0.023379522989105013,-0.15418558084953005,0.17312172237152912,0.052399218132289996,0.016763939779053123,-0.15012084685422428,0.02028667687703894,-0.03582209228380014,-0.048037012137490155,-0.01378822733572104,0.04170102290670705,0.0022030786264454877,0.14105209434652313,0.040102785242730615,0.0427567620681317,-0.19287037701863913,0.10210887182121241,0.046052090851997504,-0.041397960198077226,-0.013819535094564026,0.0835533040924743,0.03404689760012525,0.05585584418634989,0.07520491743948149,-0.09596617468483272,-0.10876962781794068,0.017341072914624712,0.01298680813457932,-0.012020738180974183,0.08624755262717186,0.08137769240241348,-0.08356079699451531,0.12363193440770877,-0.07205396277545133,-0.17447943145383168,0.02466228063521563,0.13825865316733998,-0.0696656518361197,0.06717377433314527,-0.1823074524022697,-0.021280224349395343,-0.006717956286457402,-0.08933102619917191,-0.005355622545094414,-0.11295394575640802,0.11475344293715459,0.041860923989931215,0.010753576423952402,-0.024245106919444474,-0.004699547907459918,-0.03851837555953685,0.2347686269284054,0.06796440487213168,-0.12815258730395535,-0.020139740284431745,-0.07484752233391928,0.002866433248310097,0.04815553470154172,0.24863292629843553,-0.0696340532250348,0.08422997865343478,0.07080242776916966,-0.04141704337382533,-0.13008490850532345,-0.1896097308637361,-0.03027191350551818,0.0002067498060987605,-0.06589842675177512,0.045480267773162546,0.09875013357244597,0.004692812645496019,-0.008916607818485387,-0.010277060704553038,0.03437640127881088,0.11552319918783206,-0.09500071333982492,0.07228302093319876,-0.039460464220834025,0.03830273447698218,0.06102602434995114,0.19405566302019087,-0.000907069381658038,0.05281395315502837,-0.1571870280084758,0.02764118729309186,0.07380232487213573,0.18197700304718004,-0.013144258314384758,-0.22553398768693841,-0.12972239452871903
asxwr_0000-00000552-00000696,0.13770123071126003,-0.07006395154875379,-0.05023974616151598,-0.07072541785394279,-0.009771843932278097,0.01659960165039576,-0.05818991762934952,0.06501480921161679,0.004252491544548965,0.007998464269639084,-0.002862384672421245,-0.08672390442647009,-0.04305693011137267,-0.00012315510976063844,-0.021632886968211175,-0.08393862465739778,-0.19053581984831927,0.05980156048271095,0.10396487267019187,-0.04163307393448293,0.03771636668789886,0.011879725348344843,-0.05678273449825773,0.0006038719758949188,0.0402845679327833,0.14794055667997202,0.06737062541667307,0.0007062575443443622,0.04607141235994924,-0.1081359774583754,0.024347944996768983,0.13450153713687518,-0.015226252781485823,-0.23165659644749625,0.03923658503962163,-0.049625364286853074,-0.05491814017222256,0.010630934544306275,0.022916754506595402,-0.1333102586405447,0.20437380577556713,0.012676381089044017,-0.032202369175856616,-0.08501153578080871,0.06944229012928686,-0.003536107148844837,-0.06534241291194354,-0.008897945183427866,-0.014141989537450127,-0.033326577278423995,0.19619802252632088,0.0008285640534749206,-0.034849127715136666,-0.28086260676561364,0.12651866758260955,0.07343838201220122,-0.0195916039632871,-0.06912566794724108,0.10342301242241297,0.047928404673008074,0.09433330571885211,-0.009845396843717475,-0.11484523734891205,-0.1245971015168233,-0.00028621672417917095,0.0705611853639359,-0.030248846392737904,0.11161879906090567,0.028426495203053882,-0.04934048703569474,0.022052157772750543,-0.10990596031961723,-0.17120809802792597,0.027148113569310062,0.10618983534756751,-0.08172552452788603,-0.0011596065944672617,-0.20137654018839415,-0.05077778694240203,-0.02895227834892703,-0.05432615114107632,-0.03034163630935063,-0.03544063184731649,0.12003567961934837,0.033011630843591905,0.01543788758369049,-0.009279640952353504,0.009459683704000785,-0.002753409369003751,0.13067243434730386,-0.02182648737666759,-0.06885692833381539,0.022561520008136462,-0.013163999500981481,0.012071230120483027,0.13410633363833238,0.2299898818842635,-0.065530505308789,0.09142861355673457,0.09733344575097638,-0.047109664439137396,-0.09949226188707716,-0.13891515626055712,-0.08151547368943497,0.0029192938711182074,-0.05090118294368312,-0.0421870632286198,0.08339154874161071,0.09007475255681299,0.0237798523194824,0.028586790283848994,0.04317622055687161,0.08538390972319977,-0.07914243084926215,0.00662363308288539,0.01914472647504482,0.1197295688483638,-0.004553026463354433,0.13473708429688522,0.071252078008895,0.03127709926595771,-0.08590415239578376,0.1401302160018841,0.07964997916334932,0.18004120964968764,-0.031239654207563666,-0.19370490005410257,-0.09562540538757645
asxwr_0000-00000576-00000720,0.11743837688452784,-0.05555637111943826,0.014320168483446909,-0.06338123842924479,-0.06706972536626593,0.0037911697671484247,-0.033958133343147616,0.0601830135203614,0.03835675364571254,0.06459786133153753,0.0002134003210180546,-0.0625828393491388,-0.056053347652314844,-0.01042531599651016,-0.05881188597074434,-0.09068004672778243,-0.19044862325538206,0.05408600212671046,0.1161420425455215,-0.040658028551489596,-0.024102477571373723,0.12000150276264787,-0.08632871050196597,0.01022272840704826,0.02770637286707987,0.18619489444602524,0.08263917677075046,-0.07339904906114376,0.03202249633999698,-0.12678108401559246,0.01263461855665402,0.0289013809849871,-0.03419120890872596,-0.2938146802310132,0.02529966176719161,-0.03796408002089511,-0.06999705031267756,-0.014018673389119274,0.03472511124058009,-0.020777005895527206,0.16530997468048297,0.05711843353219419,0.01223851099668757,-0.042208347990105186,0.0767246183994215,-0.022154664118879355,-0.07274483766402018,-0.08144341753120933,-0.0043920356788503005,-0.06215126094112003,0.16653577097986338,0.03711740702657951,-0.01053790921745325,-0.2683246190799153,0.14275167413719264,0.0800411354844867,-0.021949534384965767,0.0092268497660156,0.16933858271659183,-0.03448429558149168,0.03377368669197772,0.10052952958594953,-0.15074999653757923,-0.04498939962615516,-0.06128591468852432,0.07423152316281127,-0.01095414715923584,0.09312946442220114,0.0020320624685747145,-0.018545055466865513,0.06595364370842165,-0.08098367057438072,-0.0690756593061359,0.0007263549343390245,0.086796523346195,-0.04591698175453412,-0.04670806326733362,-0.18559753468945905,-0.0010917235094538035,0.014174913282631969,-0.031077056853866882,0.0675182239303609,-0.001518819388372481,0.11175210243792146,0.08018300579451365,0.06378095899075364,0.09119174910642115,0.047887449599235174,-0.04204363980272858,0.06812430273400959,-0.08431230239818147,-0.018204763446051674,-0.09632121783964197,0.04291818247435847,-0.0975922188221336,0.13761721743729768,0.1335672921142978,-0.022124204855175973,0.20258260478176945,0.09052174006535074,-0.013103680023688119,-0.08879302073680197,-0.03951447475581016,-0.01922480864011881,0.055037418040566444,-0.009764892578604068,-0.17433279757212772,0.03410126149729773,-0.0068126415252009135,0.054401697494203635,-0.03519577486464498,0.039582258901777585,0.039017953899052195,-0.03720159945066118,0.008738826281537954,0.025911503562174035,0.11904819620600758,0.004582153387332125,0.06710739155336898,0.1456088322042048,-0.0005625283480162043,-0.05171162050345947,0.21702336349974136,0.05572617013131728,0.1989934584697582,-0.02016013928775936,-0.1455871422006052,-0.09087692953216457
asxwr_0000-00000600-00000744,0.06866353565771138,-0.03035140955680127,0.036907119593410795,-0.010693681921389546,-0.043226317993796004,0.04575427396553934,-0.006589876424240211,-0.013364861288334348,0.053823695368100305,0.040420389771185034,-0.03236470757105578,-0.0009837870288844453,-0.09655036591338857,-0.030553632216105683,-0.044481913152133186,-0.00832225305678301,-0.0904712665535457,0.062440456038754026,0.20883447988396514,0.024908153933359455,0.019776739639846802,0.11740694338702844,-0.09673127486059675,-0.04840819020116323,0.05727183803647324,0.1466186278566643,0.03993315219570146,-0.015389084211713505,0.014133226947957234,-0.060776583236657085,0.14615576057427515,0.004993068461151369,-0.008447330234746689,-0.2509727089953983,0.017401497974436866,-0.05726233249051295,0.007078706976934992,0.0116657017965782,0.03406995556919535,0.0678159244342105,0.1150778858715478,0.02917362241734408,-0.03309646246312863,-0.015497078664492049,0.0805407380361804,0.03811885599669549,-0.05875872088288704,-0.15742966502716438,-0.04466884467547057,-0.018466027166494904,0.1106067058226151,0.021022769268562547,-0.05879035338901373,-0.15114491671433164,0.22229316537668953,0.029595191938096538,0.09511468458246083,0.066511060269428,0.07419114503157971,0.019191153684514593,0.052665575600342684,0.10328064429228286,-0.08382912927113681,-0.11423461486119602,-0.0839560980683824,0.16092053490062183,-0.05565163699018764,0.005730551725744754,-0.021512669391541697,0.0019863407747655847,-0.03133259485977546,-0.011123602967144548,-0.046132879875444316,-0.004207810847935701,0.14402404888895243,0.030621977141358118,-0.08166193666853683,-0.14441943276958916,-0.03522787195517679,0.13334857145127207,-0.028171398955798573,0.04931336266890292,0.003378165431605008,0.007350502133531148,0.024258467349322438,-0.04153332403264713,0.10824131572978626,0.04721462157881021,0.08943174627994976,-0.08926277754634733,-0.11945248125201255,-0.11031924015341145,-0.1307580799971305,-0.03264549548562145,-0.011030120308545577,0.04999515366617862,0.09415771743735592,-0.027265210309748926,0.33710365208350007,-0.04526474384995129,-0.09626358881140107,-0.06615152543855543,0.023369037810785986,0.002016248796258178,-0.06483233418372404,-0.02407778526218045,-0.1829659970429151,0.09914644215042163,0.043245836594492174,0.0881388845576161,-0.09033515922785135,0.004037938126319114,0.0656413210454483,0.1482511622923666,0.12722077541961235,0.023779769869023117,0.07296608964091326,-0.12159457724487495,0.030818713103898897,0.035176127634003504,-0.10818880088577282,-0.02044228555704154,0.11183899798369744,0.03198687987721275,0.2134825710830285,-0.04738079983959265,-0.15631304712574753,-0.09320475742116918
asxwr_0000-00000624-00000768,0.055569842410564,-0.005588549049691668,0.0185726530178422,0.044818871789643666,-0.067823984882569,0.04409870866039882,0.019454361939772468,-0.060467962026607314,0.057756533737399876,0.02497985049551678,-0.029736265087662847,-0.07413982415101382,-0.12667085699742023,0.02081234198958578,-0.06730845887545725,-0.037565580006293654,-0.004373014322715154,0.0557289196991771,0.17788060394402783,0.007963895994461147,-0.025935194572485734,0.12012816849981857,-0.11112027456995734,-0.04471164258318844,0.019063225323183646,0.1476516178207519,0.07362780582928637,-0.016130756794134008,0.021572445324282936,-0.102915117541185,0.13372863494988554,0.06480706091407384,0.06004474015522862,-0.21209998412786132,-0.02516758927307537,-0.08745317260986629,0.009582738347051957,-0.05073921635925707,0.03904785354600695,0.11755402756628214,0.10804018760307035,-0.005986122343081207,-0.052338938004746614,-0.01622126141545824,0.05654272887392059,0.04725145092074197,-0.10419590730397119,-0.18469199542522854,-0.042694682234511526,-0.06313057775266219,0.09901735891300563,-0.0023205070326125085,-0.0569719402422836,-0.07554248228580389,0.2522354152722714,0.01279392207395964,0.06493568003707655,0.007947548063299986,0.04433297224823732,-0.06047592469571694,0.03052966948349419,0.16826974696179897,-0.08766245493427603,-0.06477601017116695,-0.04220526345994122,0.16776254023590959,-0.01272896472781919,0.03769083256058828,-0.05436259385183892,0.03889556913345136,-0.06684415783406883,-0.025045061553109385,-0.032676345021207476,-0.0006658629939779009,0.1346158223198165,0.031077878104157266,-0.09053476652584436,0.007071163578930099,-0.0955662004841415,0.13713450577752193,0.034379952680404266,0.10951793446502614,0.01618943267534589,-0.07450845895016098,0.07337108540260354,-0.030729427253556717,0.14256336735659797,-0.017572437706070893,0.17491935349131324,-0.08318835774889957,-0.06450900243857353,-0.0726985850076431,-0.14646468415557537,-0.04061587732430088,-0.04723477243066189,0.0608216526967768,0.15850753148876562,-0.003056615810918972,0.29918717394723277,-0.015821668804265606,-0.13492041138140887,-0.02823566024295505,0.12705599316773106,-0.0043405002311474395,-0.06995583335511409,-0.0720758466297658,-0.14767380293519697,0.08942139015329419,0.10974897818036185,0.12837909742096285,-0.03672318130841823,0.06823567662480183,0.031171371875461155,0.09087704285759919,0.12803097961553805,0.02148521841232941,0.02964654963960674,-0.10148255950345458,0.07435519561253708,-0.05896037449786273,-0.11208112576422521,0.020949292617068023,0.051113331933984575,0.0096981007066185,0.12861005679532508,-0.10161071333621348,0.00225528435422832,-0.11770854223703398
asxwr_0000-00000648-00000792,0.03587372874112819,-0.021466870962663188,0.0719466664490791,0.06457060522753048,-0.0557077713813277,0.09382682704843667,-0.008056951563315403,-0.10822687948099664,0.08701921031441663,0.04286322783638705,-0.018274690162437084,0.03193828228312561,-0.059578408776765374,0.07487098074672412,-0.1261784843473252,0.01524971514196553,0.011958358521481725,0.04616611330636821,0.11567702225402786,0.12812667356630797,-0.038561414579825655,0.11491391314990662,-0.0857575582482938,-0.06153036689329827,0.036063468027140215,0.12736000355537208,0.06240004055705585,0.03439308323113417,0.02523619497671162,-0.1450239959388902,0.291675509913011,0.1210224635246168,0.04908676813191852,-0.06316738828231075,-0.07320695027430019,-0.08351563477335117,0.030918439314094787,-0.03750092960214392,0.03876908811680604,0.12461831426216538,0.030520503155178957,0.05868089393574896,-0.01613997082631979,0.01960446204327668,0.008520167566196819,0.0798715513767945,-0.0851455574159361,-0.19887375814721248,0.048295806313655466,-0.04563688879793947,0.06360266756028768,-0.07264997203833935,0.01877888670979691,0.04335603516808582,0.2760748644721389,0.013964669714793817,0.14676725755993156,0.01416571908063089,0.08295942082317846,-0.12022194710661592,0.06619117184384032,0.13288068225337504,-0.02897877599634733,-0.07461541543763474,-0.10767125478162867,0.19022444227730984,0.047413240835441725,0.03471520425252012,0.001478926127597012,0.028840698449423267,-0.04760883296580734,0.08696797961218733,0.074682125671646,0.10068616839788143,0.12440327591750686,0.05215293814546398,-0.052974676745666555,-0.036074821943179576,-0.18573518345659315,0.1497839568984516,0.02869760958513752,0.07713270166209735,-0.11145813439477914,-0.05515837514026198,0.0331350273977613,-0.06250858321543433,0.06460786262552001,-0.06436231574814395,0.12586769805277528,-0.0031245225075146204,-0.05419779277716181,-0.10938642154359005,-0.14766756733153147,0.01626218852155361,0.042431046198919735,0.07078060415479753,0.16736993474536416,0.022685659184012007,0.13592460205095694,0.012919681021710488,-0.08466687890217414,0.00818600179042494,0.11531587543283982,-0.046159450876558185,-0.016862489550926795,-0.21098800756654434,-0.108412425126142,0.06359165910148465,-0.03898910296826632,0.060261782344990786,-0.04348474145681029,0.023791626118120475,0.03742494863949184,0.1444256968809929,0.10858367905913813,0.05385556373492699,-0.05799266979762004,-0.03882727919489668,0.0396505899126845,0.07466620830869923,-0.10478461799205147,-0.027860654522101947,-0.027680142156770837,0.07468022952931262,-0.004826573593730982,0.027528098197570603,-0.013440617524639853,-0.09400966611527505
asxwr_0000-00000672-00000816,0.0331258337612608,-0.049097648951607155,0.05632210049277133,0.06220685143714494,-0.07854576333042254,0.09587325564781651,-0.0032542338477241266,-0.037668640993353764,0.13304787563442036,0.06821479571563639,-0.003483834633796881,0.04312252114069337,-0.04460696803221232,0.05091784977870016,-0.13038447631725056,0.050970588981423516,0.0626624695416316,0.050566775867114,0.12492618554749965,0.14758994435665795,-0.059563535944724216,0.10199145594374581,-0.06958131852928291,-0.041937902593982376,0.025321537613711618,0.11709536317008476,0.052550337758400206,0.017063334484174575,0.006617134287851757,-0.13702172448281424,0.239809845218501,0.06937512684975847,0.08964352121078246,-0.04611437024750445,-0.03320006467603554,-0.09518442032231735,0.017900429967361846,-0.02547736487305898,0.020733956384370422,0.09377738575699486,0.031246919150063272,0.10144462136206343,0.005363271291627734,0.006919494356875903,-0.040345278624411396,0.08846326448484693,-0.14292167647318846,-0.19797484804604792,0.05302700963476531,-0.05577864686905971,0.031530033663878736,-0.050898537899199556,0.005686699395362797,0.018163159641907716,0.2710431074037884,0.02461853395313572,0.05316451193139268,0.07274113597603149,-0.008196622293168747,-0.15643785793766604,0.09576694637051483,0.039910866680553145,-0.03934175838135602,-0.06999006918814572,-0.16004913418634273,0.07905688192122008,0.0821225141780678,0.0665530994192378,-0.029308318036353937,0.0186420502923974,-0.06755131672232964,0.17363882390037794,0.06201645524941432,0.10571656980703206,0.0846980532461483,0.10099580501054625,-0.088321001129559,-0.03671049599485202,-0.13517319316664755,0.1931594666178039,0.04741433726217445,0.06918376699219429,-0.10279827013808446,-0.08164937082092776,-0.006605575503590494,-0.11943017117468634,0.058344789435618584,-0.06347783410936543,0.14127313088580742,-0.0084835832871283,-0.00897224142135257,-0.11030788122931712,-0.0783998335978296,0.021738674452687613,0.027243448154345942,0.030144830425819776,0.14004487304657653,0.019953266934958688,0.12105756881386352,-0.016270699518975022,-0.13479725949611918,-0.08652405839396263,0.10675446376571673,-0.11943769876651969,-0.03888950898387761,-0.22854611951729994,-0.08966491313449744,0.003997779175501382,-0.05247426295887267,0.11231605223488329,0.007295290762115805,0.02008109628065996,0.03961177861323104,0.18180958273897274,0.10889329939972589,0.07076456875655039,-0.07457058194991753,-0.018556246657290436,0.060226876558011115,0.03372742890575102,-0.020542025328223,-0.03779048678813523,-0.024056318955727338,0.08482747354547295,-0.07389474886180099,0.04041046924857676,0.011453771030340586,-0.1049318288403353
asxwr_0000-00000696-00000840,0.039821241934472146,-0.050606040382109654,0.0463974198129222,0.07855814840762926,-0.04072103697949753,0.09331639114452045,-0.0242860182639463,-0.02153551280950703,0.13365331588599974,0.054352662980878506,0.018998572377293414,0.014536595366533801,-0.028744196625654705,0.06139377056515815,-0.12157800321632739,0.024074850835702228,0.10746323889103818,0.04283444483011613,0.13122904784849732,0.14692069120541867,-0.028630496802391842,0.0804314121728983,-0.06865502612815584,0.007431151413733623,0.024225190395834362,0.08801856559070263,0.07995370747570706,-0.014671561723241518,-0.04023511730646471,-0.1617354845174125,0.2995490471120087,0.08202225260043165,0.0698135479089166,0.004542808740006185,-0.04127564446592779,-0.11392500787259802,-0.04354602512634943,-0.050347191983464754,0.0016114561380958475,0.155539300058276,-0.013874791966098065,0.03698377879418591,-0.06273030450031794,-0.0027150268133723588,-0.07293116766502981,0.09816622806715743,-0.15177666614941465,-0.18707614640075243,0.024744245509306716,-0.009147470366844485,0.0023412443414373625,-0.09881259739274076,0.02044423279034334,-0.009870108414054397,0.2199667124111682,-0.027442401893399485,0.051100717234203286,0.08991264053413277,0.030897597996603646,-0.13160684987696458,0.08598720921342425,-0.009544587682327665,-0.006699067401812298,-0.043654076928204784,-0.1752488183620383,0.11586862501164728,0.07993670039947458,0.035308604128275224,-0.09020243305278368,0.0018406930213290768,0.07390595651521903,0.14250559209982677,0.07490166123705724,0.08942974070006172,0.06078700606680481,0.07438001946945455,-0.08606515412020559,-0.05258303414175162,-0.13469149696398813,0.1539291136152073,0.10155619415003235,-0.010015573215475852,-0.10117868197077554,-0.06349789906030265,-0.015636301314494443,-0.09864231877007076,0.035072769995025385,-0.003163523914704104,0.08738280666760652,0.03670509870250911,0.024690170625349093,-0.18078452280742793,-0.0434134339943942,-0.01053812737051269,-0.00214933692025787,0.01921127610690708,0.15822115509125062,0.02733572904887173,0.12065039375180717,-0.057641422189382466,-0.11386483967775245,-0.06005584380445823,0.08979888835237479,-0.1563033126101888,-0.022271800471780446,-0.1547348466817415,-0.20172337500075613,-0.0191662033319019,-0.0034055487309382006,0.12439162481710454,0.04548196052951501,0.010819059768452507,0.0464651009564104,0.1665333088954426,0.12201873667970813,0.014260745954965624,-0.04069324209627416,0.06261072528856895,0.045415854123638,0.03486784710907408,-0.007733104923582525,-0.07991168756354501,-0.042119250228028655,0.12107346948964928,-0.036422025340363796,0.022809048268977818,-0.03735999383665613,-0.09587835554174133
asxwr_0000-00000720-00000864,0.04645515713036514,-0.044573310970314736,0.023231763098168882,0.060943606368899166,-0.0010930345625527404,0.05971425755976394,-0.05395093408734236,0.0034596352592004783,0.0823652019282718,-0.0017836987467101688,4.298146595660888e-05,0.028969368349987857,-0.0033795131189285395,0.08534905757528935,-0.12620122351262383,0.003382201208389283,0.08190192613696526,0.024439077800145755,0.10784887967977977,0.12993168537214375,-0.04477628088971854,0.025462936445232717,-0.026214233322225774,0.026879596935562834,-0.033591911460276215,0.03355716624191769,0.09789184839840546,0.012007982114352852,-0.03759698810188273,-0.1540561234037053,0.26325866542360526,0.10927098025393474,0.1057062135936693,0.02064851653587306,0.013079630433415689,-0.1630533478181565,-0.02938366966872157,-0.03246813077124574,0.028096055871574262,0.1605934004076028,-0.0370864834112926,0.025414946887144896,-0.08426156647532593,0.020438179518572804,-0.07209389873463326,0.13298050746820525,-0.11105354491408695,-0.15171291651140265,0.01891386300718456,0.014394705958649149,0.06131803918741742,-0.09080722154801144,0.018231045036755614,0.035802895406187654,0.16006559285005095,-0.017216276023193193,0.04571579667892685,0.09148428086593192,-0.001975084063529621,-0.14483257638485628,0.15210663801325502,-0.01024973228895586,0.014358026615124668,-0.030111046390311407,-0.1940046191466434,0.10433678423632411,-0.004091287607158164,0.04114195291048906,-0.04582294694275407,-0.0236414977050159,0.038333643717377824,0.14779090979601228,0.013354082471310058,0.07084442661494252,0.07803879417984108,0.07993252156308386,-0.12150100540221563,-0.040614460160569944,-0.0557799651181277,0.19145905153721518,0.04493746345545547,-0.041316187928159775,-0.08821770603297999,-0.0539525703638336,-0.06229672355150974,-0.1477419593224162,0.005687536362204968,0.03950562855200361,0.09856611239171775,0.039008892375248114,0.09621610932685679,-0.20959783257364475,0.006865486019360461,0.03092312335154899,0.031778169291171506,0.07952329591082864,0.2569693791273986,0.042316645811189,0.07595243410397824,-0.07489296835453184,-0.10134436383416227,-0.04386877846032547,0.030951757691057322,-0.22131684332324666,-0.01678506526363177,-0.15876954501363374,-0.13661614305727307,0.028662366329712263,0.05537010099238286,0.05921077734071113,0.13505751723062268,0.0017227440883191862,-0.016644639578867672,0.06658904004548663,0.034226621480848214,-0.047081514706014495,-0.010015771916389343,0.03550473156726254,0.10173622957287298,-0.012984630607130534,0.024825310256169412,-0.12959766195150568,-0.02979833613293164,0.1509613298200695,-0.1438714719180185,0.03425457037780712,-0.08270507430067749,-0.004805753668585864
asxwr_0000-00000744-00000888,0.042832024390517906,-0.03941547767144869,0.03767253858753895,0.003633349425033403,0.003985797152995024,0.02206763709917194,-0.07581076557079415,0.04041327049736368,0.08499279567037779,0.009795576277562883,-0.02654794442669171,0.034884545613269854,0.04168166322767044,0.06199117835960761,-0.07105038041198,0.001869081914250595,0.02246875627941667,0.0077254213209658916,0.06473717111493979,0.17638532316037261,-0.062320446224421185,-0.011188273551581217,-0.08009462112293186,0.05606149911408917,-0.07127867983161047,0.023262551563261676,0.09756676535570075,-0.021672483233972476,-0.020696154171823047,-0.15554445161322247,0.1924685843615995,0.08774833774732732,0.09730252505211351,0.006833290240830185,0.028559118846459775,-0.12937009346235007,-0.03040212659910211,-0.05969945588620307,0.02807916544573565,0.13442332924669298,-0.03252124856067431,0.07645529944483968,-0.029075871923522435,0.017327840185225783,-0.07612401337255637,0.10329941252864597,-0.1084193840179382,-0.15880844889156562,0.02058835964262188,0.02982607503085872,0.11589430954886734,-0.1270157270648157,0.0043768264912501745,0.03439589982131524,0.127234988030875,-0.06452650637933852,0.06632342754844778,0.06586229896311935,-0.015211912220403846,-0.13551841148281016,0.14280917823150038,-0.05791950193482368,-0.0012672878106127214,0.004696596130712821,-0.22991545436287872,0.08141134565739741,0.06752434300086466,0.0836599023771901,-0.043592607182186834,-0.05437802258825684,0.07055986996368124,0.1139705977281858,0.06769277698210575,0.06329976048773381,0.023641983146650176,0.00280952188903684,-0.14391389553333386,-0.028960978253981487,0.02469181577578934,0.23554288652549363,0.03635991805140746,-0.005282783979854182,-0.09783887141612076,0.007327811275958219,-0.049579681230217915,-0.08517031734345706,0.0010744188743340311,0.10041827005259082,0.07760065755348694,0.12117572632629124,0.0658595621979151,-0.1985623472718266,0.04788081736742609,0.07513969161025082,0.011578202871260955,0.10987517502582801,0.19669252828273937,0.021072228684080534,-0.025358007183350136,-0.09192237153301483,-0.12458716415384145,-0.036017581770967186,0.051464982501478754,-0.22816495330024192,0.10057268230705259,-0.13853098717792683,-0.09254358289453282,-0.02328226967727538,0.0023119514280122125,0.12170452594929955,0.14358620890183046,-0.0015564366502427453,-0.04236003222026525,-0.05705062065477422,-0.03449467857218908,0.005063789528766495,0.0006552135869713289,0.0615956812246691,0.06396586087874381,0.02968608877594179,0.08744333754213784,-0.17470008368436166,-0.0013604043967416013,0.050320741137463695,-0.175680386628145,0.08574941695976519,-0.1788401458728378,-0.04449334410039418
asxwr_0000-00000768-00000912,0.04970108940358351,-0.021129115474813973,0.03362446795336269,0.0014547629015179424,-0.012293867181861599,0.011120258204568105,-0.07234567460397774,0.052974673504388385,0.054356974363267065,0.03514093901723973,-0.030512112908553834,0.09373057147149243,0.053793432081859924,0.05439665518073275,-0.07692265168434817,-0.018465415788184367,0.0034092924842451335,0.011596540168206874,0.057580609747331375,0.15952622658148938,-0.030767915984887,-0.00923141650088156,-0.06655076915061126,0.04874375936954192,-0.07455584011604077,0.004947739367852042,0.09860218409234911,-0.06442319575443663,-0.028425238585396546,-0.1577805864739859,0.21323115587332128,0.06741918413906987,0.07238420229236806,0.015693151314723246,0.003908732541963825,-0.08757161484338737,-0.034371407826498786,-0.08232056234799365,0.048066896515709605,0.09849759480266408,-0.03683055275647713,0.07178590909882938,-0.02281950880496295,0.037860889037494294,-0.11038092292926074,0.11324228833998339,-0.07207711452722154,-0.11626468741699775,-0.04361628578937028,0.03235257537878444,0.1010428782034125,-0.09684226153149088,-0.008437920577178692,0.0072809387441816805,0.12396863343453728,-0.05995104252354591,0.0780294281540217,0.05040875149583053,-0.0020048772842484017,-0.09218940687054687,0.14600195083633197,-0.08980533725451599,-0.016332982750369766,0.00571217957193513,-0.23416343148166044,0.08460587671775836,0.06998471709581021,0.08925125751821739,-0.03173013812703887,-0.061206471713853336,0.07895232376557317,0.1163790950807856,0.061938913365242584,0.03617281124041773,0.0370667091572034,-0.013537462455834242,-0.157730877847683,-0.040760627223989376,0.02353699253377624,0.2361672787418515,0.034273721959131885,-0.03801905610085942,-0.09130630560210139,0.01568152070041648,-0.09436105758234248,-0.0622524750217496,0.012470059183577558,0.11841710088620616,0.003915465712072662,0.11315520313388983,0.03605921345670341,-0.18704344245448876,0.07914838493170273,0.038173884861491966,-0.013329729375215607,0.12253584247693491,0.24007046309244176,-0.03224254542248255,0.005204962228999914,-0.02265295066097007,-0.13718911856744456,0.033689522427056716,0.0181480941834452,-0.24215567090262827,0.05364992866897757,-0.15340446148093892,-0.07261407487532773,-0.02722764822171093,0.002625296327676934,0.10552942941626155,0.17406066865792025,0.04682697992617703,-0.04184054821024849,-0.0811842366681839,-0.10083082857653246,-0.032673124719921794,0.02473136190228182,0.027799135378095096,0.109145693555739,-0.03306866549408695,0.09808097305709677,-0.11351988472996222,0.0736464515977514,0.05489952480158873,-0.1575772438434388,0.05469389084242816,-0.21527520074959344,-0.05940821595346787
asxwr_0000-00000792-00000936,0.07318920613430137,-0.06371556020574191,0.0029280327812851088,-0.006875078504873627,-0.003931554110858524,0.01764194694028617,-0.0563757357620142,0.055187379871869224,0.02684073032869365,0.003161584151779941,-0.03136107674495167,0.03087964759947459,0.02859146758691788,0.05788851361510776,-0.11817819703234853,-0.043527879135359035,0.03616642685446681,0.008822209026605346,0.06463726795856055,0.16500021175911825,-0.011069946643028052,0.015380742027712961,-0.05492348678187373,0.08809379667540973,-0.11455672179216027,-0.02437583301495751,0.08302761142584537,-0.008718997484470269,0.0012693202819699882,-0.1468725177948777,0.18252417947020294,0.05827105952920549,0.05556046231069095,-0.019177072517780273,0.058987214262446526,-0.11018716597387378,-0.01301687129519882,-0.0572746179073983,0.020874619123189008,0.08201379647353432,0.010790294675185252,0.058518385984991865,-0.05876737597633437,0.04865382756114195,-0.036397854043354834,0.15278363099626646,-0.019542054140182286,-0.1257829885972226,-0.01986527495121533,0.06720710164378946,0.11631196552501492,-0.06420161381049486,-0.01564222804020551,-0.017113376127845695,0.11406273901537199,-0.047604984672582555,0.013923067993054735,0.0610042357117126,-0.005496564874838122,-0.04602749871494101,0.13268601346477904,-0.05063200255698205,-0.013040767722377073,0.001122844690222984,-0.20890501352640647,0.08759069068204989,-0.0173275214925765,0.08562512301153896,-0.04043999816078257,-0.09379821580936094,0.08287679158142082,0.06440906845420762,0.049723506542041516,0.02412652212450748,0.027673616992821382,-0.04509722825966805,-0.20321544263874858,-0.05139195535528014,0.0387152246048552,0.22498594072018382,-0.008537388502503901,-0.03866553746064704,-0.044673510869463286,0.01155905565717081,-0.09294769064036144,-0.07221706285879048,-0.0020668960175078085,0.14737286173607966,0.032850856801651104,0.0869091383315807,0.07438751954238129,-0.19905724716448042,0.08810796647989086,0.0035921161511095557,-0.06471314180300675,0.156132097211193,0.19850728347651694,-0.01557631843819754,0.09441083388804729,-0.016579131093236735,-0.11831142990629717,0.008854094909781373,-0.01310264339002943,-0.21409880154049643,0.06988156101625129,-0.09114803433871621,-0.06615438183377809,-0.015884200624579962,0.06722542967040344,0.11160548848366168,0.18299604668838254,0.049654469928945254,-0.038496677200509054,-0.14806626502060347,-0.15737733187802416,-0.07291633257781659,0.04662869480229097,0.06059292033254044,0.17602425983974482,-0.011446020490005303,0.06676560630533877,-0.15159743322161195,0.08438974303412923,0.0684445848518425,-0.1418425877294958,-0.019766309643084325,-0.22818530843068638,0.0052720109932154835
asxwr_0000-00000816-00000960,0.06329905120538556,-0.05041715723001043,-0.001821141106577228,0.0073609852562873225,0.018443178570889632,0.0008731179240754271,-0.0677880451563885,0.023621799623109563,-0.01850952226362585,-0.02416485647649283,-0.04070917750673967,0.05273154349219212,0.042633629966223024,0.07678817400290096,-0.10441282451808673,-0.05506733964350702,0.0023309029173479733,0.011065664186994359,0.03053712524012415,0.10881629647290833,0.008980836436363285,0.0059864697677867,-0.037289062734323405,0.10854127998043599,-0.1284437968573302,-0.04183236371016483,0.023859833080564316,-0.031249824779798492,-0.0031774647319657407,-0.14491596570849014,0.18893219938867045,0.05585970045180238,0.0814512195689448,0.0454594209439144,0.0008352993433400569,-0.10516513241153505,-0.049513304388411644,-0.07030523656533925,0.04659597444283601,0.07148353014916972,-0.01169335517985839,0.010082579190924382,-0.04840451710799315,0.03838809706094867,-0.07065084200860612,0.15605533318638504,0.006411702113595859,-0.12660751681298063,-0.02037485753996165,0.03136255783365305,0.09969534699927762,-0.04166254939552623,0.003129543137005809,0.032163627369910845,0.04926442505556625,-0.04607141046334264,0.036064470011638136,0.06787678692423693,-0.0013951851954890114,-0.030793720859361814,0.10306344616169952,-0.03806684809911227,-0.043269897840258115,0.05562206547251307,-0.17447178330508667,0.07968493675522333,-0.026192784958538346,0.0699522696811597,-0.022974532045559572,-0.13266111011081325,0.048278789615410087,0.062279429509601636,0.08005342087268998,0.03489927404881672,0.034313036413806494,-0.08020359329825504,-0.17780356670404676,-0.03926602961456712,0.04733245881143621,0.17187358991805746,0.01739011497870032,-0.05997670989739318,-0.0156963446371924,0.0327820703938217,-0.1337035520617343,-0.024797811192979583,-0.016300014808249066,0.19558012596811916,-0.02842343270366517,0.07347487819851053,0.08160365911538124,-0.20093216930834482,0.043354069991138375,0.030281092480455758,-0.031034602965928634,0.16447583213985328,0.19093556389092903,-0.051215620423851936,0.08610067451082232,-0.03066947149578827,-0.03738460138714999,0.06224093872171568,-0.01865444226248228,-0.14871600641442584,0.09410789254577923,-0.09637995353619012,-0.07855725713408493,-0.0015003253441661264,0.12411262322997599,0.10713128242246753,0.17864023490620565,0.04059474991849214,-0.07114119998563972,-0.16241446761871733,-0.10351901214290432,-0.07666365006566797,0.11647611812725227,0.06599784520274114,0.181418124217444,-0.02503512891587151,0.019057793170560448,-0.19525087055087376,0.07415979157180988,0.11299485890575385,-0.1694354071137,-0.04068307591997096,-0.2902444006966866,0.06829370193764273
asxwr_0000-00000840-00000984,0.05409810893701995,-0.03866030526359937,-0.03057734497631439,-0.0037708087132816153,-0.007349310400070561,0.031644603030341174,-0.02807652304184102,0.00878195126645889,-0.04053395905580138,-0.03531409583188549,-0.05213363293518802,0.08594854172051261,0.056419240469092434,0.09296671848084133,-0.11401422091968688,-0.05469420351691951,0.03795636089855575,0.02627652857197998,-0.04026607531337376,0.03595386264057867,-0.02445320042265685,0.01320514888555914,-0.010108195453050094,0.062018610862800715,-0.14037015768546224,0.016442450869703258,-0.0016081432820576143,-0.05711643284252959,-0.0012016268075501955,-0.10210703431459386,0.12045855816380137,-0.0047486250416352155,0.06273497352095055,0.06558971760117088,-0.02455186733908366,-0.10835425617283655,-0.04053541187993541,-0.05185644135959961,0.10092508130906656,-0.07618243353190626,0.0383864692899788,0.0272692448431799,0.005121865846410144,0.12219725435777361,-0.08316063175632565,0.14046280840297976,0.009593430473995081,-0.11532817563852146,-0.05461307783726147,0.01612391892653048,0.07519154900779326,0.011725093979053905,0.00684552206921459,0.07739560659363827,0.0214802004857451,-0.034725628488378374,0.05539426915075963,0.09801923368510808,-0.08123054863446941,-0.07193795614183042,0.08783677790279312,-0.06771989748122519,-0.06955183968659069,0.0833858621305383,-0.12804469563300994,0.05904943013683433,-0.03608375242412044,0.10974007998599031,0.019356855831430226,-0.1006394681333597,-0.010912887067642497,0.11127294474588556,0.042824090662570743,0.03541855918979507,0.05817175684075369,-0.04916488851762034,-0.2036690524762256,0.011820329873561568,0.12117127132097122,0.19695559656084208,-0.004089737453182086,-0.02263898899143933,-0.00341256714712467,0.0758419270091342,-0.18040402587743354,-0.010927969193439566,-0.007712670782885701,0.15557544601286158,-0.08651596206455983,0.04645961349508375,0.03676788540542366,-0.20179385144161158,0.05289013374691893,0.05294389653291695,0.03373582702039676,0.23017879076309533,0.18724533652967096,-0.06262361882105576,0.10176325608021036,-0.026206982941882524,-0.07025260133403398,-0.030800803175247308,-0.06737937978022641,-0.11150102633991163,0.05120673822625597,-0.13542186236690093,-0.02522706866781608,-0.024962088631031797,0.10262151012917822,0.10442685098036389,0.12303988910265595,0.06448315252613257,-0.0015198811928601155,-0.1338379733223894,-0.10699251754459352,-0.05818790171393253,0.0774032285575159,0.019639544014003453,0.23920265625308684,-0.019672458788307173,0.03198204823992301,-0.12791846016134614,0.14105233609966286,0.03407039359386163,-0.1363323766906559,-0.19934867567706355,-0.24357245952899137,0.08366734960576769
asxwr_0000-00000864-00001008,0.04316052985108629,-0.022392885124132043,0.047704486872037814,-0.012957938984295134,-0.042512301720247864,0.015079058340353464,-0.03647702973608349,-0.008635413641669788,-0.03902998517209477,0.015075551696251152,-0.07594784912914239,0.08572267016494352,0.07608468522448217,0.10472441022716052,-0.11451153042393382,-0.09521231863214663,0.0024665468296185223,0.050913469451241436,-0.05334563281903892,0.036014234629689425,-0.052023655292641705,0.047756994417464345,0.0160351241656009,0.011555904046131446,-0.14620191991390347,0.03711556257408053,0.0538414695479614,-0.0372183362495026,0.06629414121821467,-0.0942584840938468,0.16699488598570736,-0.014388162560154965,0.09099826943073264,0.1111898264144765,-0.0330578190559534,-0.06356102663677192,-0.08344079656194256,-0.006854758529947723,0.06463194923441397,-0.07141225483065339,0.07825878908508781,0.07595672986363979,0.03342379028056512,0.10313402842915727,-0.12583517067556332,0.157719202119827,0.004181429045185455,-0.10709292451897098,-0.057068849366322394,0.030981853971840948,0.09394516980852184,-0.017656762494216795,-0.023556563600805352,0.05915845533741734,0.06873977522674238,0.027562319448479384,0.03549587139261064,0.08517525780433564,-0.1001255672107202,-0.09077757627759019,0.11128503740744751,-0.11747772278923997,-0.08129790172695588,0.03808846312507535,-0.09924817191497134,0.07929053506016906,-0.021476038972940117,0.11344228577967125,0.032376490324903605,-0.11567540374289308,-0.03918315712336827,0.06758757687582369,0.06696250005087238,0.0959133546041802,-0.005963724533367652,-0.05419843659840175,-0.17545279990537305,0.031831923750718874,0.1018667857926976,0.15968575778734706,-0.031196196230617985,-0.009789297169577755,0.027461545182874785,0.07422330009821528,-0.1507724534491282,-0.0014652798377472345,0.050285298334082136,0.08802404558159503,-0.07860550147345216,-0.020700071024358058,0.020264331976910292,-0.12047436671051863,0.0023732107416357066,0.03282224378190585,0.04339208215633509,0.2426545998632522,0.13891102343955797,-0.06931134865993503,0.11590277362624456,0.015605692860138467,-0.04490104790873322,-0.046021938142688366,-0.01358706160110745,-0.06877151939156609,0.013705203137552408,-0.12054648676505993,-0.019985898775977628,0.028947816950629413,0.08439134484228861,0.13235821531870462,0.10024284841488307,0.1322708141650327,0.09716716414748593,-0.12451698057001845,-0.037069461344885014,-0.06825134663534284,0.06682534525901523,-0.00800441564162503,0.2614975030864209,0.02449481067803818,0.10235995209772865,-0.15423073212026617,0.13836717471450855,0.03135340745199128,-0.0854819879078393,-0.17989105108064737,-0.28238524519249697,0.06545143776814456
