,0,1,2,3,4,5,6,7,8,9,10,11,12,13,14,15,16,17,18,19,20,21,22,23,24,25,26,27,28,29,30,31,32,33,34,35,36,37,38,39,40,41,42,43,44,45,46,47,48,49,50,51,52,53,54,55,56,57,58,59,60,61,62,63,64,65,66,67,68,69,70,71,72,73,74,75,76,77,78,79,80,81,82,83,84,85,86,87,88,89,90,91,92,93,94,95,96,97,98,99,100,101,102,103,104,105,106,107,108,109,110,111,112,113,114,115,116,117,118,119,120,121,122,123,124,125,126,127
vysqj_0000-00000000-00000144,0.047295824442611184,-0.0537437206741555,0.0427281243545748,-0.036150669332846656,-0.020592927526315787,0.04479986700829735,-0.0699841317275153,-0.0038088973331990694,0.01769597830049374,0.03737760697785103,-0.053022954865466265,0.009068940852569781,0.09276381802362953,0.007797210111736137,-0.0462973667667915,0.020035513006517503,-0.0739098339383504,0.09878154149344365,0.011816101247648102,0.12206307521954038,-0.0661359402836133,-0.07520820144965736,-0.0907298952171072,0.0816283061660902,-0.013555381337630578,-0.04495514463540832,-0.0008424061761250798,0.071333644557538,0.02108312528106798,0.03199997123128235,-0.1202300401985864,0.025842312318744023,0.12289057999103396,0.06851524124736498,0.08603515079231466,-0.08543093829824781,-0.09037566289175797,-0.0443596271300058,0.02578680662109833,0.0057576306618113944,0.010707553985200454,0.034926689139264784,0.04605534751323405,-0.029961220925399646,-0.11784213530035563,-0.0390663858833718,0.10669528319020893,-0.02016041437489708,-0.08447641113610752,-0.07849029481034965,0.08588775486764011,0.11503185561860887,0.05535246455101123,0.09132731205381797,0.007620332037838362,-0.00903803684550878,0.01846743553232057,-0.1167389074945356,0.054216014489562724,0.007217464015957154,0.1319057403843832,-0.049184571160134916,-0.016944699492122867,0.1080369669534405,-0.06627767072267331,0.07855076022693135,0.010569551054188664,0.07634977550528721,0.09817432975103703,-0.09926599305288185,-0.03584460963441887,0.019222977361406254,-0.09688056353940737,0.03303556242373872,-0.04974037386092959,-0.07745789368891068,0.02232297985434256,-0.09445319479114142,0.007716384531182696,0.047188618357519294,-0.032168191729032604,-0.18519267817799448,0.0811840003948367,-0.051604716205870975,0.12273362552272471,0.07971398392242257,0.008062882107968577,-0.06327243324799257,0.18396455225786454,0.08149681248110353,0.11577625897099401,0.016206936522717964,-0.11067914309984687,0.06629891347354783,-0.13449320143800894,0.13167156919284342,0.19009275776394663,-0.1791578026259042,0.07743568931755547,0.09422801221278206,-0.10535345230509019,0.19041524154521963,0.012975723436979803,-0.18107533958668381,-0.07576485739636805,-0.10022660251675856,-0.00928244110388172,0.08829633633341548,0.1695839769191828,0.061834289596895096,-0.1184112989243011,-0.03451883330429404,-0.05603892704462087,-0.08698515552725919,-0.04910458845692561,-0.12048839517993004,0.1957982197429748,-0.09185961150222978,0.026676224559164272,0.04378979207408685,-0.008826525963264855,-0.1657303551343523,0.05295310852998452,0.1996446100732564,0.047520307493965026,0.2206062373844383,-0.027885542105334483,0.20000735210029613
vysqj_0000-00000024-00000168,0.0408158564495432,-0.0732952822780201,0.04604262469324782,-0.03687285276822911,-0.012643041361863736,0.07100331076286315,-0.11032087377657493,-0.0304579181909898,0.025956754599471183,0.008045428229057162,-0.06769583024870122,0.012405444028488343,0.092297083623594,0.029929277116656997,-0.03335531589036387,-0.010103361667946351,-0.09869864579420472,0.09294753719206704,0.00959279043981692,0.126836835794872,-0.07472293581214774,-0.050275656396488566,-0.08690568210766451,0.08966473244186537,-0.005610958249596966,-0.053596163875164984,0.014632183225283693,0.04903289548881838,0.005931863231180712,-0.023698985681032934,-0.11500612797709178,0.048643610389380566,0.10464551511559671,0.03319464122840794,0.0848492813758326,-0.0844300339586624,-0.07396632290906972,-0.017623103245625788,0.02454925361743972,-0.0058105150770137995,0.007888163854088259,-0.012650403911584984,0.021327390402274132,-0.033835303883690805,-0.11731794335045233,0.020338891175823146,0.1399401212180691,0.01931301761559763,-0.09195410001156135,-0.07653541486272189,0.10165705734342992,0.0920099389116385,0.08701137534928284,0.08193119408227355,-0.019834677452701694,-0.02991315408649146,-0.01658144660003967,-0.14791006305638194,0.04237786462731237,0.035159833776765494,0.14580299918931866,-0.06005470388609549,-0.07460366188022438,0.11265327246664361,-0.05650058644858405,0.03640700815857544,0.01358135621949,0.07762114577526047,0.11846101271781856,-0.07757180625074565,-0.0631599433982387,0.0415799724483586,-0.07674471785071363,0.026196506613587082,-0.0158576029521019,-0.09570963108157499,0.018027328064494065,-0.11403268158883405,-0.01075208515691493,0.06284479614602334,-0.03288344128922471,-0.16366292609230915,0.0980928276053376,-0.040913398912156465,0.11534771956874605,0.06627635998491067,0.0798528991964934,-0.06265730798011987,0.18633978818917024,0.07430786305869495,0.1440452691551491,0.005604617992979347,-0.06847582918944578,0.03394444467955351,-0.12334771516842521,0.15313779350358805,0.15146991558759146,-0.09276472941809316,0.1015442790648771,0.08151893236993733,-0.06008335839000809,0.18960979582106924,0.04364638170518956,-0.18848057820015332,-0.05234837330636011,-0.1558867509091918,0.028890522318282104,0.08762732208779685,0.15270478115135194,0.06636164764531839,-0.15267870053282845,-0.004029074413511546,-0.10728321712654075,-0.07486733755938038,-0.08369713345663231,-0.11275857343193814,0.14852684416285722,-0.08992148166471747,0.016071179501678523,0.03628519545258132,0.03610507756673211,-0.1941706695222448,0.10102140309656178,0.10843075647742006,0.07940360517297838,0.19471374873243222,-0.02473982226337977,0.24562396357481264
vysqj_0000-00000048-00000192,0.031905904059300466,-0.0747208538740363,0.08710513135437466,-0.0378108107344883,-0.03495170050626343,0.12352185109658252,-0.10635091392814358,-0.07614498476763966,0.027333436001424554,0.012559295942282634,-0.0753468592130908,0.05603062325396287,0.06425195812561332,-0.022735838894807694,-0.04479665749834176,0.05758018883624572,-0.022318456217310698,0.08655756822636486,-0.010777749800357169,0.1514871497628163,-0.11388369181694356,-0.07078134163733638,-0.10344400502220566,0.10661305515725364,-0.009182652377235926,-0.0512261657628599,-0.0039089876967542524,0.11244111176484435,0.04816617178553908,-0.048619666199842655,-0.10952513842274407,0.01546306681723759,0.10148217829058466,0.02720359085259194,0.0590731465014784,-0.07884611268584009,-0.07174221400977286,-0.06554259987898729,-0.03786916482024934,-0.020360527905607037,0.04780211732866649,-0.011585573581996755,-0.025768734800962798,-0.025760224397258565,-0.08706736237398881,0.032113684428612815,0.09420914326717547,-0.03421349394452812,-0.13600928616478716,-0.03966751690772658,0.054717254265771884,0.037902601870837,0.03031414828058449,0.054039704549284556,-0.008569093602194326,0.028986487988185258,0.01035286284553771,-0.09795008052323075,-0.016541413479417438,0.1394610849537514,0.1570674993904067,-0.07494682903196163,-0.06677028230617184,0.13688511604920672,-0.04830553829283226,0.003866205388436046,-0.013341445356242656,0.1184366161742937,0.12757042504511393,-0.09315103509551068,-0.07316545522246339,0.10541633664051915,-0.08892406144864612,0.04010853473447311,0.006150715472548929,-0.03567575438792007,0.04670057634191803,-0.1483748780697883,0.04420904278288284,0.08383291888606671,0.01885075002498691,-0.15542517852573715,0.10132324532782748,-0.0351591915507959,0.11157729478187214,0.018314313731711752,0.1093161881810613,-0.09230893705803762,0.1717446691448777,0.1395680173386885,0.07612183738002512,0.016612690352401257,-0.06535433136682109,0.029114490942442037,-0.10260348828314918,0.14833586968761972,0.17238802770014308,-0.049878619960485426,0.03975893589473176,0.11467599255781913,-0.02600152349735634,0.08883448496750933,0.012823323202432062,-0.1564553528303072,-0.06855308693598912,-0.12803745829726104,0.09240359087158748,0.09822756744162064,0.18236550262055481,0.08604791970762148,-0.15942567737745947,-0.060938027512909464,-0.08502093505151616,-0.05588156383081383,-0.03746309910532432,-0.039088877750328176,0.11885088203466793,-0.12979336957237592,0.06014494657200193,0.02645649820433439,0.08368302371577667,-0.12618034050706062,0.08581951130114752,0.16988738424918912,0.11872537254403569,0.12785212943641885,0.0036056253212035194,0.2641493988718185
vysqj_0000-00000072-00000216,0.038881460277674015,-0.05957036035633848,0.04240363764873358,-0.020447043865942465,-0.06643804626054034,0.16093145851454632,-0.12525236024462535,-0.07915351594451304,0.06934355582256149,-0.02233690678231575,-0.04391249625079949,0.03927575618796206,0.06661150385965198,-0.013157918004640851,-0.030559660434262222,0.02129638733769742,-0.029502591757241303,0.13734937030956862,-0.04973423680498405,0.12039990215799372,-0.08797599788592497,-0.026143502300375408,-0.05097190148311691,0.1213918151407934,-0.06088751776379741,-0.020475223799749715,-0.10934572131551089,0.13321261076465368,0.08068990701235304,-0.08010011304730275,-0.1028782385400543,-0.00669421646722878,0.1436698914803491,0.0607843080428788,0.1525525818712021,-0.042679642642173415,-0.043417776722035895,-0.06584526295118145,-0.04432663961137632,-0.08977163658220941,0.08117665535309225,0.02740130035451223,-0.059121493158033084,-0.0023286564088049726,-0.12825720362205995,0.0031162629011579016,0.10878344463629183,-0.03584075757310031,-0.1277212758665038,0.0102942326700575,0.009113054174306242,0.08269622024935264,-0.051395490431484066,0.012818266517557205,-0.06333297995482773,0.04185124428882265,-0.015589214792593365,-0.14889562045847893,0.028783026064644873,0.07460558364609249,0.12222080429201747,-0.08284850341526225,-0.09707650981815998,0.10143415632029963,-0.022502709114628067,-0.09318158325119198,-0.03798073961137547,0.13824698999175228,0.07029353367744988,-0.1268875193144177,-0.04233494559993102,0.04518103440193908,-0.036647840321875964,0.04800053676556885,-0.014749655003250465,0.00025783170035541204,-0.02161657703816594,-0.12505745415895492,0.058164042982749464,0.04671212500341737,-0.026306230888704037,-0.1331603508634797,0.12020495120427349,-0.046714770120677596,0.033155506449550634,0.06815575420323022,0.09561902287449824,-0.10978817621692195,0.10593000768787755,0.15292926434638868,0.02312170062535438,0.06124251070884861,-0.05784258804341214,0.0454251444190691,-0.1899412101717468,0.15166864886391238,0.26261282115918655,-0.05112330520737463,0.02356282388123518,0.0894036746801992,-0.0012280622582520047,0.15027791183816974,-0.07815554993882683,-0.13135366684109923,0.044906898352474425,-0.19922567930593393,0.11814255821881502,0.0827351178482389,0.12516271129291215,0.06753597762872604,-0.1345600234148128,-0.07373816478321121,-0.06196115815443897,-0.057385568407078626,-0.07007991663299017,0.0181096844647424,0.022794812487951926,-0.13340165684092273,0.06376135342247086,0.011006070389012676,0.04061838988602427,-0.07356355897907167,0.02628222577418402,0.10564914531998502,0.04068099170617951,0.11182776234033039,-0.08334970373422494,0.21148130817437572
vysqj_0000-00000096-00000240,0.0027920988229795636,-0.09801082107754187,0.004141554289095369,0.0019219167555767744,-0.07880609573634308,0.12571975583695347,-0.11813821246589504,-0.052457077325213985,0.07399851734945655,0.011867866887275638,-0.019236154131289793,0.060123557563914125,0.044483698696979206,-0.007565744918186766,-0.01387440261146594,0.034597521497642295,-0.04323425330612366,0.11349799529129904,-0.10987787659429862,0.09959309396295225,-0.08575265867624157,-0.011316046261062893,-0.09485703889152165,0.07777304305581842,-0.08751336826829714,0.016121105479471605,-0.11762979095195508,0.14035116593384903,0.02880697828943932,-0.09486039399945267,-0.08249529409329336,0.01929512915057877,0.12899091243767616,0.03301486774559427,0.1248733561299084,-0.13701280382350206,-0.053080854045175846,-0.017260508457780124,-0.10836852471974916,-0.10236998298098572,0.16126751945844622,0.025583023970100215,-0.06983146097881131,-0.07619315494016804,-0.07599060379128565,0.043339057484425125,0.040128756862735336,-0.08193388220661137,-0.06913099751384097,0.01692379920922162,0.0013506872850430809,0.08925713554397968,-0.024033390711500704,-0.035895236245516625,0.0022208262542866303,0.05742608015857921,0.018398697514641217,-0.11104560297696367,0.08005386749550641,0.09665115977880664,0.11573543914282906,-0.038244883714539796,-0.03919014827937617,-0.0062114388014316525,-0.04190057096339011,-0.07779454372779306,-0.08029372348542843,0.1206366764583045,0.09796447864839644,-0.15606193744105173,0.048962844718873556,0.06260547629061126,-0.07435831584317733,-0.07338524529972322,0.040455910966867806,0.03871532258893562,0.018609829517824972,-0.15965345729817051,0.12753640067697367,0.11770407263328558,-0.11518581369602007,-0.0789494264734408,0.061410717062794086,-0.06295452452909849,0.07846633719090122,0.040981387887649316,0.15925050514593816,-0.15822973298112641,0.1709830054725255,0.09516393739346438,0.056194546548412695,0.02365746516835491,0.006200760187438202,0.07455507060223406,-0.11205632810611182,0.09045019327003531,0.3580998546956643,0.046909966412449516,0.14642139242202437,0.07628638342541333,0.03296382795414209,0.05961443654798965,-0.11345919121980623,-0.06043686873318835,-0.013975576513630981,-0.1660974413620184,0.044072740608346636,0.13170209721387416,0.06338890091940104,-0.02297597663995481,-0.1597428726382019,-0.10760644418245455,-0.009287684264193118,-0.08809791952836632,-0.07647630722649658,0.008975560127198369,-0.0020464811015401875,-0.058141161387600664,0.08076259782990874,0.046903632314944,0.06583138553899547,-0.08593138895924554,0.04203898343688539,0.06708628218948066,0.02701600059958571,-0.006980538067563414,-0.04821024152446601,0.1401150034242423
vysqj_0000-00000120-00000264,-0.04483556879602419,-0.007596554175600145,-0.008114211830415208,-0.0013434166376830488,-0.0257843881522365,0.12499143842303265,-0.11056756012813043,-0.06160234492190269,0.10058286261251242,-0.05838692039882865,-0.006475826441592202,0.01823423701588061,0.004040127105331282,-0.027738818050836576,0.049187365242519404,0.0008169051275470199,0.012171595212424488,0.12226912350016352,-0.11914767509173434,0.023044235046277017,-0.030994468672846383,-0.016838002536691175,-0.1015419236491065,0.0648249174042151,-0.12732354766946516,0.08040703421934901,-0.21595174516940038,0.15932648741956515,0.04186167539983697,-0.10873888838364383,-0.10832495607384623,0.06327806973682562,0.12625822805025874,-0.008880906851600198,0.07978391620986792,-0.06356875002600554,-0.05236937373265042,-0.08172933797378523,-0.15243438834539486,-0.12200959678824971,0.10217467191242804,0.0409011677698077,-0.12329268158133368,-0.03584056540613017,-0.04215924224885951,0.0284282723346812,0.06583925514517083,-0.07003259353300169,-0.03233792109755179,0.043989355192354855,-0.05453372891628899,0.09153992373398129,-0.08969918810006372,0.002680813501268687,0.0052943721304834985,0.049333488534229517,0.04923374088160363,-0.10837157375709307,0.04693579278443962,0.1454871627469796,0.012010808681518692,0.11795295892061657,0.027646918924417264,-0.05194198835427458,-0.012209540558472131,-0.16880569032394843,-0.10603689634838057,0.11522067540931993,0.10185044024703974,-0.0761850451848816,-0.003475810514215248,0.1730803547466045,-0.17370006319575812,-0.09395236687425158,0.12091071446960917,0.048999512153687357,0.09950567986363033,-0.11958891134352334,0.14516737426135817,0.10730978866712274,-0.1237546141942326,-0.08703311391542384,-0.005886413815926344,-0.08078772593937007,0.0017748655609814317,0.08493701596540934,0.14644600252037268,-0.09137683861559241,0.1096882210991511,0.07069684733590441,0.10668864328428879,0.02084089848962133,0.00019393186040946223,0.011843485237705143,-0.07460990968759473,0.09564377457909018,0.12692821116323585,0.01657246630190765,0.08086648704652284,0.0788148922762825,-0.0004419181932931369,0.058689381173706,-0.14431498369183252,-0.05358236521089239,0.05380956469960956,-0.12412475753756716,0.11419833886739364,0.1954985931301213,0.03646265186689981,0.02076546774074477,-0.0543525766640696,-0.07444252841207163,0.11379200979541275,-0.1512802025937953,-0.06365396190637332,0.09705439192588478,-0.05146794028952718,-0.026130411608146626,-0.03875504268196093,-0.061019629695146016,0.14005695052319342,-0.12620881680173274,0.09149307104649208,0.008691952558408045,0.026115291530875967,0.031257122092162894,-0.07990562133470452,0.12755815659673764
vysqj_0000-00000144-00000288,-1.2794306300358483e-05,-0.029630855146757597,-0.007934940229031353,0.006893532414347443,-0.042740116132337816,0.0741791835617034,-0.08951823973321632,-0.06190018926182095,0.07978781596384697,0.011434225411898565,-0.015138157334116907,0.052561579256775084,0.059211974277628206,-0.0021870345707541037,0.0002933639646013911,-0.03952838188491613,-0.017724057181961555,0.10770334903690847,-0.12968997647823818,0.017730423510581635,-0.010528067357326061,-0.013639437411323237,-0.07096752202796343,0.041680993489369385,-0.0937474045437716,0.07992029218650984,-0.19755644501673073,0.16593825918014116,0.025539807904875162,-0.06086679675353726,-0.0618011686481464,0.09022843259138418,0.11728687119701428,0.025825759384002236,0.031229170008761124,-0.036387790887589574,-0.055485829324355584,-0.1454605375492541,-0.09775608611007375,-0.06976600302360776,0.10976661911759433,-0.010425530949517918,-0.09960648718183446,-0.02636756019409244,-0.10427707642437904,0.044027435120152836,0.0656323999719172,-0.05820562176371452,-0.027771423611524224,0.07958107528873132,-0.03986940654312677,0.07569522950168094,-0.0038902209195365157,0.014663552390226028,0.09826487945488073,0.1332059158133108,0.007114777281705193,-0.1090135715165777,0.007490058640996961,0.10415316819557613,0.013228794157653871,0.16322939916608878,-0.02563093962269329,-0.042673369590990454,-0.016164196755573495,-0.13397280475700044,-0.15576504915810804,0.07565122837290988,0.14622510663443644,-0.03255313926365918,0.027414353333934282,0.19278616894166323,-0.17829809392081544,-0.13709090565576734,0.10934456426297334,0.049349118230515326,0.07153843931591593,-0.08412729592393371,0.1278090295429727,0.1698669924228963,-0.14833888210217075,-0.043877253172315424,-0.021346072298286032,-0.1269132886497982,0.05717092015144524,0.048121787402701045,0.20300742597622054,-0.0926636207929627,0.10173753728427563,0.055250666817498295,0.09441273267280777,-0.04329484916482629,0.0057443024615629855,0.05659079101997935,-0.06637701551105751,0.1718118779148616,0.12299087064025396,-0.023634518092608407,0.027633279115172753,0.08109056885260653,-0.06694572709700797,0.06016177775691696,-0.06438146155613754,-0.03676845571598781,0.046253833184323176,-0.1848169781972358,0.030962857159362665,0.1832069349348454,-0.051837954871983394,0.03261533097117642,-0.04201599554201119,-0.015019519548576518,0.10351902369542026,-0.17222637308841302,-0.01154766682211533,0.058786871270759135,-0.1255222259403296,-0.11994935421173729,-0.048306213788656314,-0.01575769648383359,0.15895788929600896,-0.10229356285377983,0.1174896888926585,0.046791445397000975,0.07215589761281062,0.014800771713184594,-0.022562572658289197,0.05063801751607546
vysqj_0000-00000168-00000312,-0.005473381665054332,-0.039628815316125214,-0.021310361331673095,0.02861346880323869,-0.012770395484016112,0.07045514251472511,-0.11410855156987583,-0.05671215051238871,0.07189731134047635,0.029261512325110758,0.021716917103715736,0.00031306620575721837,0.04164139121402053,-0.005450008855240334,0.016609162163851995,-0.038770702319856354,-0.05599635355648741,0.10343139331804405,-0.10567712121713525,0.02981002715056917,-0.029299543396638417,-0.004412164663034752,-0.04948224525842322,0.05046377953389945,-0.08419553352465674,0.11546568721833037,-0.2275485811028349,0.18841593460929673,0.047998885773974355,-0.05986411985750279,-0.06125805576390949,0.035843464844052354,0.07362636934417886,-0.03497312360977218,0.012410637676411134,-0.005244057508986871,-0.11524448927555234,-0.12172323174994354,-0.07949371101723875,-0.017621376664083088,0.1737983101931574,0.024945392680281373,-0.1342330790395581,-0.0474150811856705,-0.07821990351077973,-0.021047070594504703,0.06349417305884264,-0.08297447339053632,-0.06284864256327428,0.10699135658138813,0.02225661215573318,0.07572788417571975,0.0680916028169239,0.02895651348531429,0.09812933892376913,0.11204302006236826,0.10687189058461576,-0.11949092215862946,0.028478769195048093,0.12376065436077079,-0.03650473523790961,0.20452103100678728,-0.018466176831411312,0.0024390900681542965,-0.030499132273607434,-0.10330619558504778,-0.17943833937077974,0.05123066792780218,0.09695085284792758,-0.08600056185960636,0.0053680573038858296,0.2151339857040254,-0.20070948298178487,-0.1344701940716989,0.05018940641884047,-0.0018841678255749205,0.06410621607628582,-0.05780483039564439,0.17200482244625936,0.1704553780909438,-0.0877375414458954,-0.031212175277845148,-0.004959175903978138,-0.10826600314334779,0.04226464593643118,0.028692313952434673,0.24930500057483757,-0.07262279297535341,0.11380197753448597,0.057986195764758275,0.15630545199113546,-0.009983271710668611,0.0971171869210127,0.07153761045331068,-0.0392050604521961,0.14058406895026257,0.06441102935264446,-0.07224170416239517,0.015936656941387725,0.07807054915665301,-0.07163899246094908,0.14485272624355686,-0.008982774276870845,-0.034036352222454686,0.03199372427136815,-0.15576494776221847,0.009271942956200197,0.17525907696755738,-0.029372764730485,0.050819616811765195,-0.011736815046743678,-0.07877061043172574,0.05807790429168348,-0.12577831292663563,-0.049202102539962655,0.014532967922652976,-0.06577830667659694,-0.08325325610108736,-0.0318037421039685,-0.004792508333413904,0.11113157972473858,-0.06216413505098205,0.03892982425539001,0.056721900213870025,0.010844161368560474,-0.0328656009301291,-0.015327317215579532,-0.038496691319679394
vysqj_0000-00000192-00000336,0.01654329844137234,-0.06829877364801544,-0.04540543954634065,0.0019995874911215754,-0.0009670472508312709,0.030566861604506168,-0.12044381330035993,-0.0057047995528237555,0.02685081252566284,0.038667111042801156,0.012102065086721474,0.036123235708501185,0.04219817172834915,-0.00017761427017661473,0.014020046305228582,-0.046296532915650175,-0.052682296573237655,0.06711514235113518,-0.1277595880175947,0.05305818897408405,-0.04695386816399491,-0.011405893404496825,-0.06902929487316793,0.057524371064762575,-0.08740024897070091,0.14539673943317055,-0.1980035584068267,0.158190738278729,0.05001880406885291,-0.011741000826142791,-0.05210601620632976,0.07569991023153914,0.06837156420023606,-0.028147782234937604,0.022337252089566127,0.001698074248688373,-0.1307274247566731,-0.14376089435811837,-0.09160481217566152,0.06678950077292777,0.1806191563983539,0.045502034695067445,-0.12622109106780788,-0.04807215872464542,-0.15757049605526546,-0.01408973902744097,0.03347501591044073,-0.061923658245078436,-0.05690436370579326,0.10670323760796217,0.016311541634537862,0.08926337548539512,0.11909820666027734,-0.00810777349723968,0.11971525137951,0.08081524511175896,0.0999517511656355,-0.07462513876260951,0.04756037934365375,0.08380790979111985,-0.021970106768041724,0.22919859899726677,0.006467963199489141,0.11036284167724092,-0.0280196676301008,-0.08054216973400098,-0.1474409506246194,-0.012077655905201132,0.022360225594010814,-0.11631861834879934,-0.01537531283479016,0.23116837167477924,-0.1800340976420557,-0.14126323851137892,-0.005321221394226328,-0.07622830198030395,0.057251135513617483,0.0056623241040227,0.13264698106765782,0.1505419957106141,-0.06758008408780505,0.0015062282904337925,-0.013450287916544894,-0.11369295304435381,0.025281221405684094,0.05084756980267615,0.20178700205227312,-0.019233298372164902,0.08318357455053241,-0.0017698225145970966,0.15003293007652604,0.019268818260560015,0.07717265807117604,0.13603639544111248,-0.07020425408454051,0.09434764911654782,0.0412948964417479,-0.1394051330714774,0.041111924324175306,0.04250437534399817,-0.04534639978007355,0.21243153968730863,-0.028881356282002627,-0.06942320425235245,0.08086079991987574,-0.10174697598013085,-0.006225769772526737,0.1769182251221034,-0.06298642879528231,0.03624649961061321,0.018945754085165117,-0.0442639626518236,0.011632338267096377,-0.15617880360732644,-0.04070818324345416,-0.026157935278485485,-0.011289346365618035,-0.046646302633992755,-0.059413957404525916,0.09993960391102553,0.11694200213546996,-0.10758318616258951,0.041676100216953844,0.0028738910439597047,0.056010589803172445,-0.06045720562113893,-0.006945459813024483,-0.0521180456318766
vysqj_0000-00000216-00000360,-0.013531371707222021,-0.023108029542489434,-0.018121235503544268,0.027751133938126633,-0.002777037564998557,0.022035264762264993,-0.08250789973889314,-0.05686267618257682,0.009020222433669735,0.04756746834368903,-0.005085422046647207,0.08212895797992804,0.08713349032288353,0.03683712735620883,-0.01870687543615693,-0.04828552336089774,-0.03540548541957621,0.06107675907429387,-0.06403058436594043,0.03768443904002599,-0.061064911730178764,-0.020000105053347754,-0.06648923338822729,0.010136520029974422,-0.079712629821807,0.11911884623933876,-0.1758986771919002,0.13805632667919457,0.049589203643445066,-0.002338039924219585,-0.043479099281010854,0.050406906911214834,0.03479792551465952,0.016538616245025495,0.010487403164385884,0.03502893213112735,-0.17672082424302304,-0.17769182400709033,-0.07434873828120803,0.10606856240152829,0.15760886214204267,0.009196357560723439,-0.13036065755144943,-0.03773177766301057,-0.14566259624676964,0.06609841116010715,0.0600235032126321,-0.04904457485882579,-0.13467297826298086,0.11540574631176173,0.012435991516974087,0.07949725018942524,0.15887521320543269,-0.008896543519745628,0.10615669240934457,0.04998374856540853,0.01520118919457216,-0.08283399138864561,0.016813046145942,0.0924560942737801,-0.031800775879148216,0.20399911719083152,-0.01399848610788135,0.1369298818036075,0.052092667832201435,-0.06153511162114058,-0.13360454366239297,-0.0359137285004698,-0.001004592813035258,-0.14873139305656993,0.023823821459370356,0.2876980049671847,-0.16678179628751685,-0.08852815448147981,0.0307899773238505,-0.019178708714173837,0.07438206501765295,0.05741413936924198,0.0751474046699319,0.1838923525489125,-0.024759211004818548,-0.06707495999533482,-0.058072219488235266,-0.15065889056684412,0.02268158851740893,0.03665116126692494,0.21368521236659982,-0.04087036731880865,0.0756819473914639,0.029985093868790908,0.18943596966760995,-0.0012548965368603827,0.09231724936386844,0.09179728037843499,-0.09375336132567927,0.09278426918907684,-0.00929384610282002,-0.10119523959670781,0.04553604186360558,0.026569229370441518,-0.05872227175209877,0.19703064956831276,-0.0010526231437975873,-0.07544273968912255,0.0014061941854558396,-0.07145153640409145,-0.009946525535644178,0.15824082605667467,-0.05356329118942442,0.05139435764541789,-0.013682871948587087,0.011122277125534673,0.006272217307563006,-0.1728486624101951,-0.004411797058440896,-0.046922648654789886,0.04026602449181837,-0.06738660175913443,0.0027701693579284983,0.1261719671781556,0.10259280295152733,-0.08217769784140966,0.002063982201655449,0.003417221857554028,0.07889372632985417,-0.05148180233718617,0.0222577820616613,-0.08264385266415908
vysqj_0000-00000240-00000384,0.00526112667774836,-0.02830083271751442,-0.014977085365965573,0.04552595339539237,0.00846551324457018,-0.0022615423135956226,-0.06729959034112495,-0.0648340339344925,0.03908562476817579,0.06374600656467554,-0.03466118922739453,0.1615583264749926,0.07988254318092096,0.05738884055768476,-0.025587417989175132,-0.04152637200189201,-0.0559208705300728,0.04193726706850447,-0.07975247551237465,0.06801065707535364,-0.09192866674184594,-0.06169005447189016,-0.07185985138642441,0.032088490521215304,-0.03191039007705339,0.07509417255810666,-0.17115134094404807,0.0715298528859344,0.024438106424743696,-0.020498686951919465,-0.03576360472791913,-0.032733216767581126,0.06675882506479501,0.0693676281922371,0.015148801935645889,0.06646024523601143,-0.2022285980223789,-0.16247554693807054,-0.11057345716526121,0.09615947876511599,0.15920958704495392,-0.009399223529253677,-0.1220775649055242,0.0030975493436602415,-0.1330102431885671,0.10754638758387,0.09386059771913757,-0.028276466723632113,-0.14979695511544688,0.07300116379730685,-0.001529207794238792,0.10086357388687826,0.14621682238398664,0.019039421181321153,0.004650148870030834,0.045884110390003265,-0.039736847208729296,-0.08506506542539825,-0.04891291873143906,0.10135681525720287,-0.05690893172651589,0.17076160518365735,-0.043279128078120115,0.2010937432241262,0.071933867851174,-0.004504555477941175,-0.12280200790950502,-0.04783334057767029,0.04922982741921622,-0.12465867888451107,0.029785231693606026,0.20263461017827697,-0.15961144618353965,-0.06429090038027681,-0.0387829370073642,-0.0981963560927457,0.022438132980163915,0.03689374384502062,0.07320180286307564,0.17702878131758507,-0.003384847864600972,-0.04782615849974319,-0.03499190095530291,-0.1632334556746289,0.07078802717040761,0.03547415952992754,0.2271252086279452,-0.024585938986731733,0.1304577493159332,0.03215331038919535,0.11205172201430287,-0.015065099002401366,0.11300321657416297,0.10384577860631547,-0.09356560723989447,0.1730756539921767,-0.00019725111715049903,-0.15119464086363385,0.012308529146315136,0.05534310107236164,-0.06893021880875169,0.16851563455821145,0.031469426231753445,-0.07612910217741724,-0.0015933568342941975,-0.07081000846700844,0.006088260456010929,0.1643614978637871,-0.05258256183208664,0.015773320117783506,-0.04694691563660767,-0.013687904427763858,0.052961051576607396,-0.15624957585659854,-0.07021619885880868,-0.051742515829202626,-0.01941773302133627,-0.0793882233914466,0.05932924245782152,0.07650765693631417,0.07436231106960788,-0.0582804927160456,0.004625632175115452,0.0008476933535306445,0.067259732079999,0.06047314003309859,0.0603762930072991,-0.07617368088654523
vysqj_0000-00000264-00000408,0.022415932204455914,-0.05467158081101903,0.005631397878408757,0.025924384508689925,-0.03287930160226591,-0.03498984128170864,-0.029725752057142313,-0.08989031702376522,0.06280389750608817,0.06516613253745611,-0.05585545291164308,0.22681818308377244,0.07416676532777386,0.08781849459204823,-0.014237464033191151,-0.043836436948540926,-0.0637905569108918,0.07162422732628473,-0.0961780479884419,0.04751828326052108,-0.04556011782163184,-0.05106080323137737,0.0011841955219841361,0.021252346933222123,-0.004953778472044019,0.03087765610115995,-0.1186268656706506,0.04085712187587937,-0.01576567643706879,-0.05547257425363808,-0.01429068643336243,-0.07731664466613909,0.019838867075484747,0.08644927776968182,0.016148862523952593,0.0037921088159459963,-0.18407871342950535,-0.17704623233893882,-0.06938183719337412,0.09719405118380531,0.07765615086302674,-0.034351377334645355,-0.08096824538057859,0.007967685571631411,-0.1606059824287523,0.23645659455330356,0.10808264072115567,0.005111826121651158,-0.17591547167780217,0.008321141672686775,-0.096924037448907,0.057550324622875945,0.18262719612298303,-0.00016121581005051354,-0.06592817944276436,0.04603868093424438,-0.031005169427329282,-0.10132146285089577,-0.009448203547268452,0.016329257011957452,-0.07633865925852568,0.07251015700861452,-0.03259949272411654,0.22436055016875364,0.06805024770962452,-0.003942448453248433,-0.03292833130864704,-0.06809607251366517,0.022648570110587792,-0.09505110977073644,0.011897779538835035,0.25040843333722973,-0.09610667989278229,-0.07176425232501703,-0.046797607959472125,-0.05877973941293964,0.03184373086939895,-0.044924456002783705,0.011052073832612204,0.19423118769840472,0.029438244949448585,0.025967413797031397,-0.0706119579479585,-0.1275301748954054,0.0676102361055954,-0.014790406791763118,0.22469198227563988,-0.07014276046525059,0.12822961685110118,0.08129942014760637,0.07456565825704715,-0.02434517694181192,0.10389235714162849,0.08621117918833868,-0.0938063887330907,0.21897089887117474,0.09026106814105375,-0.07083501817891819,-0.0032457609042111637,0.12359830317192022,-0.1376898891039646,0.14467523711684793,-0.007256636579514208,0.013464182353887187,0.020186861978072592,-0.10288784634289648,-0.08517829603831194,0.10690417291945865,-0.02308987786168048,0.024125312277660467,-0.12521744087413103,0.05299121114240788,0.01133657834803458,-0.10073976865073309,-0.04022363207242726,0.004984639189655277,0.030272502586199485,-0.1042147467548251,0.09887376165476054,0.054288544814075294,0.07006415147556619,-0.024764904811032225,0.04156899830636423,-0.03496015846268721,0.007402703033911357,0.01632644484136176,0.08229159114961579,0.03468784153678281
vysqj_0000-00000288-00000432,0.05349877611529327,-0.06211370260009436,-0.0028743205506235638,0.008964493612733122,-0.060484196198402555,-0.02869527412500841,-0.04046902453924139,-0.0401548946471551,0.0723315010763999,0.08091921917535666,-0.053726952840821116,0.22977004431630707,0.04591506536506232,0.06824908353165389,-0.0035718644964184035,-0.05998286516263614,-0.04176341544875746,0.03824186616884122,-0.09436478527487512,0.02472711966118333,0.0034137813035524612,0.013352710886659324,0.029321540542682094,0.052465519451545116,-0.01943421590135263,0.07619804526133866,-0.02153130525267545,-0.004120573504513956,0.0162161856883068,-0.10683370721447412,-0.08775132024380819,-0.10092945124406989,0.04721915894522711,0.0643136556879321,-0.0674895532359854,0.0054152901228410695,-0.15121234149605664,-0.1693470971199856,-0.06067886817717628,0.13279116051893206,0.06202183987884113,0.013311581189477003,-0.0989215582439537,-0.04311040551943724,-0.13617160445753412,0.15376034339398337,0.04640918354911626,0.0070933673337565395,-0.1466453107628283,-0.037710769003215336,-0.08785066391104884,0.11796572197811062,0.17799823180913787,0.008446932782862177,-0.05184921398800324,0.0011448739775810819,-0.013607274464851233,-0.09399889667566405,0.02303396443456434,0.0396696431030742,-0.0723660613263278,0.11680231845988162,-0.006205255917212592,0.23036047820701064,0.049347255708630244,0.052671572016125545,-0.01593325394723669,0.009204237352994417,0.029245815944741214,-0.15158056573535214,-0.018216873731644698,0.2430655567977706,-0.06446079920997805,-0.1489124791808543,-0.040508070824695534,-0.10343618309349259,0.056836740045330125,-0.10386630928104038,0.019267743356786313,0.17362050503853765,0.08494548958337418,-0.10469279190841704,-0.02626714811100562,-0.08826064604044227,0.04813458774689633,0.014053540282879824,0.19973624473575144,-0.07970670712002252,0.20540307746297673,0.039479380978615,0.10118579629654446,0.03730906543830466,0.0914739058572883,0.027484833970827523,-0.07416432885141248,0.14998111559740776,0.09953653541127022,-0.132572765604,0.06514597139259518,0.11171116458301417,-0.08361839526166961,0.1579296652149391,-0.01574252847104485,0.022716893707228097,0.07214063163665733,-0.09342790649769744,-0.07348931381532844,0.09152109001201666,-0.03787322219536382,0.07381333141107212,-0.1699950014348626,0.08260843870689984,0.03882787103298252,-0.0375074860236899,0.012380781458530029,0.01303960238787556,0.033332568038952716,-0.07143669071817149,0.0237719838273237,0.08924953177192792,0.07805196395324365,-0.03824153721603347,0.04165416166400273,-0.06639204425017547,-0.003615615130461718,0.08277937797295892,0.08943024753725523,0.1233436220076012
vysqj_0000-00000312-00000456,0.06393544868029308,-0.06283689682723508,-0.02917563524532262,-0.00909939284277613,-0.04384841064459331,-0.03658871961830223,-0.01689015828580353,-0.006106042367821578,0.05764266618642861,0.08283854581669027,-0.0486129916523517,0.2092753791770217,0.07404967466310017,0.0835950005095761,-0.034537406483737945,-0.0761790738381054,-0.013740566364334036,0.009974173248495396,-0.13942917741607994,0.02783143559472696,-0.020175535444374663,-0.022763930917097577,0.010588779683603609,0.026216487089066917,-0.033833501357546376,0.024547463352227482,-0.06419420123655503,-0.036719979225687434,0.048502530955370056,-0.052717909987244266,-0.07600079808477059,-0.04268939023921413,0.11203101476100691,0.08431152616583568,-0.044588576304014825,0.0014644311695300417,-0.13840963024576977,-0.16225525166177943,-0.09115882293497053,0.13852752224449333,0.04934794081796532,-0.043109202088866316,-0.08484501609055392,-0.07176675363341413,-0.14291688884749162,0.12497951387586048,0.040731330117377285,-0.016419588171173824,-0.09759111335356366,-0.044095812057715525,-0.07788856702231399,0.12070931181053299,0.17641707226233416,0.011046317481600077,-0.029620387838771634,0.027785611693741774,-0.055761391979585156,-0.03617545289450491,0.0014903785410498693,0.006531567606480339,-0.029803762529588846,0.11384239680077288,-0.007458324042509199,0.18603548857552699,0.06082119687143772,0.024635541947999096,0.004808681152598575,-0.054155167895074144,0.08786525656665602,-0.1072894057269372,0.04648098304482996,0.19835404906705192,-0.047607247591651074,-0.1434703148312825,0.03706261787738916,-0.06411897256134677,0.11544178113980168,-0.14391719758735746,0.03903064340309357,0.19524085023462742,0.03772194803790116,-0.1712224174665063,-0.050981791612198804,-0.10101159336089197,0.03531191537188514,0.062217829561959204,0.21233055844625745,-0.06601715353173951,0.17848320133211776,0.04063343192123899,0.09712588431568542,0.057446537337675116,-0.03410202517546903,0.007689930967482848,-0.1089673597324651,0.15985014846281972,0.10635047942533613,-0.06590186568274138,0.07287937744090187,0.1818197057696048,-0.050091721125006504,0.06603052524760078,-0.08595009788247958,0.010080669928631398,0.057378352746313824,-0.1290498695447769,-0.12686457987465002,0.07377732135452879,0.02788770979986818,0.09281012380866718,-0.1582954634621359,0.07902416911625539,0.10790753235489614,-0.062498507906691946,0.06368856287778876,0.05400436757552399,0.004118793325160322,-0.020829685238727694,0.029055660748638027,0.0888496145793763,0.12228509079928877,-0.0007593597377708982,0.05406359242663702,-0.08962019722117526,-0.019537216563347205,0.07165765248863484,-0.04558263194149712,0.18289858350580887
vysqj_0000-00000336-00000480,0.05617329087692549,-0.08089551070369509,-0.0061868475309454565,0.012679595905868661,-0.018664347261991513,-0.040841278333607074,-0.028455924058077366,0.01529001047492737,0.07003048449318777,0.09433017368964745,-0.03951594040983584,0.21025946938245835,0.08218624322928088,0.06575033486782761,-0.033957748072163264,-0.05658568637270359,-0.021954950754908463,0.0027817105449169286,-0.10753460466377429,0.07121864502395142,-0.006301408952449325,-0.0502452914021317,-0.005058292518922581,0.03314685456098422,-0.04478465538041694,-0.003039753792130361,-0.07620073206964066,0.008637041505787427,0.04452349442030751,-0.057001391568361884,-0.060045987421569066,-0.017992367212125323,0.11556734217234815,0.05064779149128584,-0.04712765589871601,-0.03295429039562552,-0.11317778750210485,-0.1899760586328094,-0.11462806711976123,0.13088625311217697,0.03219596413099766,-0.06570285275196407,-0.13265776254375491,-0.06584418622420908,-0.14406326433906194,0.13532084813328954,0.05565498112176266,-0.008234100708330876,-0.07799038747177492,-0.029120951106211823,-0.07361472779605625,0.12246046711452589,0.1375602825701767,0.03801834411376753,-0.048539596638041804,-0.02684745285110933,-0.0006164964761779981,-0.06166205192382866,0.004526535339247626,0.04825174339567975,-0.04911344643988774,0.07736689767726937,-0.00666354540217516,0.1292667650249758,0.056494345769853786,0.050750595285673744,0.02520520870068953,-0.06791220412313827,0.16963010762099232,-0.08448263524236611,0.07330193354221176,0.18109645768763852,-0.0933316410327858,-0.1658742712271109,0.060183771058966946,-0.09385398571832783,0.10787833734972115,-0.20007469518838147,0.03719164838473965,0.20235154818201723,0.07516621086432103,-0.15894250857059786,-0.10854413573059413,-0.07162824087842078,0.04745222294058362,0.056029676873330284,0.1837552644063641,-0.058928565451733125,0.15610626817412407,0.0686983098519742,0.0605815079085834,0.054291885951740906,-0.002344970646997053,-0.012027742361050963,-0.13626521266391545,0.18149799876875256,0.0238430224790434,-0.09659684824565558,0.021899648800010798,0.13188592154364714,-0.10731348161737655,0.03574494981313274,-0.051712847401935436,0.0666114421588779,0.004754454233695721,-0.12017554062909452,-0.12188189799030583,0.12087890373625713,0.03557795758389071,0.1104806157743114,-0.1739250891873597,0.07057896910033729,0.08504366275044618,-0.03324977747624463,0.09844152388963985,-0.022439483367006033,0.019956129702166044,0.01143010990625814,0.012442783753803793,0.017033266720913157,0.129348818721125,-0.014125125056577726,0.04205184249555175,-0.06556232684561474,0.009339087059871172,0.09824114664360459,-0.028597040065399704,0.15878033518277127
vysqj_0000-00000360-00000504,0.045441787417698686,-0.08690760267474601,0.01615534250432811,-0.002032451326138707,-0.00694891318426088,-0.02215794083228389,-0.026480545065014276,0.03144757383589867,0.07800072091264282,0.06287256125637963,-0.038702568959828564,0.1951885147011018,0.10394183866387702,0.04930066471807607,-0.037435278315647386,-0.057733808396611824,-0.04927102803570087,0.005028991929793767,-0.11337372278637185,0.0939549472648359,-0.01712299105342591,-0.07885456596705441,0.008663007436298909,0.0428177221661149,-0.06570675881939508,-0.012856995341094758,-0.11183135686841393,0.05941411787868574,0.06090859279536145,-0.04312276765698914,-0.09665298148157116,-0.020090025644483058,0.147589757993367,0.03293343861442433,-0.026481557900083157,-0.06114902613171213,-0.0489913627715845,-0.18219801478531028,-0.07907306480245162,0.10573894264695705,0.021561498774212307,-0.09408110989577805,-0.13947066689866994,-0.07419263687132609,-0.14880979527403712,0.11751482641714464,0.03777102811880148,0.010684732908226115,-0.03213668726151679,-0.050118259590549545,-0.052338206268025864,0.12154671159871404,0.13253631813835443,0.036618094932357355,0.013210462530956688,-0.03695415347868162,0.03375086969089725,-0.058450414696355465,0.025951404960049138,0.0076263002882563415,-0.027516506687471916,0.08500274405389739,-0.024984421202597168,0.10508504473738822,0.07743658013078235,0.04746036596347415,0.11356683277379978,-0.03262642772024929,0.14991311179393502,-0.06349303965877191,0.02744268648475449,0.17435386023120195,-0.09722918305646346,-0.1440392462076034,0.038945941411730696,-0.12236418659831519,0.1297127721351654,-0.23156540681506005,0.03879320853655398,0.1618602496842632,0.06553124648351559,-0.1767749070998743,-0.03676897235400899,-0.08791735047927055,0.07504138129895511,0.03123450121088457,0.20852769234200158,-0.09021701350740911,0.17206238081305902,0.05031779495719501,0.0007240506645472734,0.01299047476813334,-0.033992640845956,0.04541818694647072,-0.1459594112654281,0.12225067633301974,0.06014872622975563,-0.10870746608394759,0.014965410675695932,0.15533138402025823,-0.13806122826350636,0.03657292159958447,-0.05576969638228847,0.07965925637540977,0.054746279796673,-0.1300017589395029,-0.10262848991617153,0.1239360046406512,-0.010290697013304564,0.08487438531379554,-0.12032296328556231,0.07994575701226,0.08945459479400902,-0.02404307250723305,0.07767816420015057,-0.04252490102760132,-0.002882497639361599,-0.04409663296351624,-0.04079515275391006,0.003946843040313161,0.1462407440832089,0.04269836054854943,0.06899384051291592,-0.051059199638914234,-0.041162192564591756,0.11177230080014723,0.005578551288509371,0.1598462506984111
vysqj_0000-00000384-00000528,0.05393302488718337,-0.050176461067533144,0.030240238267499674,-0.02648493597822565,0.0007513258271568418,-0.018820466855565675,-0.03643227476987969,0.033942871525689707,0.08910157106261063,0.05222236415203897,-0.04439360217650136,0.18382898542931492,0.11804395540270507,0.031494399974044386,-0.02533969235022237,-0.04390636908674655,-0.1279388268899438,-0.02068782108729117,-0.07896033182729788,0.09156923501405388,-0.018861698207834218,-0.10464369599895706,0.01939571718826425,0.05138141069237977,-0.05338621449581532,0.0048366708136573806,-0.07279650416078921,0.07826111401036313,0.029079808562860323,-0.013679576949396916,-0.10321078987449667,-0.02199274103339539,0.07917710646284462,0.027464109571350065,-0.04650732515278778,-0.09784093125153759,-0.07623140340249887,-0.13359810837053093,-0.06924424544045842,0.041098015406143086,-0.021769905090387277,-0.13645380285119224,-0.11471393928051166,-0.10229097949636257,-0.09939251466714774,0.07400996463331261,0.014574178671116862,0.035373994556226654,-0.034456831224286916,-0.05924018894570978,-0.03454913595132045,0.14462376952662728,0.16186221174326765,0.03910795611212745,0.036676650918244826,-0.09967886948991296,0.10401669719857416,-0.09943399300731046,0.007928335155795345,0.03381401368231996,0.0041772845412621695,0.1576163193336742,-0.01745298325526281,0.05942953261178801,0.04313428857339482,0.02298923418168855,0.11015960873736218,-0.04148686123509575,0.1574603611962023,-0.06663499899524442,0.09777312075298532,0.15838565496719434,-0.10412790018848037,-0.1931434577636455,0.07783240023374557,-0.10139981383152841,0.12741876230503107,-0.20784163845656556,0.013872898201985524,0.13079814141472484,0.05908049367616377,-0.19200015387641148,-0.03278852159773357,-0.10320573583710822,0.05888957081102898,0.09308753567620096,0.19429357023718405,-0.032879670293710174,0.19892286511378585,0.09512833973721362,0.12287707839248435,0.0373761381042039,0.02418834139399276,0.04674791310567796,-0.1323855272826258,0.06852018122612857,-0.029962933695081406,-0.15856269485177957,0.06687248809277387,0.11771478584935298,-0.11346552990242426,0.041447812189891214,-0.016097786820061414,0.03009057448173473,0.08918898466420629,-0.13474947852550612,-0.12336226423372028,0.157529182109592,-0.015619570919499776,0.09455118552037599,-0.09311705584091498,0.006837382621182493,0.11231637434104907,-0.03214169833751887,0.08105129583417936,-0.018351785161480665,0.03403496304828418,-0.03456781275773245,-0.022199604199754936,0.020377618778393457,0.13572225207509667,-0.026169268731483803,0.06906266651490328,-0.04577489587893142,-0.04085448100294006,-0.011893586073165695,-0.025467063639151175,0.13494956216114568
vysqj_0000-00000408-00000552,0.07540600004432882,-0.07212310448799847,0.034992886523463884,-0.005525211469125263,0.020324026609998193,-0.0045520388081184224,-0.030595356389227536,-0.017902832389118613,0.07910445244758108,0.02001226473316413,-0.05470225406856517,0.15463237960711254,0.09049030504168526,0.05728334662922263,-0.0502318537640036,-0.022827449328735445,-0.12631941804866487,-0.023869850464850892,-0.034163369900465,0.15418606611969704,-0.027904452666912747,-0.07657663822182914,-0.02366124486090489,0.06333825668893986,0.005552363810014452,-0.019770481468008957,-0.07668492269757377,0.1190281287398499,-0.0005392878510603429,-0.007479159519579303,-0.060088825399347304,0.024037033730034074,0.10471104131160411,0.03351238304912706,-0.019863131398978957,-0.11580676973463953,-0.051029827921305275,-0.1314989025496214,-0.07149799249710267,0.028489240638526963,0.022178428317615982,-0.1202359410903549,-0.07558633841365797,-0.09783149997032232,-0.0757650442715131,0.017425575987547275,-0.007536409754850448,0.005235630959655435,-0.05449847943137586,-0.05669394357004224,0.009371989980839905,0.13691791873227063,0.1810547765976714,-0.0030404790240350322,0.09121434890684137,-0.08749035450071585,0.05847562781137318,-0.16449244659710643,0.05347292235110454,0.04268547049832147,0.00031907567987813897,0.11814432349917521,-0.003775710355435949,0.051518938640002655,0.0934785968700189,-0.0027769145857373034,0.14137064791842413,-0.01659962689660814,0.11291115971366905,-0.07150385564595964,0.15898920808001704,0.15791164423630205,-0.12933203014521852,-0.15096672866862593,0.1430478287496904,-0.15145119094277787,0.07467832572171569,-0.2368659938733647,0.057115422851507655,0.16405443956848753,0.001143927727178699,-0.18633879426471,-0.011071925561124017,-0.09247517743699545,0.018608261587451144,0.11253198269820824,0.1919541296793749,0.03353224075455681,0.22246024677419063,0.13843398029861792,0.10518424009728543,0.036476023742447676,0.01627992205105838,-0.010644480892416259,-0.1433455780407987,0.06437280559518381,-0.05766553550056384,-0.16794428401517605,0.06032878067580133,0.1085135310760097,-0.0854524459738827,0.044526576251794694,0.042379329078157696,0.01981646261447967,0.053280451433535804,-0.10673651208627105,-0.07975710280461853,0.17089839459493267,0.022875596283987703,0.03455199324806725,-0.08193941676968289,-0.0971590039835572,0.10216757508036672,0.010981371716307576,0.05303307397385374,0.02362572991599244,0.024919444824792438,-0.04886654237129178,-0.01782095216969999,-0.025878160494189277,0.12204357331444411,0.0029245843876652524,0.02096826329863589,0.004932414919050301,-0.04670934677430695,0.08473428806731657,0.03500665353881629,0.0687763808537135
vysqj_0000-00000432-00000576,0.04986121256960055,-0.04555973980969017,0.10696020344682249,0.023246176903990234,0.01564334418931729,0.04314203104224817,0.0061308881859357236,-0.043670114382003,0.11718860718854099,0.0030935904883132807,-0.062050831169521065,0.17460709629601015,0.12984164530483086,0.049328957853730385,-0.07066436183031909,0.002832875868767666,-0.1430411389335766,-0.004975085030966039,-0.04084918360618481,0.1667494781599173,-0.07148199224677597,-0.12765324511360177,-0.05834314440449093,0.066620967467908,0.023958117854077254,-0.06745078819542799,-0.1181399332144684,0.16963931903364587,-0.0067041327976221044,0.00902064207634545,-0.038060741945187514,0.0543404870500552,0.013740808693352969,0.0825899305937974,-0.01049854681400744,-0.1527447258365497,-0.04994564785653364,-0.04009510927377,-0.050358169700895065,0.003005548655742457,0.027626328033106842,-0.15127423013640043,-0.014331539143610307,-0.007765209296505164,-0.1289632436243505,0.083178523784651,0.054338272939601286,0.00789700731621717,-0.0860705546241201,-0.08048469068806054,0.008159816419605786,0.09685392783346694,0.16439573609492308,-0.05800987949100665,0.052880598508586445,-0.14334504014685948,0.10168817939186907,-0.11389728156992183,0.007529635159444689,0.011291703430956142,0.04670544789301231,0.12331217388325856,-0.001803392761612286,0.06296568915789827,0.11143441615529442,-0.026852246165710258,0.19775686925046876,-0.028387906269405388,0.17421282742591848,-0.020710749677880533,0.17063725298930305,0.1475027911526052,-0.10192053242159946,-0.11402324056217736,0.10359678461257615,-0.08263473009928861,0.03946963259863282,-0.17109907423580956,0.071718382673471,0.11893211805010602,-0.02945430078515025,-0.04529551748021668,-0.02678622879681551,-0.04179239918514097,0.0010893757671462238,0.15218154538473339,0.19109917483500366,0.018331822168985868,0.18486297379495842,0.0797074661346873,0.10303233433043711,-0.028789517912919508,0.03470810199408315,0.044934611894443206,-0.16775752958557358,0.06959647820885072,-0.04597298311007335,-0.1097401607776521,0.10340048954386467,0.12014539270684065,-0.10070358435592289,-0.029710188894916986,0.02965315663487521,0.02329842186567391,-0.032618160606473816,-0.1040199814841306,-0.0656667240310506,0.16420218557482377,0.09698876463303054,-0.021845361613705767,-0.028806043032626336,-0.13273907249806252,0.13211106624407878,-0.0006883421494573204,0.06547751306855747,0.01713751698035473,0.04422022640118558,-0.02800627614091882,0.12165401450700752,0.02870993160168411,0.13311272118962883,-0.022119313148513165,0.02393958050822806,-0.02254532903450403,-0.058604874190050754,0.00458708624834642,0.012517400976129859,0.007962055349952663
vysqj_0000-00000456-00000600,0.03796183175107734,-0.05971034462099446,0.08523262518017606,0.013077119646257455,-0.004944643320663327,0.04162285464662369,0.034857478458720975,-0.0808981281482966,0.14162424472528592,0.049765279017542755,-0.006098771916475206,0.08704758555785985,0.04543664632846248,0.02099639660958908,-0.005056411208629035,0.024293222930400683,-0.1879355618451311,-0.05547350974794951,-0.06856983520860933,0.10467312582439364,-0.034583698221877845,-0.0784840523895394,0.005200169994746757,0.10186519519910887,0.05090233779727292,0.031193241526599736,-0.01669993803140483,0.17481391253610476,-0.08141221430964406,-0.0023477015471385053,-0.10172267740888333,0.06815012817750984,-0.07706255323821654,-0.02893853643332373,-0.00902298334314547,-0.16386453347894575,-0.013818213354451409,-0.03623724386779414,-0.029634888712872214,0.012362360768782056,0.04889189546431172,-0.12987120125726567,-0.05250969484383867,-0.05719177016888268,-0.08328841661784674,0.11733921296258074,0.0410417752090806,0.018413935378030512,-0.07834871903643258,-0.017343366087853706,-0.024994713187249534,0.04698623230726126,0.15692793447630402,-0.06603108680532198,0.07287340649999126,-0.10075688629678922,0.11576110902047976,-0.13076788600517825,0.05203504525402771,0.1053394334219243,-0.045674602253067006,0.17136494738571378,-0.06300743903514171,0.055816089734014855,0.014124339980950858,-0.03650231791711691,0.11471777458190806,-0.0288886007655595,0.14359933282791962,-0.0776119062199368,0.12550770246310106,0.12151494097727956,-0.03323299756407295,-0.11685396187332336,0.10338903826802864,-0.07492110764248215,-0.004657630545312245,-0.13616831134560609,0.0015455397412357278,0.12693846786815016,0.014815788042860012,0.03131328183725937,0.07849129469690101,-0.04645386414603048,0.011361187183182454,0.08018540132892278,0.15116651603753709,-0.04192790993186838,0.1700377537664487,0.20612266607204002,0.15098071710089583,-0.06123229707678936,0.1466576503788031,0.03167533655147205,-0.06985472872505363,0.08659679209535544,0.03620598784032581,-0.1034060456724363,0.07977834664085741,-0.0156387982413751,-0.09722731253801582,-0.05031211325173153,0.1294302761301552,-0.007527137272862688,-0.09145892379167385,-0.05727005033201341,-0.09170076817247139,0.07829597169546659,0.010024885707172766,-0.1898108037509773,-0.02846264995050933,-0.08797641612162212,0.11439059321342614,0.06836588980224746,-0.015002962351272953,-0.02558461409712332,0.17461004379541054,-0.15403375987039916,0.0669196415829056,0.07923010332356914,0.1332662248518064,0.024558298108893824,0.027503147308906357,0.09268727008198531,-0.017688984133461504,-0.01404712852476374,0.2293024170861889,-0.038442596103858424
vysqj_0000-00000480-00000624,0.034449455381178835,-0.05449324501432618,0.05924205720698013,0.010970120719688978,-0.00908175602721364,0.02553109064173597,0.02407733075176886,-0.08755101612141626,0.11247110330391663,0.03389190321660944,0.0010628673055182863,0.10184542658771219,0.016477471999520776,0.024645696761292066,0.007123045282987395,0.026148061310673903,-0.14313295492784764,-0.03262430822049121,-0.0976528243607487,0.031022853609323407,-0.0153008570196896,-0.08589643051519641,-0.008677192319621364,0.10849266001152127,0.08996980775148597,0.07393913575404416,-0.017717418019214923,0.13731111906775834,-0.11957139294041196,0.043623193998966206,-0.13974885955980526,0.0533127187128241,-0.12873154145743682,-0.015819211716824922,0.004920024924155743,-0.183381713186973,-0.042489778603139475,-0.05999232944714309,0.04347007651754329,-0.024084689250745625,0.05451385906559792,-0.20636223728824804,-0.007903048249486398,-0.06145054553431434,-0.16538876028711408,0.08570808234376542,0.03697816911938945,-0.0022570466845448756,-0.051879471883464014,-0.03657630598470549,0.019453067233866476,0.064274896762104,0.11913111204999254,-0.04638548537360023,0.15012308646827038,0.008797349316304888,0.09925207714569466,-0.15859382406984704,0.02329241560272811,0.09715124112491645,0.010023151322745038,0.20821170611424306,-0.007648217315704887,0.0914262059963165,0.020011226168948314,-0.012538513063478288,-0.0008194171491383845,0.06128424385505927,0.06302232173785054,-0.06810623967836517,0.11849440231218854,0.13912382410657556,-0.03070312959295528,-0.10706658221499671,0.10607808326322148,-0.017502267353107063,-0.03766554629058721,-0.0423000520590326,0.0031686350829794366,0.09413400791935017,-0.02023086319666201,-0.05136607402438068,0.07394315631072437,-0.10607690659387914,-0.017446765022162705,0.10078354011605198,0.1509646933059786,-0.07218405070314801,0.22757737715971038,0.19876704185054503,0.08877271609197548,-0.0018322947943782274,0.1056092454097743,0.04813889102219394,0.08778021304633767,0.08699558493782678,0.09862305827963326,-0.06382905476459799,0.12351328381372995,-0.06242483784574529,-0.09872675455095868,-0.05485899269025932,0.07796849899477676,-0.004204918632541734,-0.03405531304943482,-0.08008877239764485,-0.05343403747450355,0.043244759006919466,-0.010994730528183899,-0.1848801026071711,-0.060419513922477845,-0.14412902860405247,0.13087371227070504,0.05036181966567658,-0.022945657888922482,0.02852828386320651,0.12415927839777888,-0.10217784955849205,-0.001480748583538735,0.05877797806196943,0.11794169906140466,0.015171878251224867,0.08776584106352438,0.022736087059053077,-0.05345994060006526,-0.0684451011240183,0.2736165308176509,0.005559845299500934
vysqj_0000-00000504-00000648,0.025289637463049432,-0.05395566027965103,0.02600028792504182,-0.005489588407348567,-0.02331084907948483,0.04834146010607691,0.02504076861256716,-0.13171080290618542,0.132143061347381,0.07657776189126037,0.04249120079721107,0.06248759499663473,-0.013784353479577325,0.010770765138398844,0.030693726365696315,0.03890318138089781,-0.17451164057158897,-0.06361032341228433,-0.14040360327133297,0.028379431125587468,0.00870512479932531,-0.06732363729366432,0.005072094698548314,0.1270110418632285,0.04963290022362012,0.03506746098619284,0.002709060402887435,0.1910603896234329,-0.15258066261004608,0.050093046231299385,-0.11747466508483596,0.07348859801888112,-0.10256283149552277,-0.037626540393077,0.03959109848196229,-0.189449683442546,-0.07665200836243123,-0.02328698066931628,-0.023172317497558458,-0.061859800420053714,0.07601376834407868,-0.13640504523876948,0.019961284807129644,-0.07273487518967545,-0.11586598617371736,0.10228400782820006,0.004094290950945038,-0.0676951076580974,-0.024259943360230116,-0.0036340457485721928,0.003932177248998121,-0.006560400666598822,0.15794635248567623,0.0067567129514957466,0.17420486143110292,0.06000060153339271,0.1348897141434337,-0.1487573498785913,0.013265110621138488,0.08741514879643743,-0.03726643892366512,0.1548335517204427,-0.02567531396334276,0.10184662856387869,0.07321596213297343,-0.0013102733399847502,-0.11270583607082275,-0.009616449780977176,0.028285097159675282,-0.01916677813156342,0.15500934067132133,0.08160672335729245,-0.0947732332843414,-0.1454364671859086,0.08608997146773424,0.03448470121384561,0.012299499394397041,-0.012610252190756656,-0.03959913264634171,0.0535071973043572,0.029734236461341556,-0.003125960626286891,0.06798791799120078,-0.09330495811298799,-0.005792635779607088,0.0376629572560623,0.07149063498001551,-0.001759251964471186,0.15904260877827597,0.15979404008956888,0.11764226409186697,0.008104244575562742,0.14938526169734356,0.04597587728050453,0.0961307834901655,0.028873054291160685,0.13162037702627574,-0.026480621661222725,0.1084660280479743,-0.06408358476984462,-0.02892464562591589,-0.06254150611265841,0.07941392950852719,0.006310285813795711,-0.09142882406138385,-0.06941855715781642,-0.08579201273344732,0.06817616699403836,0.06713342947281797,-0.25490553643621866,-0.09440612033045467,-0.019802349733000657,0.15829961680932467,-0.0029368455559768093,0.03988884412837278,0.032038741698525164,0.12281724625098846,-0.0935909464784151,0.03088379692065884,-0.011877054854967019,0.14820680923247145,0.021550950797394403,0.13604551873699453,-0.00831185098290058,-0.010790521261083895,-0.12416901044700303,0.2125436825204147,0.04918216213649873
vysqj_0000-00000528-00000672,0.05813681156596661,-0.09512762640621117,0.02344249765934698,-0.015141996480815274,-0.008740576649854054,0.07580152334018893,-0.0015774647050430764,-0.11189408890908058,0.13092099599649787,0.08360967354561866,0.04128316993890844,0.0624337456204803,0.03175786414020989,-0.03532678363970911,0.02192635771664091,0.016666974422141892,-0.1318911289333903,-0.05739347452011289,-0.12488055398013108,0.045232719198875844,0.0030855710063156802,-0.0752568633646084,0.0030840257799355907,0.10942412315527013,0.03246831022788796,0.02031546935976327,0.017381444272679295,0.14212919122490858,-0.15816694251645239,0.04742719474023279,-0.07049835430586852,0.0951402103332309,-0.11277252725804376,-0.012084443078264197,0.05265982942512052,-0.17444504269652944,-0.07982932817887475,-0.030052457412298613,-0.02378023238797845,-0.04925964016303316,0.1072617773562848,-0.16807377972530133,-0.037351752243633296,-0.08955801265095234,-0.18221246434895447,0.1580874688845396,0.014160341130623906,-0.025494183716466848,-0.07735522768727043,0.004016857353025678,-0.02221008924107834,0.013457314229435397,0.09148866625691676,-0.02415208553356009,0.13875270208078655,0.07209859886871163,0.1503736478745564,-0.11189028235270593,0.01665564148400836,0.06056182672766857,-0.05458925687015076,0.10774326994667649,-0.04704076630024848,0.11807251257610431,0.02673617366790246,0.0994551986236663,-0.07653974957301264,0.0623349938585949,0.07785074987323636,-0.06097864261649491,0.07331965678143779,0.027426562604731985,-0.1253551151139882,-0.13587621141017067,0.07197120936002574,0.06121405572528373,0.003132362207224072,0.03451421531598938,-0.04019076817689875,0.10018445929650004,0.1539796424284108,-0.0006545339298976993,0.05277844818280073,-0.030768257052619437,-0.033730804219993235,0.011229270685794648,0.11130958580622234,-0.10908955805166638,0.11015341313037753,0.12372031505563749,0.02606854352443771,-0.04074586212780472,0.11097522894307384,0.1058719299531276,0.035264466320301474,0.04552659655180762,0.16875545881924217,-0.013167061220930639,0.077341712567388,-0.10308460462034348,-0.0036159230636918925,-0.10442107710568951,-0.019264570640445754,0.03698771165654517,-0.006360304367910364,-0.06362549869711694,-0.18450872127864681,0.055838467135186816,0.08124335902175639,-0.2501256341873689,-0.09408549046476866,-0.005295219611319968,0.17111321100170748,0.027260061634337206,0.03737464841358469,-0.021915162384110533,0.15443193981051898,-0.08572493384218044,-0.028270557459485368,0.021594127374521307,0.15845348390393868,0.02728702220447902,0.1168240384713569,0.012957318660960343,0.021360047058924678,-0.10554978827858422,0.19257778132732378,0.10125466499297923
vysqj_0000-00000552-00000696,0.03977700843047288,-0.0667249523326238,0.03194803358440463,0.0014018086090145103,-0.04900702147219393,0.051036298800046107,0.011809253664746888,-0.08924463057295726,0.1241489920389742,0.08785029772988374,-0.0005261384474813595,0.07446742454724367,0.05656805716654555,-0.056093863366375556,0.0443689490895825,0.006288865638347084,-0.08609785657803962,-0.0632118791612402,-0.1393265102901072,0.039132372963067985,-0.0206987949144905,-0.05620163514163384,-0.03138424483933817,0.09132693194288685,0.01232940670206848,0.01719859725581596,0.0026413226706873765,0.2017858501036576,-0.12509255324960053,0.08018810382625624,-0.0568605160004936,0.09308510271403204,-0.06727006500795564,0.0033886343583474973,0.07954090606470614,-0.15497303243470975,-0.11296869049222018,-0.06854865839328192,-0.02169131238736003,-0.05395303574457008,0.0983622370669923,-0.21352501105814242,-0.11227336153122307,-0.07690714877150824,-0.13191097145415323,0.21343264989701305,-0.014540298821369414,0.003858002330785136,-0.060059316421061965,-0.032873340680134894,0.013572585196418666,-0.030073424655711285,0.027338961334408718,-0.004743750010679078,0.08460494574883305,0.10256571927264035,0.16741518178224427,-0.06003830515649333,0.017938965868036408,0.10836346053261536,0.006231862030901653,0.12719094012530932,-0.060395534979884175,0.09593381620991838,0.018262413683324787,0.11477317536705955,-0.11796574687913863,0.06474432443274407,0.0714768853949572,-0.05541124760882801,0.09695058270151903,0.07747505132084846,-0.12819098892133476,-0.1388950710400474,0.06136481853371413,0.036766705931245675,-0.02103869960357809,-0.05262443288304044,-0.01694027311605924,0.13741005751177815,0.14776078285284563,0.004756713226160878,0.07142098508690244,-0.017978450449245616,-0.016351827541085256,0.01065148983139539,0.13159637275295014,-0.10321575931303412,0.07558881130347453,0.04436502737559046,-0.00782188153268456,-0.04943355236045539,0.05935022713964774,0.11176855472317028,-0.07063710286902436,-0.02187656406238671,0.1241687052446969,0.04553628458834172,0.11810197533187432,-0.0794823124680438,0.026913816913326123,-0.12000282172587216,-0.07967039461077642,-0.0612459302434457,0.03302129482478973,0.0006574972502766505,-0.13151872192440978,0.0532624391775463,0.041344112053505404,-0.19244513698248955,-0.05931291781909583,-0.05681637887081346,0.16231908666049366,0.02135808697186713,-0.010318963705290559,-0.071254056083435,0.09605499965115875,-0.16099244931877407,-0.03821076084746504,0.05709811202070644,0.1262237610405912,0.008742603721765682,0.13958610329132726,-0.023038343417761252,0.0603672207800367,-0.23026908911563276,0.15040603264431887,0.10063517748018057
vysqj_0000-00000576-00000720,0.02273036467116132,-0.11156519679123326,-0.0222031401448791,-0.026696650721434612,-0.048593675829953775,0.0075972529638326045,-0.041825013232242136,-0.030911156779921546,0.09365184788056029,0.11395988420665093,-0.011675774071626448,0.09715344607346375,0.08630104147918147,-0.04170202339069932,0.022438241869865143,-0.0011730463442369051,-0.1342879756434386,-0.06094042611539607,-0.16983947274539568,0.0383194499797262,-0.0392567142180623,-0.03848875205850523,-0.017253817993454438,0.08163238858912669,-0.015901397754675636,0.05608146609152345,0.0002480293667279278,0.17680181776647555,-0.12937849020235145,0.0566616931014303,-0.07987845753052347,0.11119179498877944,-0.05453347668069595,0.027262626950363203,0.09357618993316832,-0.1262597791030313,-0.14137020142112783,-0.09635603069474931,-0.02353172205130066,-0.0903947919027857,0.10643031095849383,-0.20189329135084488,-0.08876210798557711,-0.09970590828633996,-0.15779120934333096,0.22043338426875025,-0.033732890361938876,0.02759245595971341,-0.021799120637158883,-0.05479747895297621,-0.01669847913146849,0.03245746542686493,0.018311386856492005,-0.003655065304444879,0.06624567040859065,0.09154854937078699,0.12414740579718567,-0.04661982966679149,0.011443025711041294,0.06947757079925526,-0.028146263028626963,0.17124861263470118,-0.08981320285765239,0.11822636548602806,0.08877178552463023,0.06294472321841792,-0.12883169972647535,0.15305839025207518,0.03859033725318189,-0.0822965447978812,0.06380036794275575,0.053676481618669086,-0.11453864901625058,-0.12728681466353337,0.10504690974551296,-0.002619595918843811,-0.042547616991248975,-0.048359972442563105,-0.07176113100204612,0.09901270451018883,0.127454594297531,0.02347605773384037,0.1095158220187736,-0.020276661605754476,0.012968247688738114,0.02212069663899092,0.1017681565035989,0.010944824157159456,0.0416190789065758,0.08206698257935842,0.029296344451744952,-0.0870464544801054,0.11405935379490661,0.1573441578439764,-0.028344484204239472,0.004936886293861371,0.16235389085516308,0.014062039259082202,0.10995589050398259,-0.035495509852559816,0.04280969085898099,-0.0967546950807765,-0.09532646848357941,-0.11181316528453106,0.07433018448824726,-0.04814695161103015,-0.08399779239243776,0.046190305563550846,0.06599295196250521,-0.14817263719319423,-0.029674666799465958,-0.11625489412171217,0.09316223751765207,-0.03956769592798122,-0.06669563720462737,-0.06510417032014788,0.07961047730671574,-0.10471218377109712,-0.03406250400468809,0.05402549577038833,0.08757714899740106,-0.06339292178144018,0.10581726799066905,0.09735782222513706,0.05006919058456724,-0.20116297320996313,0.16280913959193183,0.07058641404353085
vysqj_0000-00000600-00000744,0.039196301175802445,-0.09834189861556546,0.003570983526191302,-0.011528721805190857,-0.021336926523526412,0.041779906239581964,-0.03525262094635713,-0.06113487303192044,0.0838643141938827,0.06820946592091473,-0.010908027813190554,0.07166669363940117,0.07433588491799485,-0.04729445272739338,0.014825127983824873,-0.019855259837111314,-0.114230456447652,-0.01554881570751261,-0.15602343586521947,0.06065615194468386,-0.04854409667625914,-0.026559256270403453,-0.06912735583471352,0.07071340735600709,-0.09639635524443976,0.03378404286733002,-0.02581569739001582,0.22630420913850766,-0.037097869468255454,0.01772220389418201,-0.04652019408585118,0.0767891585388711,0.0404041066951031,0.0757886424431618,0.09134169626857529,-0.016754438656058857,-0.18708934114066134,-0.08286558792909492,-0.051294751541185214,-0.10284398500575016,0.1225084806696712,-0.16585688091106696,-0.09215216913211946,-0.10605345473080026,-0.1099138144544341,0.2258569864687966,0.025823977780783,0.01927978318742289,-0.050372851013324955,-0.02650667963301055,0.06064326986978271,0.001036829068904647,0.060290315289044,0.032522377264117504,-0.05169352367625723,0.12377804640609233,0.08553815455782637,-0.03564674967925453,0.01513884132674659,-0.0032539454050355614,0.028040405481566166,0.18825392167566635,-0.07937433569361163,0.07117153470439626,0.08228754208072707,0.032472859866855545,-0.1414343432045482,0.1734953355787267,0.06392261328365097,-0.02633550246035508,-0.06178319829853927,0.023333874644689653,-0.12798054646340445,-0.16267946176648945,-0.011791434558890168,0.023741761053770946,0.005784625940803109,-0.10176144051787152,-0.02239560006805714,0.0624231564541975,0.13126961472653578,0.027025553853833185,0.14842815386872465,-0.02530719394893168,0.003112574924633012,0.07196945816061259,0.11655760163301057,-0.035609128812833346,0.00046003313938169595,-0.03916528176560671,0.017487510734430667,-0.05983791527092335,0.05117246644879801,0.1198913725886712,-0.10072232272853111,-0.07660141824292727,0.18154905113241654,0.03519766054961601,0.16533236345057226,0.02307164327091897,0.11772341866053698,-0.061537993793262635,-0.10681319213922245,-0.05942520803432762,0.12054548046802431,-0.03815416350554329,-0.09227278902379667,0.13661764931424908,0.09069531257964994,-0.07277355167444916,0.0018500638895584262,-0.06669058725067353,0.13779176569695253,-0.08693860891560015,-0.06945497904138627,0.011498679021066082,0.007137112447348196,-0.008396935091945076,0.0636069017555492,0.10622822776531965,0.1557741239140895,-0.11374979486840074,0.11818445649203306,0.04382458011104707,0.0039150500061205015,-0.25367730793916116,0.020156626525611808,0.03640056126610355
vysqj_0000-00000624-00000768,0.0319624883892994,-0.07866784549654732,0.007687213925519324,-0.017532788041616357,-0.06060668907882402,0.04188561598753762,-0.038885499175623235,-0.03946121030119061,0.06543031398493533,0.07356122740170436,-0.021581419902894187,0.07888297277537343,0.08875102882561811,-0.02762397226643631,0.0055633685857782705,-0.05011091881343023,-0.11412512602072616,-0.03088097751659827,-0.18827870927470583,0.08250099213083983,-0.05553237722881599,-0.01770882960451407,-0.07421288654811094,0.04567205723864046,-0.11842801820268063,0.048239955026003214,-0.05522960562564917,0.19234223523186553,-0.01438265219640203,-0.006078422228359751,-0.032205697655586354,0.07180455872642584,0.05219860286174246,0.08363074213660038,0.057178409599987254,0.0035041137595785313,-0.14111077447463316,-0.07247742227215574,-0.0602560395120884,-0.16391087906074087,0.10887250246586082,-0.16162294556406537,-0.060702091094338564,-0.15393734414631977,-0.08536655771865082,0.2196404624984745,0.06972608084048426,0.05413994924997643,-0.035727672451301956,-0.056798951813519016,-0.006679570068748203,-0.02168409138999179,0.018048870097623394,-0.0005934598390726483,-0.0630583261047082,0.10977463307261176,0.09059135838229507,0.02670731709604349,0.00605062443869133,1.5744090742546883e-05,0.009533118988472769,0.15049824594777436,-0.09856648327877134,0.042383103338711696,0.09125331532601841,0.02039631210680738,-0.12620977389877022,0.1666771399019923,0.09941171750944593,-0.03251981614978055,-0.0455911223855889,-0.004706143364551232,-0.14321666493878016,-0.15480578455621224,0.015259113596330658,0.017164001988138528,0.03215128066181353,-0.1377608519361081,-0.02510188704749701,0.08283760562145027,0.12984817528947204,-0.001941910338130257,0.1330865771600724,0.039558021211795094,-0.038400223763232516,0.012424015276944953,0.08864164553069846,-0.0666597552839149,-0.045506498822223754,-0.05339837020964476,0.028491830085248086,-0.04423704142295296,0.046047409932347926,0.10579054235698364,-0.09650885880699939,-0.1433582268943962,0.10257675817447261,0.06258929372866695,0.12367251884154548,0.0035142657956530607,0.1764672064128143,-0.07758297894529208,-0.13813705411838983,-0.04617751403345073,0.0644758132139546,-0.0939792039167811,-0.11121580881452411,0.08077452253267386,0.07764808941042917,-0.07943401592724568,-0.012904963529849727,-0.08981135468005594,0.1603667120819746,-0.06853807952791349,-0.07406317572853788,0.005077406933307337,-0.020705497155162962,-0.03858849035327119,0.05551242318318703,0.0891208582416261,0.16263155138076746,-0.07562898273181892,0.13899603948362954,0.040620993362486604,0.07445364408666924,-0.2688743311926306,0.007438091658403548,0.07048579888424099
vysqj_0000-00000648-00000792,0.025200430545205432,-0.09666667402937403,-0.014550611071179883,-0.021801595445313817,-0.006604933383040761,0.006321051268335642,-0.11742111885781073,-0.006666996131097841,0.07390733707232698,0.03646550873351651,-0.023861145102932666,0.07189327796954578,0.05740510019815488,-0.01927656885705982,-0.008220372858961923,-0.041765835783008846,-0.03798950204654773,0.014550097674129986,-0.1708453914991394,0.06033914724797447,-0.07004503116464784,0.013404260566671157,-0.11217928205811893,0.08111896253743979,-0.08636619559786006,0.09655909342883139,-0.10457994852373498,0.20771618073711032,0.051916079857071876,-0.06144988312147011,-0.05155463681203508,-0.030800234922103507,-0.0008182238642458349,0.07819713952834474,0.050128529218196945,-0.05427374972222226,-0.1150701059777569,-0.06813660575053922,-0.03612521168024015,-0.11098302130675418,0.16166145475679877,-0.1875967132130818,-0.02461510015180553,-0.06746091000960913,-0.10004622637900286,0.1810663522050911,0.03440173467248765,0.009389181899964849,-0.02373680642370984,-0.021268445278394887,0.02135587935356468,-0.017827109327691118,-0.03657765779949551,0.004938144440339694,-0.10416551528996328,0.02178121831633553,0.028368849705188957,-0.05215936015694897,0.022571426090592595,0.12725437438865198,-0.002920430095145032,0.08229182882937403,-0.08328863564938788,-0.02293801139618674,0.040845846424055525,-0.03293172643928868,-0.14820578544665006,0.17329579513946625,-0.027984900624881792,-0.027604406309287673,0.023614067920039086,0.11746527063848833,-0.06721668805939769,-0.11291303139529173,-0.016593789985571386,-0.004463887160896241,0.026659758494798447,-0.20548513992749715,0.011045605672963376,0.06155020973573868,0.08589246069742272,-0.08039808871779718,0.12921147365634392,0.05316596767957918,0.02339297403811319,0.061277961860266475,0.08224380671215477,-0.031022849697809125,0.016764419048021416,0.070065027464923,0.04389425561491284,-0.024380181851268095,-0.007318226702570705,0.15800776693543822,-0.1268607624610635,0.03998105672755935,0.1988645522727369,0.014191867267610351,0.15683949027739433,0.011630078037488962,0.05916414911548855,-0.07634436341593209,-0.09248292525813158,-0.11808416827159629,0.06319602980059327,-0.07476767874941849,-0.08404565254521683,-0.02662980494217446,-0.002579625057441536,0.0241994999891173,0.03346057690889785,-0.18030840816998442,0.15888532936477126,-0.2106546257420006,-0.12587413145530152,0.02329519160574385,-0.06035524252368475,-0.0842965702690493,0.0074428814253736306,0.125725695079743,0.13080998269300467,-0.15208953532276992,0.0714102009590103,0.029582224999605358,-0.02185264873827756,-0.25227409230661113,0.1031244032757521,0.05292419294023192
vysqj_0000-00000672-00000816,0.04227456691319564,-0.10848983066346365,-0.028790290347610478,-0.028300769503341584,-0.021768708209497042,0.0161625761610751,-0.08664617545120355,-0.07246079452826006,0.07357579299449259,0.04074602976121608,-0.028574173430184504,0.07439300050239914,0.003421988210365698,0.010127727784094017,0.016359853669899387,-0.027360211678553324,-0.024267932865412758,0.03945640009784406,-0.1469342124968303,0.009865294185561466,-0.03975828212590252,-0.005550378603312812,-0.09150910543012789,0.06413743613571407,-0.03375757009173142,0.0907302142258093,-0.1287120561328699,0.22600050033146163,0.10548476221849261,-0.0760216270152727,-0.04904877961742121,-0.0005262279036167975,-0.009526872391823156,0.0009118550459234906,0.004474051389226682,-0.05714189262340087,-0.08949643613718267,-0.09940881135970239,-0.10660991089785056,-0.12886671626372714,0.20332406912079354,-0.08875182523327187,-0.010838127537796071,-0.08234547635184257,-0.028101233230631725,0.10602070424220128,0.025111233098241068,-0.024983996336762217,-0.007528901675124909,0.011537385400195879,-0.0039140186108390105,0.029395522651097766,-0.01652993738895115,-0.037801862301060064,-0.03343596224913778,0.04356794211446892,-0.02246222047948458,-0.051109380567771964,0.049765843722618525,0.12640370140212487,0.0826297289013779,0.03591147144864694,-0.1313803843980891,-0.027159040283331028,0.054971867795835704,-0.09458600828988074,-0.1554676424199411,0.18314457192833025,-0.07569330457301245,0.0026180017395406965,0.03143179872704526,0.19228996736673273,-0.02113510591556891,-0.13551470519315076,-0.005770386449061993,0.007433665027798466,0.026839951347873838,-0.1869564907429884,-0.005659434083029872,0.0671359688210859,0.003916440771475737,-0.09966457801430163,0.12346777255744745,-0.06346499275357366,0.043143858555270344,0.06324132369786475,0.04683898349823591,-0.04435668548143118,0.03137509947639405,0.057904797251621586,0.1757672948074904,0.030360426220032075,-0.01771986647287002,0.1289715643553448,-0.1147388397326771,0.03317769664340755,0.2027826837839145,0.09647573267048451,0.17536543946051067,0.10303092004260861,-0.01177652555174542,-0.011263883007973133,-0.11970248184107357,-0.11634174607727114,0.04409350836309989,-0.1410834180950481,-0.09399935734092438,-0.035526058856630294,0.13182783670967446,0.041656379346130604,0.019869311047004817,-0.17161273461514356,0.10208048824482392,-0.19748707325765666,-0.20929072216637043,-0.043881259931067236,0.0024225779603545636,-0.13895186602609752,0.060563350365117466,-0.01955052618399815,0.09874451649661443,-0.10034860211105218,-0.009409285898102674,0.04636595149863751,0.04598832532123865,-0.15384938672781764,-0.016937280583750207,0.061744149503689214
vysqj_0000-00000696-00000840,0.0929945466745444,-0.1251787717459655,-0.046476306846465046,-0.014000950056143416,0.02885748546061198,0.033337338795591025,-0.14477025778682057,-0.1393834672934118,0.062410323051937125,0.04395887604483229,0.00202115434074377,0.09637324011646857,-0.05642044987038229,0.05068610610125029,0.01175137049899892,-0.0149130412774237,0.053969495362796334,0.05383608822969858,-0.09446431579121156,0.005861810400497694,-0.03109066533404594,0.04216526723567828,-0.10369291012403277,0.0203333051125858,-0.0115194388193862,0.12346573658905151,-0.13098077693047983,0.11877899705772754,0.07129278829715138,-0.15253985998374162,-0.05177308010344762,-0.04901888495862075,-0.014865268659880063,-0.03999940392800637,-0.0998958210714279,0.0059547113155290566,-0.09235329359272289,-0.16638097167573865,-0.10341949565374103,-0.08935909210250305,0.14814678869518752,-0.04216194765796596,0.012900780918754809,-0.1140720019796908,-0.0628572008205354,0.06686116868015797,0.09278712098378004,-0.05284033775992289,-0.07209484974820363,0.10265160362374122,-0.030739701420634653,0.08468886771970911,0.03361695593447132,-0.005538647832255322,-0.026723097840969105,-0.015899154934090293,-0.011503451936707819,-0.025045741806262335,0.010198549923602813,0.09818582491586939,0.08667464034690217,0.051699568870061774,-0.10069820047665298,0.0015939805764009982,0.015091545190660857,-0.07731932963128402,-0.10821094409903474,0.14673281548848366,-0.09046423653271654,-0.04274621800082241,-0.024981817129866107,0.23242273175280787,-0.08116594307935814,-0.13543791933445054,-0.0027626160609426544,0.03557021365480666,0.05231238043232721,-0.14113547649374492,0.0033386132153703373,0.13571293676332574,-0.0056860883472805565,-0.08305998468306378,0.057238371449073316,-0.11094987222193652,0.022280965955538516,0.06035864796510866,0.02825160492760119,-0.08405203803907454,0.0874134786771616,0.08688464639471837,0.22254595732029872,0.02644155813482442,0.007288034950682365,0.129929584813218,-0.1041648842154771,0.13894209228649906,0.19432757004995968,0.030294408271322567,0.10405685143774365,0.14873634529919508,-0.07788953936776806,0.024603064171123293,-0.05673535815972701,-0.0021682014607659673,0.0379388165192424,-0.09446140131966772,-0.11829604422438704,-0.03179256798067048,0.1790529037286486,0.07085570096166764,-0.09084599822498712,-0.09894160463006868,0.03460107339071907,-0.16575137220049335,-0.12889639861141092,-0.0864114910832402,0.10765272907783344,-0.07489115016978874,0.10075553971816753,-0.006987960440847079,0.16226560863555256,-0.09579553624568332,-0.1045478988209753,0.06473011183925426,-0.041861749602874906,0.0010530290576927011,-0.08146689492762112,-0.03378127759317929
vysqj_0000-00000720-00000864,0.07730356106893192,-0.13723619865775857,0.009056955920304893,-0.022127808414125743,0.07021943038198153,0.04035062114028331,-0.13714943505011948,-0.13725427374971574,0.04500980485330205,0.019294922170157377,-0.0249207558479525,0.07679451083008872,-0.03289135938827871,0.1018087038527218,-0.022652947568694137,-0.05466116928051268,0.047949699941992316,0.055302907671754935,-0.04426663952448111,0.03643210365814605,-0.10521970913394801,0.0674253653575237,-0.13340810742966697,-0.044169173845113915,0.05278491279801384,0.0713563549924264,-0.1704509812560617,0.13834307039820604,0.07086535411517912,-0.07623479750420245,-0.00236155679347477,-0.1027975849983438,0.016608546950844648,0.0008885491322681893,-0.004512733347162363,0.021298138057381545,-0.09321521529259058,-0.16199020741670994,-0.08210274245453421,-0.05676822296615411,0.14758875166345545,-0.06684138395056657,0.029881992953018226,-0.08051250323832362,-0.004400547290806808,0.06931752035894337,0.10166111850908514,-0.04307300281419375,-0.08471244325267394,0.10866637586054008,-0.0441346984687063,0.07251840588805512,0.059603925618503736,0.01927188381654524,-0.05424875204002848,-0.030908009304892632,-0.02639242340528852,-0.07366723055509292,0.013531301310877488,0.11509263911912668,0.10223728861119692,-0.04949497512539671,-0.15684478010596614,-0.02308852920742938,-0.05513032824576506,-0.008322986705458687,-0.13536499918918365,0.1165146331091434,-0.11233522254053957,-0.017741965389826166,0.007401846982623431,0.19484392249218477,-0.042487814204760055,-0.13556687825964256,-0.03465002543361264,0.03198463424077803,0.041102858951787884,-0.1921049502381753,0.030593579185974214,0.14578811073916384,0.011169614059299064,-0.0790056566233085,0.05397464155885041,-0.09252722694073684,0.038697050680705544,0.09070243551221609,0.041233545809279126,-0.11904731052289227,0.011092186702553202,0.027082679856099353,0.1787071344789623,0.032503043426766194,-0.019247371632550307,0.13761299605658744,-0.16331550288041047,0.15236288137840978,0.14026173795006652,0.003342129199323352,0.16276743869796956,0.12871366187126698,-0.07849865767271294,0.04922733184356445,-0.05356405541444362,0.049660566501593936,0.05952019368718509,-0.0540186917895262,-0.1494844088196606,0.014975823678469398,0.19895546695295233,0.11108171962477591,-0.14030599516638234,-0.08413315256475158,-0.013130275097320749,-0.12186613605501254,-0.0672534679479972,-0.09356899598745548,0.094599624641795,-0.11539601889979853,0.08713649797488768,-0.05647612233831857,0.0628463616907545,-0.10338760899428082,-0.09309976370837615,0.03477183789826521,-0.027374578132667547,-0.04095318633364309,-0.09100584252834443,0.024157026753964708
vysqj_0000-00000744-00000888,0.08839219239158004,-0.1471582646290855,-0.026186214195381127,-0.05939272482206546,0.0037987079504717518,0.056916838117056966,-0.12687210919442263,-0.12793393823792656,0.07727614665930418,0.00574527599285485,-0.04730953685344974,0.006993812162023815,-0.011209306968369479,0.06750753735140447,0.01822815076899893,-0.02349184850736873,0.04775464962110782,0.1056974360575711,-0.023727466314555596,0.039594719437038337,-0.03776375537954616,0.03845380421518195,-0.12458753716748998,0.01669517076416137,0.041341179422037,0.0700783432050221,-0.11262262217470975,0.13250560648917303,0.074012420435451,-0.114429217637546,-0.036036063369925715,-0.009699848941284953,-0.020463793313450395,0.01069672324359234,-0.04103367788390445,-0.01788769167687672,-0.02564404078212768,-0.16582164565258142,-0.1167892697201356,-0.11398402083646186,0.11314891639474621,-0.030294640801453495,0.02468031726825342,-0.09744533754037672,-0.04293869085426575,0.046396994941641546,0.08069488482248077,-0.0734134306594166,-0.039401288781274406,0.08280073155520498,0.0058207638765768125,0.06667523726681057,0.10390853075193106,-0.03302076456154013,-0.0424615784682272,-0.037090180635607935,0.06422376435447023,-0.08454536577024596,0.03975217702318835,0.13082462825520216,0.08828520419297636,0.018838101486437782,-0.09273002444167423,-0.036722403369715634,-0.03750940409999423,-0.06367739569245565,-0.0724868516417992,0.12031003568272786,-0.063058475437412,0.03576991720199308,0.07325897890010356,0.17332668526429174,-0.03489113999615252,-0.18262096877429856,0.03126869708192931,0.046733093127700014,0.05914484612380371,-0.2739574111306821,0.05890752541022487,0.169879182560849,0.04382364648089875,-0.07614404440238808,0.08424288102107372,-0.06239065780075347,0.08256460410229279,0.12353814808342602,0.10877366846079216,-0.17503259585447167,0.0512516898752605,0.005127059226271315,0.16097682570689328,0.0031643270786726667,-0.0318649714200127,0.046550229671306426,-0.13180126132844394,0.13873418141020305,0.18640402220629615,-0.03458770596785294,0.16105867934956353,0.10492654034084803,-0.07916735201771415,0.009704015140450403,-0.041132460941710663,0.0485109320671673,0.03961532922899633,-0.047014889234282875,-0.1300525720239322,-0.012288050469234623,0.1651910445514363,0.08694369492250667,-0.16145243528584827,-0.18739257507537832,0.017774014298497693,-0.03096685862402172,-0.037091796002734746,-0.04182724301504169,0.08455081895267368,-0.10821831315585467,0.09372859905404002,-0.01728552867056387,0.08789439362949257,-0.0751733875108197,-0.11637203641395485,-0.0844766533941225,-0.014174854603734481,-0.04884024773424063,-0.12322570128197703,0.04605712300536063
vysqj_0000-00000768-00000912,0.06841345454968002,-0.11120351435959541,-0.02610636419053439,-0.037275612795695766,0.00738460667749799,0.04743421467662124,-0.12361566641403961,-0.1267436745737587,0.0974185094647427,0.008340778082934356,-0.04633683940776256,0.016597596634672692,0.010672507468234721,0.039085062565974334,0.039832459026484,-0.045089014378185605,0.01060143386267194,0.12501364911543092,-0.02725607616600946,0.042162270153734714,-0.048890182745711865,0.04904244231744755,-0.1267326389407731,0.005556195460477692,-0.0021735336953212165,0.06876992407952587,-0.08468102711984607,0.11821334034825325,0.07927481637699228,-0.13456518203440102,-0.040030418198324105,-0.01735304004941768,-0.007544593291018692,0.03613995392560666,-0.04365856065414488,-0.015077580959108215,-0.049736262040150074,-0.16043331612586262,-0.1206925722704059,-0.09753935306058693,0.12696032071723962,0.004614518693090768,0.032839978988928674,-0.09656735481409076,-0.0528094790574893,0.03671743328973313,0.07404082086429399,-0.09771080768432104,-0.04790598779133545,0.07461546562461156,0.007129811948971048,0.08982007954888209,0.11177326364668587,-0.035342768452158835,-0.0034894531156426955,-0.03231308218485424,0.09847104409734662,-0.10492968524838112,0.032458648711539514,0.09423895587890259,0.09167652963741593,0.021921191977759043,-0.0831504408228693,0.00045759923725768783,-0.02086010230882533,-0.08455938772032309,-0.08664826554412614,0.12352512349857456,-0.07128201749454273,0.015193525858426328,0.1015307382744871,0.17271207730554647,-0.04989779174000836,-0.16749526601277973,-0.021843118593290606,0.020495463426007433,0.032765870280830195,-0.2720177238769484,0.05656378857114577,0.21541648020561283,0.0312658711315538,-0.08163920931898255,0.10311842285201424,-0.057748989405070505,0.06730434859318465,0.0733981306837983,0.1416541806479493,-0.16320393320813184,0.07334451496355594,-0.038166204577060735,0.19469768602343487,0.009399606195631113,-0.002375987468827527,0.06372690951783576,-0.14364435508771997,0.1306753299011832,0.18949250367505677,-0.0730897279733372,0.16013095970081462,0.06863213363445515,-0.0693696449404032,-0.01257555123792892,-0.03722449223553026,0.006491452779808894,0.024762940542472644,-0.05177213136493005,-0.15235321301637927,0.011148743176567631,0.17207566451635462,0.0526971470710829,-0.0859527265002931,-0.19272975868319064,0.050080412651061695,-0.014422365778466839,-0.01711637992945408,-0.09741454474073534,0.09677608673395734,-0.10120879266851059,0.08757343503502478,0.011492211528381951,0.07274230527156726,-0.09659116784186682,-0.10062435871408495,-0.08191059598461052,-0.035155578434457616,-0.037293790829772216,-0.0796047975907686,0.03627805476881575
vysqj_0000-00000792-00000936,0.06704133566727558,-0.0939527870683452,-0.01723494861479788,-0.0391554579594895,-0.007528989975184256,0.029094499907681554,-0.10951541616210854,-0.10134865265927126,0.08197300716039928,-0.00833424191031635,-0.0544049882834461,0.08334218316821757,0.062392333045624505,0.04208180915969356,0.04388363308464258,-0.04052761364786442,-0.02336892252799085,0.1230831033982298,-0.06844975085284435,0.054704754148182905,-0.06237901035421746,0.05119067422967524,-0.11123846248973498,-0.022070520824598143,-0.006929289970292893,0.05347143611189437,-0.10844658261103979,0.07325397543020025,0.05277955288539778,-0.11779220875450441,-0.016689088621590503,-0.022358195646698508,0.0186281290574299,0.09552982567008104,-0.10009254271138149,0.07241610450633641,-0.055785583840626436,-0.17431616915270734,-0.14009764706178618,-0.10975790008952566,0.12237482363184327,0.013608452896841311,0.04339885585151637,-0.06108488305677433,-0.052325186594916785,0.009071228433002447,0.10702029979615456,-0.07182635740927137,-0.055738935779806195,0.05231575986348361,-0.02944085745382827,0.157722286823075,0.13731321148128636,-0.0613888385244241,0.0016905828419222912,0.03000952564390635,0.07787374979291922,-0.08710917612432417,0.03707666292577347,0.055810815879372616,0.11230109925482322,0.019666151371721067,-0.08644494134444812,-0.011252465998275505,0.008897539582158153,-0.09409765932982818,-0.043434739616937626,0.09354031806470821,-0.01429245877072579,0.030702516874650657,0.07591634760700991,0.16004622605955363,-0.07710653740579548,-0.13908227907843435,0.017594511159204403,-0.00958608084966725,-0.0015590079294537003,-0.18785289579610617,0.0854499393893432,0.22405924469998598,0.007892816469071797,-0.014346787336282743,0.04070666168600299,-0.0753222905263592,0.05322200524576058,0.04533001764437473,0.19066329161031578,-0.16290956988675592,0.0859920333820083,-0.09176953176744539,0.1673667560585623,0.03404583054864556,-0.023280897539487592,0.05205262808200841,-0.13796228072417652,0.10936769799783382,0.1817086911105267,-0.07328084699383178,0.16106983504408923,0.010764179562531739,0.012870637741109818,-0.015780942823905922,-0.1037850581766735,0.04151534353621223,0.0028346147899602587,-0.00031909799514867604,-0.16063801754573298,0.12566880785324122,0.2053469121296513,0.015753553798125878,-0.1730028157332882,-0.17751487440953936,0.046335776814014094,0.10686334069295941,0.011223740021190557,-0.09613644928217228,0.10934474420583053,-0.030139794482537525,0.09194196448430221,-0.006558865908072506,0.07778899646149846,-0.11109134259170442,-0.06315809260261575,-0.027580392921722017,-0.06428295070017642,-0.020282900161824633,-0.1046565351506656,0.02485283078071782
vysqj_0000-00000816-00000960,0.07740579471731171,-0.10360306339250265,-0.026082511967707566,-0.06673751349851263,-0.029737761122761518,0.015532870099941554,-0.09140461060763126,-0.11915672155777376,0.06754386568651248,0.007703509243484881,-0.06325708305481692,0.09773484241599628,0.06878758054387173,0.037508850419513344,0.028771883330260047,-0.020916684682758955,-0.008978857132372656,0.09821797746738026,-0.0730879713375705,0.07542740998013539,-0.05153837244339352,0.0017909092610310375,-0.057993199011734296,-0.0005711777745358002,-0.043679188034740066,0.01854198803334521,-0.08088596593579953,0.08575050046271376,0.039614949834932425,-0.08061293707906131,0.00047987878542122696,-0.0422913237403104,0.02763279425772447,0.16026892795619446,0.0018852137147448065,0.04450928918223355,-0.065819950279024,-0.11446038483861681,-0.09738079557127761,-0.14665163877463858,0.12458154214214083,0.030788403000452498,0.08274934924581702,0.01942751993341778,-0.10535119928061384,0.06630294835767803,0.07155501568536282,-0.08463177624823474,-0.04681104517583384,0.029425877595133324,-0.0036855915162153025,0.11170058768124058,0.12064092479608976,-0.04322076221744626,-0.02874971726508837,0.037357599099838025,0.019976297885071517,-0.11826396217569071,-0.009329761918113797,0.03703033701489635,0.06998837504622064,-0.01848488881527788,-0.06558243110856601,0.014491863741692503,0.06425784103848803,-0.11907963744680979,-0.06372042026452504,0.07792831583875609,-0.010856208592227625,0.04245901536949265,0.15662360595230249,0.19522473712320226,-0.052798304989991274,-0.11806748133141373,0.019960727103192296,-0.05884793207874128,-0.014963398715121128,-0.15174465510606813,0.08516263672092414,0.19262475191095996,0.03529851442600471,0.01946599667065594,0.017490059457129087,-0.06428365555438059,0.04090452892663496,0.11913271333199639,0.18307528002679266,-0.21182653040150037,0.05927579317993835,-0.06418514903651323,0.12952435763320574,-0.05114448014376368,-0.007077085755756897,-0.007686033050987862,-0.09537597314738441,0.09969221150511726,0.16548778258966726,-0.09044178118028331,0.17007624996505444,0.03245263198480027,0.1002773782454325,-0.020904833838087337,-0.10908075317553494,0.044453070975931035,-0.026227617763042374,0.03692691294057293,-0.1633790480524367,0.2157780996960296,0.19613265625182466,-0.013466172782593964,-0.18864915513882635,-0.16267403319044865,0.09776457849349811,0.13730363808702897,0.005531826829421811,-0.049419211035169906,0.07734268349345533,-0.04235951720142445,0.10258237871054102,0.018457258786703797,0.10380073075234685,-0.12371464044425873,-0.011199175284664749,-0.0588794649472296,-0.00622924990211225,-0.0931181026670191,-0.07942219674872393,-0.012759714057156282
vysqj_0000-00000840-00000984,0.05594742164365942,-0.10770082987976713,-0.06244605450514371,-0.08190302962835098,-0.04381432961359038,-0.01650729437465288,-0.03969963161067229,-0.0443797345449305,0.057384724646159506,0.035324144307295274,-0.06431313182377778,0.12795455428350172,0.13306214599205995,0.009907224728146972,0.019592791459476316,-0.029342130263695556,-0.12295371326732736,0.0767657392394008,-0.1126914252754659,0.07038442971320263,-0.06226354397870141,-0.06400557555058847,-0.011644510216624729,0.04075136948288648,-0.042892927098738015,0.006424885952272656,-0.08279647820566796,0.12912130565232804,0.08123678198492323,-0.014349940347326319,-0.013637963082278121,-0.03570573160661952,0.00443124605005453,0.1617603888306387,0.038206478258819315,0.03353181338905358,-0.04907465895438096,-0.053351107769661274,-0.09245313307516353,-0.11149929853551853,0.10659036308818662,0.041574415740272735,0.07895882255362613,0.033430573908332616,-0.11717268549894841,0.07361254647317281,0.02916772469753845,-0.03297073727812607,-0.022692387460502964,-0.038441327477015834,3.472626908828051e-05,0.11421263841091081,0.13782473236315862,0.00390409830414956,-0.08924153406597887,-0.026429306792560583,0.040780889300479205,-0.11236357309806728,0.02056913790352452,0.018685711275940754,0.0552311000142415,-0.04671863645806774,-0.044302193039749194,0.04337755551032605,0.08876786053252435,-0.12017022929682136,0.04119651247201588,0.0283110388133934,0.07924217517082889,0.0965978052944793,0.2022213373764925,0.1360589533467591,0.01787154232042317,-0.05227803559580337,0.05131396914440795,-0.0728255095068265,-0.0777952174466125,-0.17164876121193634,0.00017174736801538068,0.1354527670450061,0.044635558873765094,0.013376068673178709,-0.017399259781063346,-0.07171604817366602,-0.012286933027815038,0.08723458287687649,0.2297561882606333,-0.19363480178280879,0.011942049027071149,-0.11116952851004294,0.023720676417183586,0.03792072467789425,-0.09713850249714572,-0.05178944168961919,-0.10589715499529699,0.0918229548860392,0.20756518564148294,-0.1393393085687651,0.11000533044956136,-0.04513840335125243,0.14451224174652624,-0.08056109210642347,-0.08766020795203362,-0.04472970116114056,0.004068691011817688,0.06071583917932527,-0.06669121397015852,0.26257541786848254,0.17234433615662956,-0.09774949056179363,-0.09226463057692381,-0.1348912472513657,0.10575288732711724,0.14130348226874226,-0.028005484665999416,-0.03812100265740896,0.06916695312150126,-0.05376598001477128,0.09635320460681582,-0.00886270394610185,0.035648172578538355,-0.13859479210910666,-0.029780612137214897,-0.005881204207968098,0.01356285133763531,-0.18192654536359032,0.013195730440052848,-0.026147283410060694
vysqj_0000-00000864-00001008,0.05766113222128064,-0.10537233993643703,-0.0319248790543887,-0.06316627108074796,-0.03018937819551418,0.0391460134162966,-0.06096646085376023,-0.13861854767451307,0.05143048756373332,0.04128119380491575,-0.08969336995780827,0.17122925244988924,0.12163707224409379,0.03406665286254546,0.03336052596794058,-0.02547244114030528,-0.07836453358242063,0.07386708787255365,-0.096388903575794,0.05820778832809509,-0.0635130150868451,-0.04710799572560114,-0.006913975081395506,0.0440839751407392,-0.014119897332389851,-0.0012125014896620125,-0.10286904337270746,0.1288064126898767,0.07063874031731734,-0.05828947144079071,-0.023047429374622983,-0.029477572752541054,0.033376892114769116,0.08364199574350419,0.05197597697936289,0.030686405211376555,-0.06643536364927642,-0.09942072515043425,-0.08839266075350155,-0.08425953215760104,0.0947517840937978,0.043427682233447853,0.0008831961275679824,0.05056181953500303,-0.1377294325733399,0.10969213303844604,0.05630579601191732,-0.0683288968963956,-0.02073476469051863,0.00933331652663987,-0.02570201049308681,0.07875169183721037,0.13390923782717742,-0.02660021626442315,-0.08756156251710395,-0.03469816239051895,0.012838583176321952,-0.11988378060374554,0.012609006048600322,0.001015704083127216,0.02583122976074522,-0.06912229401621667,-0.07280742340839713,0.1179164776858976,0.14279869437048887,-0.16343980970886687,0.050515702204756256,-0.05071620351650002,0.0555897661027665,0.041231743709578446,0.1344829879522946,0.17711660790507014,0.07212559919975114,-0.03545836044071154,0.0720938357688866,-0.03162494471181301,-0.011120676432116642,-0.20277507468519773,-0.003941639360156387,0.14777810973434663,0.0988869012447139,0.04437049998915096,-0.04284063272068684,-0.049733621822527684,0.006078598139025166,0.056239074415945056,0.22188820148845767,-0.1900351555167013,0.04091679014659754,-0.047337461133517084,0.019375855289749503,-0.04566205821022346,-0.09137320644956232,-0.009296903258422137,-0.0986930437496137,0.0800007593288035,0.19543241708308356,-0.11279964031081931,0.08658931080569625,-0.0049124547080726345,0.10647737019934052,-0.06509890271171423,-0.0693393805011587,-0.027144170358411702,0.008160151291987515,0.02643016146973674,-0.09611950191134702,0.23336189195951196,0.17483516293180862,-0.02325549950481908,-0.15415995570422503,-0.12804973850971105,0.1247124636872944,0.1267432592601056,-0.03612471717029433,-0.0004602076267243197,0.11406701473141619,-0.04971318779015926,0.10939000778932483,0.03348836230198729,0.13095490608842944,-0.16498774789712226,0.010032853108916231,0.008050511349801039,-0.03342435045168673,-0.1307769817501412,0.007674240553425015,-0.03506854137117434
