,0,1,2,3,4,5,6,7,8,9,10,11,12,13,14,15,16,17,18,19,20,21,22,23,24,25,26,27,28,29,30,31,32,33,34,35,36,37,38,39,40,41,42,43,44,45,46,47,48,49,50,51,52,53,54,55,56,57,58,59,60,61,62,63,64,65,66,67,68,69,70,71,72,73,74,75,76,77,78,79,80,81,82,83,84,85,86,87,88,89,90,91,92,93,94,95,96,97,98,99,100,101,102,103,104,105,106,107,108,109,110,111,112,113,114,115,116,117,118,119,120,121,122,123,124,125,126,127
zyffh_0000-00000000-00000144,0.02327820657888831,0.018727584175925367,0.03397534267700342,-0.06072484920026003,-0.0405173979578661,0.0162008698017867,0.030718209080839963,0.10878438465703455,0.010547669225984617,-0.0703246930287488,0.07505666636584458,0.180305153242012,-0.09338348480467146,0.0136230356852647,0.06313587857920902,0.03392609830484594,-0.08290029944658521,-0.009793699428145711,-0.03833856583474462,-0.003790128217705116,-0.06263195697821763,0.004611582689144894,-0.010099577140215603,-0.038161774080064444,0.028536169654463834,0.04636915033905758,0.04070904746883667,0.10985906380435786,-0.10832701366714285,-0.17100816923951065,0.0015451621378889202,-0.017285705273797556,0.16268397007046548,-0.09612026478114906,0.02859988167873412,0.0845610424783858,0.05734167210899826,-0.07896162307931578,-0.024266246472125195,0.14458321889898207,0.026651210116974654,-0.11119030607497743,0.10848839159659948,0.12834402111269747,-0.024739413924657696,-0.11217017895734176,-0.00218917162607023,0.0650010653676112,-0.05559341410976753,0.0713550766553383,-0.005310279491727099,-0.05129673526566079,-0.04100037971602392,0.09167606503729189,0.04576528851327141,0.10892871550129975,0.1246967436978394,-0.019695592488032754,0.04491435094483479,0.12658841739497978,-0.0924872163338561,-0.030599331972442197,-0.03287913993173213,-0.02379777118799101,0.12164249594340477,-0.1520504419190532,-0.05426138676890276,0.04523065554374688,-0.0608714089051229,-0.008022471750380742,-0.10695597922806695,-0.04824348325842688,-0.07802272067928895,0.11189312235131597,0.140594587359751,-0.07560952025466941,0.056657712011176496,-0.1130296266980456,0.12725291130518798,0.10404479776658887,0.07596761235148886,0.02479459950525375,0.008797440656799316,0.19599492307082353,-0.049289802379978466,0.16516835118702333,0.10894930760468347,-0.12630951980044067,0.13768461767658638,0.003136537241371521,-0.25194810592346945,-0.07464962554477694,0.018396080406835234,-0.008883060575847807,-0.18803821873609533,-0.07377050495699794,-0.07608956071021787,-0.12068737949192909,-0.0419630842074766,0.042498753370083735,-0.027900764432596887,-0.04563376711903819,-0.09596758569171544,-0.018880721408887458,-0.060828910016992914,-0.020268685825934916,0.023100733557389723,-0.04172288282299716,0.009578775394084667,0.06577204048809697,-0.011806025293964535,0.05263744258570418,0.11944305259452331,0.01762138837346677,-0.2091856951009127,-0.11550236159211867,-0.027731455064005796,-0.08311799367147799,-0.11746145990830799,-0.021233328318895975,0.19543559306409822,-0.09603907979479141,-0.0831351369523186,-0.15664947594379777,0.025434227038168198,-0.029683257058754877,0.1631302902566622,0.08439881216666585
zyffh_0000-00000024-00000168,0.03736473815370851,0.017052618366890985,0.05326588934538861,-0.05373422168486323,-0.022914135865961506,0.006342125849865117,0.04554633556114264,0.1170644513472159,0.05190074653342695,-0.04323910301485851,0.049698316131662645,0.19158993866951415,-0.10242007939641849,0.022641177998645054,0.02462452395509783,0.04109839097237821,-0.08220917227135469,0.0023065693446518544,-0.02101433545567546,0.012223596805846788,-0.04509162435245297,-0.042538979293548544,-0.00101179993318703,0.0005973119473097256,0.06194970685073812,0.06921771505720957,-0.011253900833941864,0.10334169945812845,-0.1197034727613104,-0.14237435023157788,0.04211782646237458,-0.07033566633477661,0.11408158574719106,-0.06466462451306938,0.021001869097672054,0.09322000961464844,0.04718130173909013,-0.019603658235714597,0.021571895073821554,0.15486186042938432,0.056011560152917694,-0.12269998116090765,0.12055490495783745,0.16078429647585027,-0.058960147076235564,-0.09388120019672683,-0.017246209807457214,0.08327397002218805,-0.08757657577710101,0.10390392254141448,0.0015300623778770738,-0.06428763418965522,-0.00446354830516098,0.04923441855895149,0.03381699530008577,0.07776943897455504,0.11380110273663496,-0.04607473143313517,0.006977585829492057,0.1366365330374126,-0.0982624970476201,-0.014942130659000383,-0.025787704091481164,0.00939254185093468,0.11965239229631458,-0.13265150291734926,0.02673851897175678,-0.009215456819031454,-0.05406820662212554,0.02201998155638368,-0.1285469367196261,-0.04839714930032333,-0.08424695915067971,0.12926056335821223,0.14816681502581233,-0.03421670335707716,0.06611412256188068,-0.13637313053083527,0.12388354646912968,0.134293914877018,0.012720751110410867,0.020939381822826484,0.03484947894026875,0.21763145493082023,-0.020756002957672725,0.13014818278280124,0.11458361608530965,-0.11759758491999042,0.07132606447514628,0.07377806998574676,-0.25534145588216145,-0.06375924909896175,0.030889306249050147,0.008272796194460641,-0.1714675368187851,-0.04824733732770487,-0.04925019657243866,-0.11386761090008388,0.01645600140653934,0.043841209092936595,-0.01980069809412914,-0.09580229089676373,-0.06850420656295353,-0.05114447354113888,-0.1043462142041643,-0.05851617105592672,0.052170488954219184,-0.06912803663642808,-0.014550312717611459,0.07033699840144547,0.01539591833379528,0.07432928684654953,0.11591921824358271,0.00010401174335526474,-0.22807897664125004,-0.11985673481955667,-0.05358545531735063,-0.004847330117086383,-0.07326712702029796,-0.06318208478901108,0.21723122217455568,-0.06892407660851363,-0.048796109153334655,-0.16043181277805982,0.035180862020406545,-0.08249943863957085,0.11673798140380359,0.11739073136164668
zyffh_0000-00000048-00000192,0.0350887117545644,0.04953712092442225,0.03920860121794393,-0.03314592416433281,-0.0674389065435135,0.021732991800532342,0.05183668851905042,0.1441435131033671,0.036468063967036404,-0.04857085014365741,-0.007496468745083315,0.21037570078034942,-0.1034053173632741,0.04401385730509716,0.053571272717846265,0.03137161250548,-0.07898513791548982,-0.0015448958450346667,0.0025061572801852836,-0.03668297495675024,-0.022658274411243438,-0.05494158437478504,0.006610188845207297,-0.00976258068758649,0.01690052510033322,0.03630820768685363,-0.010512071516476349,0.12696532496207646,-0.12681983987136408,-0.15623520556142792,0.1025248407398676,-0.05730781778029287,0.17926919892448137,-0.08793169499083388,0.02630950350475762,0.12259399400426269,0.09205679666583565,-0.012184890686843579,0.025012235116968352,0.13190923611963076,0.06934570636420859,-0.13324972353116007,0.18453552874697812,0.16885083613430601,-0.008439860992206795,-0.10044651662235388,-0.05607263473540697,0.07531647122130272,-0.009608294879684749,0.1291647702060111,0.027501383080533084,-0.06291715283538393,0.0035675006149373367,-0.0005164024834640394,-0.02201180729047238,0.08542512435640061,0.10225348899412758,0.03446014945854345,-0.0057000921339889115,0.15939725443247674,-0.10095363371869967,-0.0055501415803438465,-0.03059865868946694,-0.0009922492793248178,0.13508982712036766,-0.10506967247645,0.01136882750238243,-0.01598502105270795,-0.05256935076247305,0.030318173789157105,-0.12481616089905209,-0.048563295732856546,-0.034068454266283854,0.09596311182387893,0.14896765211817548,-0.07884036768319243,0.047931520306820304,-0.09279258405490526,0.1041879473862418,0.08750898581929197,0.01469316208496158,0.09781461558113448,0.027992693597323086,0.20575570722903733,-0.0011191954420770817,0.13177281979340785,0.09716142890604779,-0.15870344574705886,0.0603946013374013,0.022567633318577297,-0.22821252877489834,-0.06752853277718206,0.03651792862862151,-0.010522041577517315,-0.1523095530719744,0.01315899412992939,-0.002082826903005498,-0.07792130852163184,0.055697122738224435,0.07123949023937656,-0.006899282571097951,-0.09970218189495451,0.0181548792006814,-0.0364712021107224,-0.060971138978187484,-0.028766115621869818,0.029993015478723725,-0.08529166734125983,0.0078693384161946,0.06079286997661155,0.05742101857294399,0.03056062487397998,0.08670314307792984,-0.02433059383366434,-0.21437501144773652,-0.16013091171227267,-0.029909503973327155,0.017705767550633234,-0.023524293705680103,-0.08413105260602895,0.2811281259321406,-0.0471351673437698,-0.05969606169567896,-0.09091210240588532,0.06648856459056109,-0.02262774248118482,0.09356942453250479,0.038965704865697996
zyffh_0000-00000072-00000216,0.04424882420601443,0.01750775716721233,0.0456808544407896,-0.03975304927138787,-0.06710833828772791,0.022885968490394898,0.04114939756322554,0.1500159069329904,0.10427299582467599,-0.016911760801528238,0.014982036465612525,0.20903993506173357,-0.12801783763921074,0.017819559145935974,0.023393326942479285,0.0006823008662075826,-0.06861098609634853,-0.029831470645987436,0.03758334255376468,-0.04199465358386956,-0.040408256952940425,-0.0874737324554215,0.04797094361288351,-0.004964851578436821,-0.02771158243443916,0.08487839267736629,-0.06487896046828454,0.1249609716265581,-0.10094840935254452,-0.1523798768613362,0.060346236696089434,-0.017816705760577728,0.16424965636440503,-0.052156251109045065,-0.027190450077602537,0.12314629062862542,0.058540048922025176,0.021527421825982714,-0.0027391155088069804,0.14193168871196166,0.01518994637501982,-0.15384667480165065,0.189855636412846,0.21052273408416478,0.010140064920746063,-0.07429875543176885,0.05890644152509315,0.09506603494535812,-0.03074249080047516,0.1549255157997974,0.040911526912816014,-0.06180539634649466,0.01322020354789944,0.012805474066593804,-0.034745143381981966,-0.024309385562933324,0.060124519221457985,0.013798914063568994,-0.02421895725413052,0.14410184782183272,-0.0753790517620187,0.04020994038533082,-0.06360058937938337,-0.010797674061116164,0.1352233743989187,-0.10035615888250954,0.03394609555622659,-0.06905198353161868,0.04979726069530867,-0.019239561064210976,-0.1315908452661356,-0.07028591354556118,0.00981535824751902,0.07438360603340896,0.1847566113439431,-0.00568371880307825,0.039573764570120976,-0.052782125402333534,0.1027125677506681,0.07655659589964436,0.02569020808314735,0.11073725838847011,0.045332269413840096,0.17359000959648815,0.004068007267953995,0.08635449449583403,0.09446052263419068,-0.16937506593440882,0.053705212717587415,-0.034506293125250005,-0.1838508832998379,-0.11509870385766616,-0.050763572410077014,0.018317804081084674,-0.10698690357230467,0.014087846520591979,0.08093641471014867,-0.008810311086186223,0.07288644240024547,0.03882640341247128,0.026263178681414236,-0.09268439385329565,-0.043949319085682954,-0.07047235688488218,-0.09844859786223725,0.045137195325771075,0.074908794806683,-0.09742462481378868,-0.01003275471708918,0.05303108073336903,0.07293127929833933,0.1094619276735181,0.08357884217303957,-0.06078792823346002,-0.1697157163915134,-0.15277767657337682,-0.08938745356927162,0.08163041568075494,-0.05081511177659386,-0.06020961217445562,0.2536452733330965,-0.010054872230817195,-0.08349719627128094,-0.1439704904376562,0.09830707692209927,-0.030818231679339426,0.07183264297732912,0.040431325249146555
zyffh_0000-00000096-00000240,0.045840071096779615,0.04163318151762075,0.006809322435767445,-0.009664235538559916,-0.05710874634790825,0.05094883623940555,0.03074204434490873,0.14789707092820034,0.08962219986912827,-0.04239484058060714,-0.009886219481565765,0.21991976581414094,-0.12019818292507888,0.049737980522382784,0.009491498580617878,0.043863793031540435,-0.08193806797199374,-0.054759030549708154,0.04410671810397987,-0.0597145253109689,-0.06679666001563767,-0.04880461151328533,0.03077377509866465,-0.03137455713130388,-0.006816495285203247,0.06207314138629612,0.0159697233574807,0.20560146228431872,-0.07887207101966695,-0.15464748380002505,0.11471555077613613,-0.042668019368363605,0.15133625538439138,-0.02395187352501907,-0.04388494749928089,0.06339039477189902,0.04310356666572397,0.022915052006284176,-0.023741395976726556,0.16461720881100772,0.028386540658649904,-0.18026562685012043,0.1768171094286799,0.16710524972738042,0.020556109613079864,-0.037697038642738843,0.08697422911109927,0.09316858431992212,-0.013440790253261687,0.12589348469624792,0.08678821738464398,-0.062217728539397096,-0.0564595164704298,0.03508564106426765,-0.03748345395302781,-0.04296346833313995,0.04777269627137901,-0.01620028277504773,-0.01234218481949759,0.09192324806905254,-0.1371968179763915,0.028004365498219497,-0.03452715185301431,-0.0169232141004463,0.10115219965976474,-0.13105827032176712,0.05205004996064549,-0.024639988080760004,0.00026772577016972765,-0.016297861441971918,-0.14961874740260503,-0.09025440653901638,0.007444297540237817,0.03898036057121424,0.1602459091644363,-0.044783431898555486,0.009259562930279288,0.010538583815527103,0.09540455379910694,0.06989061785868009,0.010470675696170162,0.16693925505091978,0.026965970420418182,0.16244086231783844,0.009423443635765619,0.13755217587984328,0.027833437300252558,-0.21812931358650275,0.07683170183020266,0.004425294733493683,-0.15999247127921504,-0.10953552058007554,-0.07903528591253484,-0.03028227885966472,-0.07824295906821321,0.07207049735986197,0.04270668039558334,-0.02096263030127413,0.03675248391735272,0.021273877052508813,-0.01994898352149097,-0.09423423308599885,0.007103604234227939,-0.06482514132019865,-0.09807887696731474,0.046003334121846415,0.05827935502115867,-0.14396509212596095,0.055290100743720504,0.06750345036784981,0.06564267122548732,0.045195992170744645,0.08647021368378655,-0.07635379709591511,-0.15853466408329753,-0.13915342439060716,-0.02807674119521862,0.027889784112799784,-0.04267797588031639,-0.07783782385577036,0.2441207043991179,0.0028762892779063175,-0.07149071058197085,-0.1614822993583595,0.08183326974608876,0.01294477302222549,0.08289995779082074,0.09264152816668403
zyffh_0000-00000120-00000264,0.043782444685375295,0.03703983549550266,0.023533642395525904,-0.007060796664720859,-0.03702018526714295,0.11446725627422619,0.001678983768804589,0.16169668600273385,0.1248987538690588,-0.02892860594764717,-0.03483366788081738,0.21336627861523144,-0.11459006238554065,0.03123799489370152,0.039202499659767236,0.001046673865085092,-0.06999061561969065,-0.08227665698667543,0.05015758256101419,-0.05478129891492523,-0.05178593831235771,-0.05805387884714221,0.04827608879679556,0.0239248661218466,0.03417964422060059,0.053957929740780355,0.03257883697720262,0.1702680009045675,-0.04474620100756027,-0.15257692525202216,0.09240132314652402,-0.03382688704332193,0.14381087354999625,-0.023879148029586687,-0.05630271019527542,0.10237922189487358,0.006427611304331779,0.027386493473678546,-0.011699797617921568,0.13700664034264737,0.02255590436465488,-0.1730509232519403,0.160830200930244,0.12808120415529814,0.04120381747520771,-0.06840396372683602,0.12101949694687211,0.09528111233561476,-0.02547615357039078,0.14047305373411673,0.0759396762640126,-0.05243048878514598,-0.022371848702045134,0.02913067849051874,-0.07040773775624494,-0.0898158202680662,0.00899494702847668,-0.04150602525708813,-0.029523889714077732,0.048080081149925874,-0.09986041950589829,0.02556024309654093,-0.007516771127345747,0.048140129807105976,0.08811466093085554,-0.09233625413103468,0.035124798149618795,-0.04378021039155304,-0.062419641382634346,-0.013398496344382244,-0.1722789729689783,-0.07641419662157876,0.03306848998392921,0.03164544149023768,0.1253009787722834,0.03427538492116318,0.05561550682925779,0.02487999776574258,0.0821325435987717,0.06915482095876137,-0.03554880805228916,0.1702608904566583,0.05267887252622961,0.14361657263595703,0.08342453232975015,0.12250033318566274,0.04179250264713084,-0.21819273356661859,0.08935318884672085,0.061437378946102295,-0.0604251517406461,-0.07214987835295486,0.00045775773795400746,-0.029838480331954645,-0.11026889250363195,0.0983079269878078,0.07964027747163488,0.018203673737355878,0.06460530297065106,-0.07158648221764462,-0.062431323773184354,-0.12551541402235486,0.018088206809545967,-0.059049607084461456,-0.17286273728267212,0.07914524942092048,0.04312352201416819,-0.10550652700165948,0.00929583322802952,0.1082649668617668,0.07480244114685981,-0.02848859422297151,0.14749131761719814,-0.007614307640018562,-0.12144214276995538,-0.19475720722659176,-0.020913640659457375,-0.04288205588425931,-0.0402504359110461,-0.0047280598564802215,0.2646275015153441,-0.07888420984809721,-0.04230376351915877,-0.13377390414342794,0.06075338346683234,-0.030983848176559445,0.022308983715172148,0.12210709262628368
zyffh_0000-00000144-00000288,0.019379042852379718,0.03732065219460619,0.05386915087291426,0.037479697229788084,-0.008986672782097235,0.09736437409505477,-0.024813766960425795,0.1511743879729957,0.08662806816347217,-0.02218188295748832,-0.03768698855200769,0.16257473857239144,-0.11816359188839128,-0.009984346475169157,0.06218581371338802,-0.025910159072013567,-0.059947787624358866,-0.07147726621319372,0.024421938655069066,-0.01593167209811703,-0.08982248232617032,-0.008022735870222085,0.12365605291395271,0.007312980062704912,0.04870348082180869,0.08053760019063994,-0.010251941637359586,0.13802390941367254,-0.023992084596180813,-0.13277834326701882,0.01972193107117079,-0.003604675130443077,0.07642057252058644,-0.02141141950891034,-0.0794405091279998,0.03339375878459519,0.013917316885006817,0.0789027494236759,-0.06777133733429475,0.08777246462421445,-0.01803540886750194,-0.21297975120072424,0.11421610617988505,0.10026846566932253,0.08832392962336016,-0.06819713569378633,0.15656371335191596,0.09675510602958336,-0.04532109917359225,0.11883120663899442,0.044412145830181875,-0.09973298488529936,-0.08352800124467129,-0.001580645818773345,-0.001485720645974819,-0.1665453357205787,0.03726903964273563,-0.017074110106670173,-0.07734469493445632,-0.057903443129020904,-0.14404760269920122,0.04045519104365271,-0.004088224567345616,0.03579009058216105,0.13823131712885695,-0.11665807845769369,0.027994255607812348,-0.09827523234085198,-0.09212859625127984,-0.03163891612110506,-0.13684232963549198,-0.022998753656016797,0.03067595143340731,0.05175620283754928,0.07877914337326898,-0.03179814533691609,0.10900725328185368,0.04227815182086345,0.15186193606252948,0.07694583517049204,-0.014784970139175202,0.18447231287885923,0.09418280542352797,0.09304174722747074,0.024906564448565642,0.11697607283348216,0.04539019855114743,-0.14006335592752395,0.09958399313247905,0.04820416751355526,-0.07166905037181194,-0.013821770601077936,0.09046788905475746,-0.04153087455616425,-0.20308805830119436,0.06955170042398777,0.05669215397254917,-0.000391689970378344,0.07448136875861958,-0.07247476807655968,-0.05222056016811371,-0.14325166937916664,0.03150126202552775,0.005306641100979848,-0.17410986546408141,0.08634809622063871,0.09339303196583486,-0.07151144020115668,-0.14060717108506798,0.12587754667105608,0.0752841960103701,-0.05657376914880317,0.07265959412895699,0.0217043782644954,-0.019472895900507384,-0.17979694972283586,-0.004355907513460732,-0.1034906160607021,-0.054847260116292505,0.06704737724440586,0.19867373338170716,-0.10794228996407336,-0.026095779577641684,-0.10143029390463039,0.035098834944799845,-0.09469458821653362,-0.09749117194186292,0.1488791885686004
zyffh_0000-00000168-00000312,0.05162316963626395,0.04413332343015967,0.03475964683034172,0.05606682575982372,-0.06897219066733355,0.07423705092079572,-0.05925202047908129,0.13558915013893677,0.08540957414798961,-0.053477137289126765,-0.016182988220379654,0.14184957809675944,-0.10480513089297092,0.010685521820548152,0.050788714683323265,-0.0325337742170298,-0.018428198192384504,-0.07063883854311413,0.012304489398229493,0.0026148315895165378,-0.11453695211464661,0.02382507075623752,0.1480971867435545,-0.0022790019162382508,0.019673786211015034,0.09804463360865842,-0.02787253162431504,0.15803112356170712,-0.010639009320656657,-0.1562112625007961,0.005315167165467928,0.011775109908382635,0.10604030720878178,-0.02460956724019589,-0.08617667451378387,0.0222043468880519,0.0006211280793091225,0.11909931892483096,-0.07466928156512098,0.07514116331389682,-0.05486631604511938,-0.20247706870307808,0.08442393096735866,0.06990639298093067,0.10741008425380431,-0.043516963640360805,0.11992429161161147,0.0973299152546747,-0.07572197705688705,0.08459840856975871,0.0249559828865779,-0.06740263752792663,-0.05050718418356353,0.004842261594647447,0.018931945728929967,-0.17083412453650287,-0.0068457817003974904,0.019866772416954812,-0.037451703417990395,-0.039582815998899235,-0.18257254461829894,0.07892082935756635,-0.03859699638422835,0.020324930832448972,0.11111850313651096,-0.09019162521733612,-0.03674534750071916,-0.09489904524791942,-0.11774353812125081,-0.010126733007215071,-0.13176680790309717,0.01565791170856157,0.008876935466703192,0.08991118651743513,0.10692150232334058,-0.045359631199328176,0.1443504699596349,0.043512979371448546,0.1244153940096474,0.02369664105702584,0.10497625123035774,0.176640102552654,0.09038555950874902,0.0725775181642309,-0.033397699414451726,0.11610171051601614,0.03710305865798529,-0.1859664368414004,0.12923264167747203,0.03505336104828402,-0.10363312316625235,-0.08843271456046617,0.12998656132065153,-0.04147552885889177,-0.20283019918722883,0.061552909253151857,0.05009211751186925,0.002789428308060862,0.025149151956573763,-0.08334935019578842,-0.0010514923607434332,-0.12797547858797964,-0.007873427117293042,-0.015238847969779843,-0.1424289140234992,0.09043024761710822,0.12335514087081959,-0.028641721900948207,-0.14903531633326952,0.1468254582584653,0.020898134931692257,0.01856168187658946,0.10247753846844082,0.09195764157268918,0.019875926827553833,-0.1813365939916012,-0.011595132508551868,-0.13528180299310294,-0.0640852415451863,0.04072157074210162,0.14191195864206874,-0.09441587267022415,-0.062050776360232734,-0.044659712250414464,0.006664681685427129,-0.026248303221954993,-0.12827798094204518,0.07135979236535497
zyffh_0000-00000192-00000336,0.02765728417388456,0.0173922658990284,0.027086647001232055,0.03206970856493834,-0.047825723576340254,0.07242958139882338,-0.0631492106990744,0.09478796024721825,0.05770202896928018,-0.06496369774668326,0.007704124251288225,0.13690746211911367,-0.10337602252515292,0.025817900872752278,0.04927881839002317,-0.058637149073982854,-0.040486091507123484,-0.05459370874778444,0.005260856874762559,-0.0027251490438241054,-0.11683523648076576,-0.007107638792831713,0.12310761379760808,0.008771696354418263,0.026157285399310285,0.08987777271357872,-0.0067147599753143924,0.1288662244305555,0.010657971503360288,-0.14275191719292002,-0.018849310210987274,0.02390155158201088,0.0705835502483043,-0.02756550868357016,-0.098260306727404,0.0016012600650232574,-0.03021846933663817,0.13157864690253424,-0.0566858081899747,0.09107122455897859,-0.07069181255186034,-0.21170140504771198,0.11395804572017934,0.10054263023094406,0.08135845828862923,-0.07909262749268876,0.12159331081211666,0.14648169564118715,-0.09463665450076346,0.09387901506167885,0.023857549595359805,-0.05989022363491101,0.02029081405961478,0.0028853598237655103,0.06577545461195704,-0.14689786982942793,-0.02056265126436866,0.012331569544021011,-0.08506717806940522,-0.05170807467301357,-0.16900568612047034,0.11441827085933112,0.01153978746247763,0.05423441364553481,0.06697206647366127,-0.07947972997077928,-0.07519935320366233,-0.11652370980152467,-0.12223162998242038,-0.021970472067686667,-0.09915334407244587,0.009883412888566943,0.007933542501085088,0.1057715228871584,0.09884932997168139,-0.02507651315598971,0.15648627474108284,0.051179563848172516,0.08839295807435359,0.03743496040759003,0.13213138522824405,0.154942823568173,0.06870711104677492,0.05595624162567877,-0.032877399419063556,0.10811562917513783,0.06308525571847345,-0.17077743999384662,0.11704733130038948,0.0569780909852942,-0.06296856141604214,-0.07239328736118826,0.07984485721759288,-0.025902463289006326,-0.20918869569434978,0.020851468201271175,0.0677398171803286,0.02464881522878983,-0.007091609424132071,-0.08137743309888677,-0.013181900340647479,-0.1270717526804081,-0.09435099018334998,-0.0707768060664849,-0.16542304827568122,0.11046781177860385,0.1448443340953389,0.01625214089885367,-0.1592681678561687,0.14764158481408826,-0.0003492183219882474,0.04372086891369684,0.11500919608711138,0.05484600569518816,-0.02920852519200747,-0.16391617754432444,-0.04126301060895731,-0.11149452083205111,-0.10110348576311762,0.06405637647497113,0.17033913763929653,-0.03598248873508034,-0.01564025989698634,-0.036004077012322645,-0.019081236199748535,-0.07410291122612396,-0.14180085790037394,0.11765552820922659
zyffh_0000-00000216-00000360,0.03665188897502097,0.049352520518654956,0.02593894514893159,0.009927591746637578,-0.05474077078957875,0.03037655122998168,-0.06413660219744749,0.09312131660838463,0.0855999550645836,-0.05764930608044789,0.001727814245397293,0.12552227992608786,-0.052134972119638676,-0.004312228724599643,0.09321579856610487,-0.026258297598407754,-0.02242157944061325,-0.04329275828123194,0.008805746213616166,-0.013642583089479684,-0.10367410854963341,-0.013917293226668933,0.11272761133218587,0.01792503640988238,0.04540643183365524,0.08092518316313889,-0.021624536959971078,0.13095426157399484,-0.0021274710182034775,-0.1193332329719609,0.011242817694564328,-0.004408279771444638,0.0710971595948619,-0.052587314987174956,-0.04091286631264237,0.0178492853418033,-0.0022966917515047426,0.11286497723709861,-0.04423319351221739,0.037432759751841016,-0.06371606429540033,-0.18417487430012391,0.12494228805590249,0.0798728139879603,0.10215233074216461,-0.05387010510188863,0.013677732807377349,0.18270222982233886,-0.08852976036550698,0.07439410062001894,0.008833167604603197,-0.08557515403706621,-0.033906786587755575,-0.01160149635440294,0.06722438098463211,-0.1288857526710656,-0.04135040780547491,0.04406677625491604,-0.10290956959168,-0.03526134329288864,-0.18777883073005378,0.09646020162617852,-0.008149293769458261,0.06608183840151781,0.03685999233079591,-0.032226695965345005,-0.11281710093330538,-0.09623145009853284,-0.20932886821213895,-0.022658053163385553,-0.11401349833257361,0.0817707163160832,-0.05588468688588124,0.11430189918176659,0.09732043408057002,-0.02966719112380315,0.12223538166584538,-0.004920387957995361,0.04832185214862939,0.11346964013646442,0.10523002645407939,0.06152481380408741,0.06853534385728736,0.06957182435436056,-0.05406528544522878,0.1426041407610717,0.044979190819894294,-0.11411988250146275,0.12742781639551065,0.08125423746033451,-0.0233339985926148,-0.01925587721521315,0.17417592300671464,-0.07356433526870647,-0.23352689353946596,0.08331031283749088,0.07724283196900816,-0.01643438787144496,-0.013997795040230285,-0.08854940136382733,-0.04853329392789536,-0.12218009142180314,-0.09453349329249112,-0.07897148642952095,-0.18294371082885344,0.06431738149942144,0.1273042321596059,0.06685438066382553,-0.1732120204355247,0.10625704630664005,0.024381771234934683,0.0025655715163885534,0.14335980606848403,0.12432366160411507,-0.05970526769704222,-0.09042941128842197,-0.0035009298220939544,-0.12930507520315052,-0.042303240513966264,0.08153104044936697,0.13598089217938364,-0.0433620569978265,-0.09053426144400818,-9.918905174894216e-05,-0.08456443176917193,-0.09005410128009159,-0.14041417626035313,0.14269159476254134
zyffh_0000-00000240-00000384,0.0015555167495127048,0.00928963364697067,0.024922470111446722,0.010705805263021466,-0.06964538349217608,0.023145038311809557,-0.08994524420153206,0.0717811761804092,0.058840519499535955,-0.05137831091441196,0.0360580531683011,0.0969264295601282,-0.06526707969822342,-0.03933879141960261,0.04727203305559055,-0.026944864696298098,-0.058089268924312085,-0.03107024887862885,-0.027258089624482968,-0.00992923818213621,-0.09423215325156865,0.01757726877416877,0.10048711352210637,0.036682657984849605,-0.008379888891719546,0.0917930157865743,-0.0821746373944583,0.10081637547735847,-0.040118749956972934,-0.13490057324390442,0.0012700513669232259,0.0624571085572606,0.050353619351429235,-0.015485640340808607,-0.03157499596990861,0.03503377480622697,-0.019008159053895846,0.13674933931359184,-0.0919543504944937,0.03374744598242273,-0.10756831970761424,-0.16789091109199042,0.08390517470166135,0.1347240281359787,0.07667593865298591,-0.017373451024980457,0.034602537412132484,0.18930675108579212,-0.1138818619549136,0.11605685152696696,-0.008753171510139076,-0.0653490419836554,-0.004998655818579138,-0.007336709545782479,0.10236298372478839,-0.10625550631227938,-0.07292822611127037,0.011230203871567946,-0.04648706550410342,-0.0065994909913449735,-0.15395954586500896,0.07012375904855007,0.037863001165830794,0.018572505339476204,0.09719907673110406,-0.06452654113462322,-0.1213685765733485,-0.21942126390474193,-0.1351568340065948,-0.038046796419498756,-0.12721274782686756,0.09947036643622,-0.020430166683803593,0.029309617221069537,0.09386911507335595,-0.04416654838671963,0.09642983462892628,-0.028213427756947608,0.058421413331402806,0.055278763691308325,0.11434136722384461,0.11841510957169038,0.04899639024647978,0.013617297314151507,-0.011582994485071016,0.11155844999907286,0.07959364975184717,-0.120115163667804,0.21197695941875197,0.07110798358172485,0.0216575995975368,-0.0055848649283737044,0.11326379593107043,0.04996275564130457,-0.22653655570081266,0.08425807576573092,0.0980428236331423,0.03763036903522119,0.010015543451285287,-0.08676144514388791,0.0252517290411601,-0.172426889711413,-0.03598786241829137,-0.11791901793317532,-0.22044389894921457,0.11986582950429985,0.14683789726665722,0.05637591073871735,-0.10548897605239024,0.05461769790214873,0.023008117661398382,-0.01129883942668229,0.06694331844447607,0.030039320498127024,-0.03135256546277216,-0.05705050775507717,0.05871535712681002,-0.12377129383059983,-0.04897457497984273,0.12339825848718755,0.06171395369607561,-0.04358868333396249,-0.06893991904732424,0.01519712411351689,-0.06666439914203559,-0.11399860023649631,-0.24111088612305395,0.10211467245974239
zyffh_0000-00000264-00000408,0.054982229145561445,0.05353179438284071,0.038285964942820654,0.00681871172476155,-0.0581288673549303,0.030571992741257922,-0.04573400499048328,0.06526594538762295,0.015223389586568985,-0.08752199698446124,0.08490067557056342,0.12396345751485378,-0.07473979632198414,-0.02383009565700812,0.06290111714076863,-0.06982359923729291,-0.08851870694175824,-0.003754511433229851,-0.06513643228050503,-0.03937831256037342,-0.08200550622524387,0.029677665274835112,0.05997216292636065,0.08968494380554662,0.01063998284822864,0.1033423665625768,-0.03116087367775895,0.12426260084779822,-0.01765377973038772,-0.09101023005304532,0.02615245555515599,0.04877612396605934,0.12323653467164046,-0.06970479906605703,-0.002836165747236022,0.08377517603962359,0.05522095752694238,0.12655785519789767,-0.027966165183321137,0.059283970356171146,-0.08872608778449806,-0.12415343065273199,0.10056563215466506,0.09352888972491592,0.04313410858251158,-0.028045507116568665,0.08567668002166981,0.18328999937833396,-0.12550926713494265,0.1398060207442409,-0.027536292960647333,-0.01788383643845887,-0.03421879471591652,0.025618799338616688,0.06208831892965211,-0.10719200348839286,-0.07343207178488674,0.04904393712890181,-0.07036341499759616,0.05551883322977662,-0.19533320689510186,0.008624546362504443,0.04648688673461427,0.024897562994156987,0.06423689463302745,-0.1551702665288981,-0.17149194150548552,-0.15278410325508177,-0.10444011218129688,-0.008011161540026842,-0.08303224091009437,0.15200804892104916,-0.1421439229147432,0.042581580945572496,0.022590085344485207,-0.0444936133883909,-0.013973648194625328,-0.010950890522792418,0.03636935293865716,0.0653307132352623,0.16238805715235913,0.061229711054650485,0.007916350821201321,0.07970540367885237,-0.03348905785310023,0.10852711685701287,0.023905669244161567,-0.15472774123763247,0.18633635775901,0.14196232287789395,-0.034984628300014094,-0.05402417231959432,0.033204550734925994,0.11296441344103872,-0.25961520335923743,0.05574278037161794,0.0540420137306763,-0.05719507012078271,-0.01776541228127309,-0.0595001166304956,0.037002071096524626,-0.08415942294377964,-0.04555690993879454,-0.1849794591601453,-0.2053407886958423,0.12374462620078795,0.11505210128397175,0.025262776411744143,-0.09353915168048252,0.07178479255790989,0.02369311037923938,0.04778105346415434,0.039727930960742446,0.0757088942179712,-0.07094775249720435,0.02532794757496881,0.014516335336219875,-0.09882381462306294,-0.06585254682904038,0.11051266277291057,0.0663865307198478,-0.07026391680949062,-0.07606975169009178,-0.05460729170929188,-0.04088400378586897,-0.11449085434304034,-0.16942972988952745,0.06703631072654252
zyffh_0000-00000288-00000432,0.04558910213725373,0.04850155647143492,-0.0034159139331491626,-0.015508214512289368,-0.063154582307789,0.07184360668374856,-0.009724662763541387,0.06828239230237973,0.038565235593676264,-0.0754581597693129,0.07642655473411807,0.11683932934981628,-0.11557157402909983,-0.04791460935280254,0.03387753298850224,-0.053964822115605056,-0.1302560609261297,-0.014092768729139138,-0.017212809286799007,-0.06627126451830664,-0.04454870766744689,-0.021538268859424035,-0.02524976551779023,0.07889629915013809,-0.012620342437564642,0.12074438274064109,0.0033677367716042363,0.12549060617029983,-0.05017790455042841,-0.08134903463564024,0.04709610118192254,0.03733831413256117,0.157276534872196,-0.10073315488729993,-0.027887214276800496,0.07909080302529423,0.08735572389955006,0.04663564992901733,-0.013883672293954062,0.08136888013322689,-0.06753966479925673,-0.12710143299405535,0.1205017211454513,0.09139942560110716,0.053467459024058375,-0.042009377040912683,0.0675024953515709,0.16216753583022514,-0.10743720453120399,0.08021204687584707,-0.03726873520106405,0.02581000693656355,-0.06313610432015879,0.032128919687738344,0.015075111129992864,-0.07311387596937222,-0.046993854183564464,0.031374245355973586,0.05665239766633635,0.12667496626153169,-0.15245094800286554,-0.04542103841011966,0.03130019490350405,0.017255794106825022,0.05151051210605466,-0.15628222074725287,-0.17228177470422965,-0.06831133283514414,-0.09001382967945441,-0.018548571829851146,-0.07799349400094946,0.14490341584240637,-0.1735379183170154,0.06725486853696856,0.09426484585527042,-0.04501709945875651,-0.052432390936997746,-0.06061522547483702,-0.003460755953349609,0.0574349453828239,0.11092330017066171,0.06379664991288007,0.00615070960019434,0.07323872777011835,-0.0024240879727696436,0.13619758493760725,-0.00484898305574948,-0.07579751165605668,0.26714348747120914,0.1531367686016779,-0.011637108974963234,-0.07385442818357511,-0.0825291286582916,0.14813003600753105,-0.20310377141224573,0.12143919649549202,0.05573849145576767,0.01474196659155515,-0.011738961593040498,-0.054753045693639917,0.05225527615445413,-0.07735667230229712,-0.0761809149204399,-0.24105261902826955,-0.1768607586353842,0.12397846557523658,0.06138254944861478,0.01596279410270031,0.005540217920791215,0.09162436207732359,0.04787932563884087,0.06686310913382977,0.027727402730193505,0.09478403285330382,-0.02082442785136824,0.13489439796258065,0.0056958614755566305,-0.001686910315346698,-0.050302378212167737,0.09056879445779978,0.1261006194093381,-0.09266068848667845,-0.09946398315516666,-0.14218530307184898,-0.0629120994312324,-0.12010060348121411,-0.01103045550737535,0.051592854878786176
zyffh_0000-00000312-00000456,0.06351160597151935,0.07449301156091533,-0.03381287415214586,-0.03598507672448881,-0.047578682076308644,0.0893947218426106,-0.0050472275623628165,0.08602005384451261,0.042329822770788054,-0.06732993426294234,0.06700773717109583,0.09596506632272823,-0.11731673169733978,-0.02389404836069832,0.07332731907133867,-0.05126966280322666,-0.13879317792710205,-0.006881323586392149,0.013443467442633859,-0.036701155697694915,-0.03843613982893503,-0.054161401726047304,-0.031191414804119875,0.08141094405384039,0.03535682752681662,0.09170591606290017,-0.012097154256496925,0.105191844482505,-0.04943536775737316,-0.037997601588811915,0.05323057821882435,0.046550972705812,0.129974593917274,-0.09635842815560454,0.00679862715843625,0.11515022544942775,0.07600312893607705,0.01905910712455009,-0.034072334540155805,0.10872006871745658,-0.03526462016945365,-0.0988480197550136,0.13060234852027752,0.08866819520635955,0.026350588374590728,-0.02906319878448844,0.07517848398414774,0.13955293539128735,-0.1309146298848626,0.07075233067735306,-0.02577790716927729,-0.0012722786867598974,-0.07017994811027801,0.04400566750271712,-0.02196842472895867,-0.09756189824733176,0.009385059364312094,-5.286946161431174e-06,0.07239229671011901,0.11905384205099462,-0.101606972493875,-0.026499553136397618,0.06453735199471501,-0.0047144334324382186,0.005815112541496377,-0.16974573276159988,-0.12579631537463049,-0.05416773434281385,-0.11694719349478808,0.0031737221877063495,8.400914858417052e-05,0.16314919906071748,-0.16408629009140774,-0.019140049691266377,0.04463738611710376,-0.037315914271901396,-0.125147042210403,-0.06477902780912605,0.0697440790682653,0.07786833773089298,0.024867081424974704,0.006778407547484395,0.020283796697755048,0.05637566901896459,0.057581895773112075,0.1416056779418417,0.009523682449857742,-0.1227812365011384,0.224431560318114,0.18032681881524715,-0.032157699694033016,-0.0376016998381176,-0.18452916548201725,0.17937565544062864,-0.1678868429929287,0.062871162296936,0.10337156670595596,0.04233544680412842,-0.043315809279892536,0.007162166947181345,0.0812527783086602,-0.09153000063992718,0.08222246164783399,-0.18993827484385975,-0.1854627887151695,0.059910714629331285,-0.01325941873089753,-0.06928262491457295,0.021202729228819564,0.022179483352351394,0.10349999550313262,-0.03838607745505651,-0.011040005109303145,0.05989745690715656,-0.02725137115400869,0.19140575701770113,0.09710088134138042,0.00560627205645304,-0.038782706782967254,0.09345241902140831,0.11018480883738208,-0.17808147525896934,-0.05041345535528684,-0.1452308500621529,0.00046656446315688924,-0.16669266964872043,0.09275156126230043,0.029946078586801636
zyffh_0000-00000336-00000480,0.056793240375065515,0.0601863917836884,-0.010608255854526329,-0.028166551080449954,-0.043613176819317444,0.10211796736267209,-0.0046460372785055775,0.09612554779906919,0.010677898104202652,-0.0630975883446171,0.04174221195764467,0.09911101905783029,-0.10098592731144658,-0.024406426638750863,0.08467866244472566,-0.07221079804895028,-0.11905514595935354,-0.007583281082972448,0.03761328457045035,-0.041757540304866704,-0.05000677371498673,-0.0210105901099077,-0.003019776190953232,0.04602177992068774,0.05011478531121497,0.10437206476259138,-0.005123074434619308,0.17501840490613657,-0.05227172778314074,-0.053106881045355984,0.04071860163546669,0.04472879031477145,0.19183942995601228,-0.10548272288818311,-0.009762106610176156,0.12831660508146342,0.07849831960987237,0.010193402217761736,-0.07199648025821227,0.09781061009713773,-0.03916275648166883,-0.1187878118916992,0.13121254985562125,0.0758881822311456,0.05460974254587255,-0.03393518992896562,0.08945460045400612,0.16270893534484138,-0.14561567451247825,0.042569959307799325,-0.031986799357970254,-0.072354764477279,-0.05661054623101307,0.02956016900643893,-0.030604097436798396,-0.09112922695197208,-0.0021483232428854584,0.013064735298327329,0.11119676660764975,0.12515231025903714,-0.09739465956347987,-0.033305672658643204,0.06413155409958232,-0.01963013701224561,0.013944791361661173,-0.21429296021780753,-0.07568372118569697,-0.0594392928807751,-0.10699569383729546,-0.016521464707395232,0.0036069740208983254,0.15573807857859415,-0.15343822842236182,-0.054622371047275166,0.029134430946104052,-0.04627591571219409,-0.11814336965800201,-0.0043794388970270414,0.07313019238272478,0.08199152417649044,0.027237059127338984,0.03519499056620578,0.022931991884929462,0.0726037986712434,0.08194112355777147,0.07091336282050971,-0.006863650299686768,-0.13782402089155527,0.20225006680652413,0.10470425797491806,-0.0661960168544536,-0.07680702474819191,-0.1640627117870379,0.1779957554397087,-0.14720086349544806,0.12006831025135586,0.10791565643516111,0.033891681813358505,-0.09050646094144893,0.05422178631790771,0.09785720069018,-0.14375492755363067,0.053869470600897876,-0.1629516236586694,-0.1732389864741274,0.09671760129285463,0.00810137439616435,-0.07230182582759367,-0.05682544673429951,0.08111611010562576,0.09318295858702833,-0.02924738939641828,0.03193368263173702,0.020155171691788695,-0.0062407901527806765,0.1297977837650441,0.03890031735771521,-0.02295090774098954,-0.010307776820877263,0.09583599990805527,0.13832975838925013,-0.15475192941391286,-0.021882794811528713,-0.14782639505148254,0.019668707980736656,-0.09110193377875146,0.1055138335314015,0.051205294990575835
zyffh_0000-00000360-00000504,0.030573736648456452,0.02344763938177975,0.012941591298300387,-0.00098281172780007,-0.029850800220848045,0.13309415626183443,0.01378190627292295,0.08798738361593203,0.012732403537300827,-0.0703421359967563,0.0434106113954485,0.07969668013837823,-0.1593376256285349,-0.022094064977507957,0.07337379728767386,-0.0653825018966689,-0.13715481754552947,-0.006403295640182347,0.02820875718155,0.005183198348412654,-0.055471837578767794,-0.038218889114926685,-0.007416505804571345,0.05369099592512056,0.08189219479230919,0.1700602918510753,0.007422280809024104,0.14098072237666964,-0.08196813641413998,-0.04634751549894049,0.044112416006456046,0.0311428037671742,0.1950266561565775,-0.1096666089360277,-0.0024287606951922283,0.10769319572631812,0.07592278921594538,-0.011673821066352508,-0.06494856137272004,0.10357474676761456,-0.05423554462900731,-0.11837327123573808,0.1547730959484417,0.05295672590403511,0.035161604791122396,-0.008305902287931523,0.13409947169972203,0.09843720759917388,-0.13875597623974242,0.047010916948437384,0.008398737941526655,-0.10269785553832614,-0.025606051623640894,0.04230491893686417,-0.0706538623106858,-0.066118716738473,-0.00566130393791791,0.0012119858524955339,0.1093605975790932,0.10457382874380057,-0.10221970782781913,-0.07274042615201577,0.10427871762026758,-0.034037855446430065,0.013626253861467293,-0.23196654097031388,-0.009127192036263157,-0.04318390745138041,-0.06658357678815349,0.01018973278360593,0.006999924220275201,0.12716638206873362,-0.16541438955916418,-0.040725927043155224,-0.01263607778945524,-0.04529763919403899,-0.137099630080057,-0.0026674816502694422,0.08559002234114038,0.04805912580851338,0.022305912093662738,0.06429045722604126,0.039543592590351874,0.06473892149105151,0.12472366895790801,0.046197057737841635,-0.01646752392863656,-0.15015165321703788,0.18904996735994659,0.11814114621477233,-0.096589730545782,-0.10306837302548988,-0.22545903478442766,0.15675764337444606,-0.11190990787920431,0.08410004942798659,0.048066345421066456,0.018223833116276473,-0.05564283110151906,0.05808019714490464,0.06265961143075292,-0.12332688664682441,0.037441126184798015,-0.12311222082426998,-0.17266474591944092,0.09016131993070739,0.018699086200607742,-0.1131479287289713,-0.024718616919081497,0.08832441392341446,0.0803890657606251,-0.06047463443866995,-0.0006095899373288958,-0.010178385872455332,-0.07055035453099168,0.07947778907074385,-0.015568605701532056,-0.03348860270920865,0.0020305461971958003,0.0451846932790466,0.1403423100776551,-0.1425611404620103,-0.025930934341378643,-0.15320338568776004,0.03254079948373779,-0.08366686917698495,0.1313811260314191,0.08947575472814444
zyffh_0000-00000384-00000528,0.04354610080270993,0.03210863182911346,0.02612790621983903,0.00935410072387237,0.025357873773633115,0.13945190180964875,0.055098637827702995,0.08798200976225273,-7.633617372928752e-05,-0.11105074435690578,0.017483159127065457,0.09986126458481412,-0.16305227895959223,-0.04139434809147289,0.07482077972704633,-0.07663371123228381,-0.1160830645660267,0.0023762545112325467,0.06016881025747346,-0.00010717122450034836,-0.043988084873079765,-0.05391455463459817,0.06535490032746166,0.018511690854857,0.09842881040252077,0.1912023417703712,0.028015411217128104,0.14547303603098144,-0.03419555978205302,-0.042352828762932886,0.1026477561645711,-0.016678445807486446,0.2132824009466381,-0.11915056881492515,-0.0014542289843900754,0.08178235981992191,0.04650026068466992,-0.028936984238903965,-0.08643778648479918,0.11817336420266202,-0.04170685140027278,-0.11768847450621461,0.19239066545371686,0.13055190170473385,0.04540838641288654,-0.050920392715444865,0.04776832344777426,0.08253212441902122,-0.18113533958702804,-0.02083311555273252,0.007843479636964136,-0.1308102534753549,-0.046192884344643775,0.0003677350655950705,-0.03108188449963088,-0.040541463444987054,-0.0503430882717325,0.05191833410170832,0.13910355304414518,0.09683713656685126,-0.045910352800681294,-0.05949451497710441,0.08708989379794582,-0.0061606262613424344,-0.019282875515716842,-0.17836880823998993,0.052297942806590295,-0.020674801081184843,-0.022986651855518427,0.04198738606875469,0.03448873955051436,0.1581223870261569,-0.1601129822676553,0.030225130218817734,0.05563238802371093,-0.0034643731089411055,-0.10503733119057257,-0.07611591325946047,0.06331904607173698,-0.014878048734190056,-0.07756468728413095,0.08746829402649398,0.008672746750183574,0.020079966234179517,0.10913643161996797,0.04370335470426504,-0.01382430170030424,-0.12791494754502772,0.18240600755009567,0.10174453622027414,-0.1568518086888722,-0.10029540219780633,-0.11396619448660787,0.14796118694113922,-0.08334957163276203,0.06550078488930036,-0.04305247939127493,-0.04046661228078917,-0.07535797192932835,0.10396856882119289,0.09929143780978356,-0.1500693099389408,0.04287177924474429,-0.08895657969838479,-0.09594670845223793,0.009756968166852932,-0.004646460250343652,-0.1439375660641104,-0.004380981060121902,0.15642640453577922,0.05295945005220689,-0.034340297456703035,0.06122225490972038,-0.014924010116124872,-0.04831469568470883,0.007361358753704434,0.006165631150618561,-0.026894748206226,-0.04752723990563565,0.019300464692159538,0.18407060817606521,-0.08023427766709257,0.00772698143749753,-0.11319740791639082,0.05785364745435054,-0.10070485036122218,0.17834837350479948,0.07480029210795851
zyffh_0000-00000408-00000552,0.02922821136463188,0.0061926734516868035,0.02255596422623504,-0.019748987337234434,0.0053782009125927874,0.15612172232997945,0.007728020209129704,0.08936363941115993,0.025722961166182817,-0.08836529240134339,-0.0007687498587660844,0.10343294914062581,-0.1660459705354195,-0.0176986212135263,0.08501973327606957,-0.03259308770696363,-0.14941111718299327,-0.02959666753954853,0.06430598715006704,-0.016833529980057254,-0.058792098165898726,-0.0375066409476353,0.07788066713361766,-0.013893235366560659,0.11374634603714961,0.1594541769246449,0.03585194941010955,0.1336463275331874,-0.013314723209644422,-0.05363609952118351,0.0921413615133656,0.017323071229293215,0.1543942861459752,-0.09517567270714468,-0.0373261804551275,0.06392133655344663,-0.008036131492567641,-0.013436957077754285,-0.11436036030446986,0.09339328348291558,-0.02927438111566505,-0.13187642985191586,0.13293319499306105,0.1917552556594213,0.05999974649692376,-0.023727597444088786,0.0016172759018949997,0.05725678053812993,-0.1824438507972234,0.03729037769471642,0.03944919296958117,-0.23346364388959967,-0.04564815809114613,-0.03809697057342138,-0.004103899937570866,-0.020886672595714098,-0.05090141477507633,-0.04217477309841521,0.06769100985295057,0.04436411904017404,-0.08410537451046593,-0.06153506959249465,0.041142086407849825,-0.020822686121171982,-0.0609553235080451,-0.1650046193787624,0.07385255622069345,-0.05260031113437264,0.01992972718252621,-0.008627679022278246,0.03935032076683909,0.10923072303290897,-0.10675983703270422,0.026229891521927735,0.09377796583292589,-0.09855733176234219,-0.02534361273410367,-0.07935595222506223,0.08027682075718949,0.06752258816285348,-0.11638197386938696,0.014810588783617282,0.1589422534941136,0.05301914027147035,0.1210494108864277,0.07069535849059891,-0.021157401804284184,-0.12871748607415226,0.22176010267745905,-0.005852995157404349,-0.203199165670168,-0.055707169146095074,-0.09460540577010926,0.08042784696754386,-0.08383502465379376,0.05285090412687208,-0.029324491924115806,0.06273111571796289,-0.06465494936184743,0.09218612610770723,0.14159481328317478,-0.15404896746580013,0.0673535500531805,-0.11372395139486019,-0.1871048040028501,0.009017779365780479,0.016327368151616246,-0.07137991964062955,0.05866947672946176,0.15151287921332596,-0.022817753113689086,-0.02225290541561604,-0.05641309142239403,-0.06205729108353471,-0.029131123693850337,0.045038334444137094,-0.03168197851440276,-0.0035661146543445785,-0.03365283587241453,0.0385058550910977,0.22261566936840832,-0.02923688355830936,-0.01899851233701395,-0.0646076948964016,0.04826073028066179,-0.0405842602370111,0.1446293442915499,0.0645011102782098
zyffh_0000-00000432-00000576,0.011095550454482983,0.004355393453126731,0.06099469401597922,0.028595974450742738,-0.0041872324086091985,0.09567290856531296,-0.04087317223203382,0.04715082390962906,-0.008603324589117584,-0.1220659213016489,0.0025723662972537433,0.10254891295699232,-0.13733394834247598,0.028771537961517792,0.10925468557094559,-0.009561654857911892,-0.1160374678673642,-0.0447372559982368,0.03330261700385523,-0.01862296763697787,-0.0800696973013441,-0.03085649645239887,0.10652430197056696,-0.05928032419688139,0.07657880075836156,0.2039639353476937,0.046260813548570374,0.1923908899101897,0.00553243171265568,-0.07606868432217974,0.026610015012186232,0.04934997864939318,0.06965013168322398,-0.0854287864828286,-0.05060058539588948,0.0365113676761714,-0.06815214319358252,0.07320086865440223,-0.0952707689328724,0.15192609592591988,-0.09104061067941281,-0.055740102499635374,0.16856294473349923,0.2623180812262192,0.011043841279026982,-0.030807376729703538,-0.008621285647676417,0.07333585841362249,-0.19095770113800464,0.10889305510425616,0.1109443013248729,-0.23955154009040663,0.01871665806846775,-0.08693152602014576,0.009739908649509913,0.02067371102630293,-0.02705304358526425,-0.05651827791008024,-0.01973531712869678,0.047697867848410465,-0.1330196341251484,-0.06457525279928687,0.048755613013155716,-0.0076227934483387326,-0.041906094109772696,-0.029097244862998625,0.1511485917040418,-0.126182885155513,-0.02156690938903365,0.03399268726298746,-0.008964668208870591,0.0389039429667623,-0.10234507140176995,0.024785618334890198,0.08590545259565889,-0.08919912027809898,0.020774473270747232,-0.11663313841695247,0.15468352028976326,-0.006006866088902139,-0.0547076942872079,0.006830543875426732,0.11994649991946152,0.0718538282938013,0.08154634573819577,0.027407354818102733,-0.03986556929881716,-0.20724546074901087,0.1383838738026794,-0.02445633046879353,-0.18914020675413212,-0.08169747155775395,-0.07063837230010633,0.04845299531751479,-0.11458693117541108,-0.007875896616464843,-0.048580496196056276,-0.041519459142574704,-0.08117826616975123,0.10033573179461158,0.12265863213887786,-0.16819922971295417,0.0648373841002217,-0.09347492446442328,-0.09360563859478917,-0.03691753021747296,0.09802895220575125,-0.02124642489388255,0.006118830626224585,0.0856266921463563,-0.026642421943805946,-0.10024042906358761,-0.05298119993773628,-0.011335977024419665,-0.031788656168497006,-0.08299824446661952,0.031044538475227527,-0.06913290632666153,-0.02388506172554849,0.002293095772055527,0.1428638025546071,-0.03767192916415238,0.018512728379469563,-0.12559888501861957,0.025317742494470805,-0.07297786347314383,0.10956654586784713,0.07044078835348759
zyffh_0000-00000456-00000600,0.013192700219792897,-0.007249449074612606,0.05183186964632952,0.04192319876187349,0.00562311874824844,0.10740813678627413,-0.07456430727490959,0.049549453208630516,-0.023489546143197763,-0.08718743419197372,0.001954761597147918,0.09880040446493264,-0.1299675696968254,0.022166293532855753,0.09578637224777845,-0.02717304385255683,-0.10595331973856671,-0.03438506838063055,0.011604550246569386,-0.02213801911843233,-0.06265566810763257,-0.034117863949573266,0.1281218735456942,-0.06996146770077889,0.047750390558087503,0.1691737051502548,0.015417445573480872,0.16584381758930225,-0.01608572786703782,-0.11154844298736348,0.014919985112241635,0.06279600244919985,0.02282190181157281,-0.05357948024025581,-0.024562641162514505,-0.03819564440748225,-0.10284363870608683,0.1556259129685046,-0.11149814217014146,0.18348304814056127,-0.14468716498461673,-0.06584580452320098,0.14176022059356905,0.24777161821836863,0.05429276220872869,-0.050672629521715536,0.0017733732026156198,0.09803015304533899,-0.18462397148978713,0.09778819831643007,0.10261858038605,-0.24310170435040834,0.03885523427414775,-0.059636808525264005,0.04067137171879039,0.08341104443992413,-0.030051335608267365,-0.03235305486982903,0.010634814358830624,0.04087349361587061,-0.08845563041303175,-0.05994010064165402,0.023779177360090588,0.01961278317084794,0.0021452378736632315,-0.03990765949068735,0.18607560800254236,-0.08381037428216413,0.014650253909994759,0.033140576819220814,-0.060654776289930365,0.03715001789472053,-0.13699133322180826,0.03720532373239148,0.05312603699316024,-0.05189501455293252,0.07663292024763317,-0.07784695436699444,0.15215401863036496,-0.0014278706042362562,-0.03810815845765117,0.10744031601217786,0.0766523776087395,0.08602263423104616,0.0750115433900174,0.05110026512025482,-0.057208805421297436,-0.18445941059191304,0.20635847028112117,-0.026645394658946716,-0.1395626478568367,0.026213577589826342,0.04483485979187494,0.009782847024774765,-0.14658010893364387,0.011010735883918408,-0.11258172729659255,-0.07086485962513456,-0.004535959650931254,0.054892060799114344,0.09387519206802267,-0.1348561309842489,0.031005274091332705,-0.03169343187186819,-0.04580087462529614,0.004917468413634626,0.12626348791105374,-0.02866425546824937,0.003494821895340835,0.06989442712234573,-0.00477758993138123,-0.07568798995399216,0.0032999907417382377,-0.013267605621066509,-0.03974043204447471,-0.13195833666176132,-0.02416528394532022,-0.023004766632107817,-0.026118476711411015,0.03246823205920546,0.19070271991571355,-0.057303592004742165,-0.028462865805868414,-0.17868708063194308,-0.019790518714590036,-0.07650927407866871,0.08480623349430241,0.08868392096674108
zyffh_0000-00000480-00000624,-0.004124083609411909,-0.040274694443443323,0.05552962414567256,0.04486450274749179,-0.04035574842134155,0.07945276450192158,-0.061785264721621436,0.03722472584534213,0.010432367893883744,-0.12255788245036879,0.0311873564307984,0.10512532805301389,-0.14215103252977018,-0.011449628582311938,0.06857441517907513,-0.011022237954902887,-0.13470217278712757,-0.037560806244192634,-0.015842660129457273,-0.01646319328251373,-0.06062472359015183,-0.04114490193486115,0.10692661865129233,-0.09050324853019649,0.014143601691028263,0.14066047417509692,0.004375621665867642,0.09647012736912806,-0.005978232904225682,-0.1472784355162363,0.009171877810844054,0.07156145741386799,-0.036921777819777284,-0.016881202990305672,0.0009980761528585948,-0.06740142615301976,-0.09720021445230677,0.16962135137300438,-0.07716414097420303,0.20096634037055397,-0.1502115302068831,-0.010215789652009706,0.10822853175586321,0.28245801368341095,0.015346270072117037,-0.06524948032627184,-0.02927209892602648,0.05503732343701971,-0.20824010973541782,0.14641447449444128,0.07023153897913074,-0.20549888590942914,0.05286590658662052,-0.03805339103703429,0.04545500938484948,0.04925751315175201,-0.02347545092834605,-0.010173313065311638,-0.020498373236272804,0.020040945657487753,-0.11164850922762697,-0.05978356485996407,-0.016741053884637334,0.05249482396597658,-0.0063893512836268205,0.019562325884910383,0.17743755989325666,-0.08860785459897978,0.02938527950295576,0.03667936081624929,-0.07444070016695614,-0.019862191907349513,-0.13360410564879183,0.05474333759544954,0.06463073655391684,-0.025071632540280324,0.09506283449812931,-0.15877521247862095,0.14965153500269365,-0.018940379079762516,-0.12256445498308338,0.07606362040960168,0.09663607858076978,0.06083784855316109,-0.01934072347981752,0.09062316203695793,-0.046154895850172684,-0.1278470474005235,0.22321727669272676,0.05140237201521782,-0.10419857241278307,0.02950581796808965,0.01780209801319732,0.00523280926847564,-0.16960052376715262,0.0020431143988400395,-0.149079258477799,-0.07144932152705191,-0.0026043355093657854,-0.0027819355571755537,0.10063146009260959,-0.060583254583601316,0.04286183579246694,-0.020142648616236825,-0.05669590235395752,-0.02235560733371671,0.06119425941901712,0.001546849402709396,0.05800391541165653,0.031367666489282506,-0.06567743816481521,-0.09281482033436146,-0.036355691333691285,0.0279437109710297,-0.024974089363671077,-0.08454993115152808,0.030481638198447347,0.015988120870624525,-0.04280572009894511,-0.005012792479529428,0.14624571605308487,-0.06377973800875678,-0.07213307787347212,-0.211332837233553,0.05297273755804213,-0.12381118013877011,0.11179452145909406,0.013320788471546413
zyffh_0000-00000504-00000648,0.017123617868612436,-0.004578483335454788,0.04606441675131133,0.03380726631088209,-0.011076922882540582,0.08555328934253659,-0.04259151484918635,0.0578471968410099,0.03529226083097364,-0.11112280900555463,0.022573202713260448,0.10188339444551683,-0.1327338638806724,0.03601029421849804,0.047788116302562085,-0.045717815733478676,-0.12180706421982955,-0.053988393870994245,-0.016194997815475867,-0.05533634181836601,-0.06787865282438567,0.0007562693456387264,0.11208757704499422,-0.08808621622243515,-0.02398610521466777,0.09471749294442634,-0.03768164827150351,0.10935097147330834,-0.01365163025450616,-0.18469543699969235,0.016051274748365863,0.06600389847114192,-0.05341767147033202,-0.03184392658460241,0.015266571798999894,-0.006210202360866776,-0.08986424941374485,0.2079680690650765,-0.09218094858023729,0.19548222168981735,-0.12154373380811846,-0.021826019674540783,0.10892749248997956,0.24942239370167982,0.009937261306973246,-0.01657505109651285,0.0013179515906850525,0.08737566801665846,-0.19123106038127843,0.1102929211620138,0.0789963074697887,-0.21023006062650698,0.0859298290706348,-0.05628824922784843,0.09835286170707895,0.013109028019046554,0.030857014259066402,0.0039912953422681,-0.03185626350291626,0.03881244301013704,-0.09140963464747395,-0.027594198746109064,-0.016399198364142782,0.08356843722674105,-0.017894468253440134,0.010869572833467558,0.0950985086699164,-0.13560543417413354,-0.02508760948771387,0.07117660580989324,-0.07805317635824234,-0.02707173767957389,-0.1008648183806979,0.03244957719464719,0.11744669974137034,-0.016779604393983606,0.1101026131398993,-0.1575160637612667,0.1646568949680646,-0.008100865388010824,-0.07585355105179235,0.08605864849248451,0.12642802348277582,0.0760702391479551,0.003346469613671756,0.11444195972850288,-0.01678208613952619,-0.16555126872863035,0.22059217550212346,0.09522734597606018,-0.08076177984899632,0.04189151153864381,0.0189795175903246,0.036893139969074736,-0.21399535823775623,0.008729090718685262,-0.05693771988742688,-0.024617462211857875,-0.0024167200082657165,-0.08424421946065298,0.1205246426476105,-0.08722762999462211,0.12045909534885033,-0.04878219595620105,-0.09799188079265753,-0.027515635300170465,0.023150830565714445,0.032173158923214124,0.06532196225081441,-0.04675662832911101,-0.07221913256284139,-0.060109445262062695,-0.03801829527699241,0.06075759670808045,0.01357741763420788,-0.08003372416000613,0.006286316036020904,0.008365363875785065,-0.06836189211756186,0.07376512939619136,0.09896178227571861,-0.019121828968886385,0.020452251459905032,-0.19220540753900056,0.0851292712029248,-0.0836656068377305,0.0645439141044215,0.07113294035085765
zyffh_0000-00000528-00000672,-0.04557132271157087,-0.01787332151663359,0.035108032948240074,0.026545089738057134,-0.018297680491415023,0.07186952534226099,-0.029350463817210334,0.03725045821669114,0.023847500174424024,-0.06327006367226376,0.0381682040680041,0.08652789789432386,-0.12339067104394881,0.03461910106326516,0.03161213609536499,-0.05010424177361277,-0.08271439886616117,-0.006433561413711608,0.00391492931478277,-0.020613268553620858,-0.1482160402572954,-0.02717017655265445,0.13926517177146575,-0.08651828947742392,-0.02822439513494702,0.10269504815420899,-0.07320125383621917,0.14423378304680814,-0.0938981265113932,-0.11238580113447512,-0.04532923653456931,0.0693243082588139,-0.01152345824770735,-0.03160667235646512,0.004059316790770477,0.0066381707232457295,-0.05904695391188314,0.15683568510361018,-0.05539000999522415,0.18147332934403831,-0.13008918828216443,-0.01608195203582331,0.11977552503834633,0.26561881836506623,0.026107792914932804,-0.01613228606545503,0.04736243611828219,0.07655381092471251,-0.13024134424121728,0.075387232164379,0.05264592852783038,-0.16749534308694747,0.06842797499542626,-0.014936440668819693,0.04760801955219637,0.04095121783364218,0.02194707836452647,-0.022247636848429793,-0.07225049256737223,0.021636572171075213,-0.0850731888365963,-0.026956873071760066,-0.04810092041723142,0.04864627718518531,0.07282847697525216,-0.022099769251940283,0.05499963729688464,-0.041917690947909855,-0.09725012207635628,0.013567623188380838,-0.057658493785584866,-0.08108647300539706,-0.11205138144267147,1.4004959563028094e-05,0.07088305751416545,-0.03571952686057464,0.09702663651392947,-0.059333633595288,0.22896785409579162,0.010743672175282628,-0.04074820179006379,0.06397180906249196,0.14869573213814535,0.1179092911772867,0.0587875951703628,0.13189386321993318,-0.03036380349682439,-0.12059771021995677,0.23559268212476717,0.06778146598872671,-0.03151419543181067,-0.03577657872419938,-0.01006838668236976,-0.013678584112857217,-0.24359818375836387,-0.017870919414552176,-0.01683844488699856,0.08137762496826853,-0.035683157417520185,-0.14368595659229105,0.11886968370542293,-0.09979982244930743,0.04674163658284638,-0.05075739689715981,-0.06813645602511173,0.08350187494800959,0.016426131003837764,0.1032040373628193,-0.04901439210589889,-0.13585489095203634,-0.04030022092659591,-0.01797503710710367,0.031050412759872456,0.11512892775696071,-0.06100448045514744,-0.1499943693430041,0.032004403750564465,0.007892583519601253,-0.04059860997514117,0.08899994860594823,0.1109478847431724,-0.07929559524207573,0.04966665540603895,-0.2266097555519091,0.09834139595823453,-0.08865144376570323,0.0783393892612328,0.09308699536193743
zyffh_0000-00000552-00000696,-0.03751283657699725,-0.005996847519362726,0.07797041985251497,-0.0010672718989636542,-0.0034536142189914043,0.09370280557613754,-0.03556678952078799,0.06771355035621344,0.04360364934414446,-0.041344181539928436,0.06702626977458742,0.1197486748044737,-0.11823181795576786,-0.01782394788578885,0.02190470864092982,-0.07581250437891385,-0.09674488729837384,-0.013572909513159061,0.013696832434631125,-8.44546652816798e-05,-0.12935429143165275,-0.0024837370883545747,0.14611073896156188,-0.05924916071310263,-0.05339743017688001,0.13540639898399917,-0.036004354085909206,0.15214748853548893,-0.0629899464029962,-0.08724440106822548,-0.07538468786075231,0.06010601418192616,0.02926233576414639,-0.021927150738998348,-0.007863914049845034,0.013900371945891905,-0.007582816613958007,0.08103445236435063,-0.13491224964570553,0.21436038259763004,-0.0952173659782725,-0.06100666427318496,0.13642026808387614,0.2657387249515348,0.0399974227306562,-0.004860000594313608,0.08953011622690146,0.04574872276946011,-0.08256725005344837,0.03372008477010113,0.002701303351270901,-0.07870993947235856,0.033975575636942604,0.011514966328866979,0.04682827943230902,0.040302738846857665,0.025812764089611483,-0.03900593554259118,-0.06378961589158731,0.021989915958771228,-0.062223211412054086,-0.011429621617619226,-0.040905353853827604,0.02231745089641743,0.07645151800828577,-0.008459077301433453,0.0392628480716198,-0.044559060499834456,-0.1686500912796199,0.02804991190193165,-0.15786529433553603,-0.10455038988560064,-0.06436195222413264,0.015340727123991465,0.13519993881289594,0.04093853754205584,0.11580517821763196,-0.07651373098352758,0.2326042415673402,0.016127672876540832,-0.10234517861321733,0.11015887299552612,0.1066198832214502,0.11052884541696105,0.05053213473891732,0.1249324651126286,0.02995273094952637,-0.07329710180220485,0.17588863500626942,0.11358636525876778,-0.03497976732727561,-0.05570680358879678,-0.023730378294464546,-0.02994855154016942,-0.1802333862241008,-0.06118391919103043,0.021301281016402794,-0.025190651217354962,-0.05725661737094875,-0.07604536070999865,0.10261871445777192,-0.17916405211411138,-0.003392412977099885,-0.013562691361471549,-0.053765434872263394,0.03650816210318181,0.0530851052614554,0.04514223933215365,-0.010035172210787676,-0.10345296745505568,0.05265819994983304,-0.016799988342372778,0.09617273948840357,0.11228327572303481,-0.10495733062682286,-0.11498061360570433,0.02999284621228388,-0.004033176892153645,-0.10707753306114251,0.09478074582608305,0.042428439560848366,-0.04478493638610638,-0.0048520624697195,-0.2397486072276608,0.14965238861067398,-0.1704179113111136,0.0038685519125827837,0.11679798692832823
zyffh_0000-00000576-00000720,0.007394886144128683,0.0067689756428389,0.07956436335657212,-0.03167583579272394,0.006851639247010373,0.06384059834556748,0.0007717102021920029,0.08143399975175099,0.04851116515741149,-0.05214344813294909,0.06355824869823948,0.11101064153397357,-0.052777715057221244,-0.021013139927117723,-0.004986252802454233,-0.10723879301467366,-0.06229405878222509,-0.039255808705653865,-0.0015847916490334029,0.007708667079886581,-0.15577295023901994,0.05991656798239884,0.19653063096191742,-0.015518770865115232,-0.09433618718402682,0.15157026995032447,-0.08809470229604598,0.10669465051646604,-0.03057932658271136,-0.09112966771347751,-0.05920087858354087,0.028466598546800254,0.06425336381641517,-0.06933517824456276,0.045146959610078724,0.024416556699459926,0.03727487081520297,0.04601312709554768,-0.21091422246705113,0.17859014093811149,-0.09276163642033594,-0.08153560714023837,0.06475158189561031,0.2626815184538499,0.05304544225353164,-0.0650601281272293,0.08557089205450959,0.054786488231393475,-0.03298268481255226,-0.04739833409206393,0.05021834906357908,-0.16303217090325703,0.01967391987279472,-0.013650512228082452,0.04339344089604108,-0.001117075380064334,0.02082351565938049,0.022578503774177885,-0.06004369673012901,0.055482862892346725,-0.07073211153038876,0.04566227465032884,-0.10014063633993353,-0.011705011254003564,0.03561220163303284,-0.10457501109018821,-0.037326292715229685,-0.06280453937872,-0.12920567826409815,-0.015146992469092764,-0.1413777471066943,-0.058402008219505225,-0.06187527388667643,-0.053260585097970874,0.14004591834565877,-0.0029277293859771964,0.13722780566455944,-0.01590505165287871,0.1375146679116646,-0.011647773874532025,-0.08937996022396631,0.14874971412497243,0.10015475545829292,0.0773396733632236,0.10624015206719338,0.0933501021979673,-0.0044162714838249855,0.008062458858481562,0.24794584973102884,0.12434161149986317,-0.06744520068834102,0.004965044205438801,-0.05002314773131916,-0.029868696109345505,-0.16094159385620116,0.012288600304202833,0.04944723754496261,0.005514576795718721,-0.04786649239728681,-0.14455141329099694,0.013958649365140748,-0.2492161497623499,-0.022880821733163123,-0.0683205218311568,-0.10871043804461948,0.03638404895727514,-0.08914342655009044,0.07989902175028511,-0.052472108363281145,-0.028761155778593766,-0.03381411257690399,0.09028110316103513,0.09787474488731134,0.018072005892918908,-0.10543585757510823,-0.07030917743575225,0.00319860947482539,-0.025431237858196086,-0.08359193214389979,0.06858580023768436,0.07032257687461445,0.01210005160820312,0.009428957196353466,-0.16352909693204482,0.13060551995841752,-0.1416284804497364,-0.05718990508219564,0.09066015469753966
zyffh_0000-00000600-00000744,0.020194633508999804,0.012124378375007695,0.06524691240586998,-0.057320219789345095,-0.0624740599406429,0.10024392434690212,0.03409042785841943,0.1771186934833927,0.10639322214207568,-0.03461298825247521,0.04826637399756725,0.17419098063845997,-0.0948095565674173,0.0010264618521144226,-0.01615910960226381,-0.05011581898432763,-0.07472250191191776,-0.00568889359613717,0.028193917591051842,-0.01050851118284027,-0.15123866516171627,0.010319439527942748,0.15682300007636252,-0.029124734087815476,-0.04237375420333277,0.14385226552614175,-0.07989024888548822,0.11713503357272789,-0.020823912725571138,-0.06336407661106516,-0.016381609051783822,0.005494973836354532,0.071575240904027,-0.06432630904477489,0.018140382517949718,0.08091945299174019,0.04052280263645508,-0.00109095811507558,-0.19132664983942393,0.15035744326997474,-0.04019028350515139,-0.09257711937708753,0.14042585570080826,0.2589702555689012,0.05678485107471828,-0.04587933869220604,0.08801200488700418,0.05084151501486579,-0.015496409549243592,0.015378204200542507,0.027256250434480375,-0.14506623798490648,-0.006894208944335585,-0.04871763851018274,0.008083220354809035,-0.00361511185406255,-0.014970553721305888,-0.0006645657439540329,-0.06644568773611603,0.09055694696108202,-0.07700691947244977,-0.03479755576138537,-0.05897924966849183,-0.011955423327342053,0.024096145412250792,-0.09372640641109117,-0.09038516952759958,-0.07635322455079865,-0.14318834104592326,0.0344680226866247,-0.164570683515627,-0.09940265214658345,-0.0332166826006511,-0.09664717346499109,0.13523211468346327,0.0402740005423287,0.14560537009885072,0.019838770488477174,0.12764573002625113,-0.003816626067134967,-0.08151584904777946,0.15474632685165346,0.10946904347110334,0.06679734987522215,0.13043302631595227,0.06877023427030994,0.04679180645517926,0.02341783559052828,0.16562961798113168,0.07552376823387254,-0.08616026608598429,-0.0818706843249875,-0.09586956087604918,0.014313924552227585,-0.1781300777936628,-0.008836582579978585,0.0008876453649897591,-0.018115156516489168,-0.0698564745138474,-0.07422754428921269,0.04160617556816261,-0.19705630037503444,-0.0019047564538589056,-0.07205830046495879,-0.1599865814601589,-0.004533753846879606,-0.12167158006043435,0.048477392644441904,-0.04236960575905029,0.01174079905421028,0.04114785097991713,0.055666035651172854,0.07233773139074234,-0.00874960103212351,-0.1530295658705824,-0.04110599058752042,0.0484220603528577,-0.06756587906917531,-0.12400608655115147,0.035057362415466115,0.04806841117768677,-0.03414005155819468,0.0013668467751819118,-0.16291678633148532,0.08645053875081483,-0.1082453043342129,0.0639279401677624,0.1572535246815695
zyffh_0000-00000624-00000768,0.011368144609284397,0.028659285416674115,0.08408305431607972,-0.07199733659210425,-0.05677844851168115,0.09697305976147533,0.01168828742672561,0.19784520422486226,0.13404046535649222,-0.06233916338070457,0.06584393838386922,0.16727351720287933,-0.08475999094058004,-0.014012884631632994,-0.056526252199745025,-0.05188330071591284,-0.054547543141482,0.029204611681625782,-0.013810649439295363,0.027356358042930788,-0.1203483052212509,-0.008703333874843492,0.1322304039702629,-0.04098326096305709,-0.03512489115092586,0.1602220122759196,-0.05157076525941349,0.13577725763882995,-0.08176999098659167,-0.057211143136643626,-0.014091042354193808,0.0028433461482471867,0.11178261915270944,-0.06501298198798497,0.015255132439835232,0.07017233337903778,0.0562537018956717,-0.012903029893754326,-0.16465398405913934,0.1583888483812282,0.0027991701384258013,-0.08859590267731351,0.152980213196457,0.2330677032938421,0.05594066847818977,-0.01433392345348514,0.1492724441134989,0.052318038822163,0.0005649120620931778,0.034901675603980525,-0.005300295318222229,-0.13400749275315735,0.04086145734521666,-0.020016838271106344,-0.027307541697536793,-0.0009984360285204678,-0.026846359792806137,-0.019217189896208856,0.015679758874229295,0.11931997766167302,-0.0270648066406372,-0.08135384585405521,-0.03716135407892129,-0.05419020571341441,0.035076672695519596,-0.08705102244361619,-0.10015276036729043,-0.03480648043335821,-0.10210247173687288,0.0020102161879195263,-0.129567637474746,-0.133042458904318,-0.057660479867525864,-0.09033480505246352,0.1302005291476706,0.05715365291440011,0.07886162429427832,0.04994012227803784,0.15258891742921246,0.022459168757386357,-0.10362426538801563,0.1618524037541943,0.15903776621826576,0.07622127720569823,0.1035729940398194,0.03319821388235336,0.029271278948302757,-0.010871260824912595,0.17437430629239828,0.05878591208855536,-0.13076105369929666,-0.15932620045787702,-0.11174237891202071,0.06431125912543892,-0.17678846786432767,0.019207379348309035,-0.014744465159112666,-0.04882745165913357,-0.024476677935868246,-0.08590012700963534,0.025765898293804945,-0.15273178863608827,-0.009807295952984789,-0.06891342636816834,-0.0943014216120218,0.003096541108920619,-0.004536772732393727,0.02177023058398709,-0.018724594251482856,0.06181339687939824,0.07035894541018059,0.04484603183753671,0.0939293384700009,-0.01809158578670218,-0.09139978608806888,-0.07434963867106663,0.028133000314624075,-0.09124837578207251,-0.11139089878983431,0.033006792718368615,0.09059606631310087,-0.05787776996463459,0.014667804726559963,-0.19337042611760633,0.06730659094596836,-0.13590826314812607,0.08201555361591373,0.10535542826091814
zyffh_0000-00000648-00000792,0.06503077475410342,0.026906525521022722,0.0873651106641303,-0.06643044704790477,-0.07522912528637885,0.07394926722912804,0.019063957711441485,0.1939776815757463,0.16484301353400418,-0.03714954576282022,0.059135506300520134,0.19248928030327422,-0.11407980360041123,0.02335604774236555,-0.07129113432907004,-0.02716333023209664,-0.04714671554544053,0.025751429592561593,-0.007302701925005712,0.029890928003813187,-0.059092578602139414,-0.05448752796065317,0.11011529847890421,0.014141029901191857,0.021915905798428195,0.16274921085526775,0.004743385965528453,0.07699607756651979,-0.07975512752858542,-0.08068355664477314,-0.04546891223049298,-0.02370448719418776,0.05252542448841741,-0.07781193720691396,0.044504797503805864,0.10760565032472388,0.060272813556949814,-0.025705616367533105,-0.16588661561534357,0.15090363183952213,-0.015562676812493861,-0.06253333295016215,0.14135517218484978,0.20271615703036866,0.0009785859331145944,-0.02896490376600834,0.12429921716189389,0.04636324573360419,-0.009576061615586558,0.07936010634554626,0.0021298467225326218,-0.11964151867409847,0.04517608426623827,0.014663231032277686,-0.05114215395797927,0.007716557410791278,-0.02453331628268065,-0.032418506539642296,0.042015333770555434,0.18597707913892766,-0.02251886721112159,-0.08947406306562602,-0.010798240570078395,-0.052885285996367735,-0.00014984297750441253,-0.009344234149043097,-0.07627815532108961,0.024147757006875173,-0.021771740140602628,0.0765620130136383,-0.15832401772022436,-0.0781571164701745,-0.046842003714665736,-0.0344669910509998,0.14990168886663421,0.06619355613633023,0.03887913515968255,0.015356059009583391,0.13900337880802005,-0.017362325624920304,-0.09895432757582441,0.1107765020004255,0.15307617973333465,0.10198567462060366,0.06255303664665858,0.01645598690417812,0.031223027369509337,-0.014899470110152777,0.11176478966352296,0.08549647371624086,-0.1992950501370626,-0.1682195966213563,-0.10645427882923059,0.14350691063151344,-0.14501843349623394,-0.01757215668395109,-0.010650093199705913,-0.1409988640714398,-0.015122454775609319,0.001218413828940217,-0.028836208221111798,-0.10949423938213858,-0.09759524471694193,-0.04685802328402028,-0.08408128055614227,0.0630283565351576,-0.03225129898312291,0.010108433059798937,-0.015243342032246468,0.13581024073638384,0.08250915269906021,0.04982334538119805,0.07710917761006597,0.00025889782018267087,-0.09938968136241186,-0.07936548363122384,-0.009737652425443813,-0.064569593798151,-0.10046688178539805,0.042961372295604434,0.1415042816481545,-0.019268475883002515,-0.015822392430540514,-0.22463416305884049,0.020235014006048067,-0.14580883630130426,0.08932644217448987,0.12924478004700488
zyffh_0000-00000672-00000816,0.072506396860623,0.023164106498224094,0.08386755112901677,-0.06811463283302571,-0.053796251044859064,0.06356668003875468,0.016517897279357048,0.19301099154093762,0.1661601787510024,-0.0742209555534524,0.02012181942840739,0.18706820135513477,-0.10155339633547046,0.027543095147555888,-0.03669125345683658,-0.05404068672153426,-0.03307077636126819,0.030033531882884705,-0.026529208586687277,0.010697079584419433,-0.021526295620454165,-0.04589558579846187,0.08539391899750585,0.0254096622061731,0.0053715990269138005,0.15689088555199865,0.02916272483041181,0.07324978455465182,-0.0644929595705693,-0.0764278192315048,-0.009332777758999397,0.005129952422413424,0.029979593046568723,-0.07804859284943663,0.06981133369666688,0.09210914237661215,0.07587177078214948,0.005542016608111375,-0.1481276708530844,0.15973784972866562,0.013918273625282526,-0.05759783336496591,0.13805474751966332,0.19313803517338315,0.008194474703359884,-0.0742365590595909,0.14646293753233977,0.0666673764216623,-0.0267961358931761,0.09886207575061899,-0.017029853131780872,-0.11219841426335043,0.02450074015243415,0.04650208028144134,0.001452492209227515,0.005169265850477406,-0.025823958172909136,-0.02173797565939924,0.08615471194153543,0.15098387342768807,-0.07249513201020523,-0.06280349463128178,0.002057478262139744,-0.017938518699567075,-0.019323481437251103,-0.015614309392147915,-0.04437975687138358,-0.001522863327259893,0.0421261477134385,0.07384620137185703,-0.18005025686977713,-0.06754917373009585,-0.0522537630043235,-0.014860057924541934,0.14987893647387895,0.032429501373052345,-0.008069270273110616,0.007006583634297157,0.1370641923183567,-0.01411356584120057,-0.06668912760278314,0.11951253309929855,0.06587283242645767,0.07705799776621601,0.04902409703933928,-0.0010393291956238002,0.017406762752024928,-0.009166486047470154,0.09080074041809226,0.09879875366432259,-0.20541400087298078,-0.13691402999801183,-0.09843175821843003,0.16965993703220988,-0.2050274962545022,0.0029245876982980914,-0.05624098319961575,-0.195515195049759,-0.017359884568595992,-0.006536042111775658,-0.045026781040954075,-0.080323997549879,-0.05671402090260686,-0.0638394830275687,-0.05998360167060416,0.06916256156358139,0.010074084961238565,-0.058253661579838426,-0.04282146453920229,0.12552987408225597,0.10600496972796246,0.03639839138755256,0.09576578310793453,0.0030877307145958867,-0.05590768065082415,-0.057419423579360106,-0.015458957131602879,-0.09811588552409184,-0.09243624360964141,0.005047363018129834,0.1688497417889202,-0.056284307998143775,-0.020451163744642654,-0.251555174323889,-0.022836745900511667,-0.11628528766430424,0.12000549105842705,0.1640491545306083
zyffh_0000-00000696-00000840,0.053465813976650095,0.024926609100997362,0.10861872217849093,-0.05843859999132184,-0.0754437860311107,0.07266470930452423,0.011103873830568245,0.16140708515175461,0.12403215934587203,-0.11201048816944095,-0.006009046497248487,0.16595873047553245,-0.1033405255669139,0.059589640538675985,-0.027666641530298665,-0.05439784185229488,-0.03323759446748941,-0.007415577693370916,0.021360896450506345,-0.01832301023263439,-0.042083641052958386,-0.04067102611313513,0.074131244434921,0.03172262440229067,0.030138608394125084,0.17483191219402078,0.011857221893387107,0.08523371434051245,-0.0764498161813304,-0.11766209635816598,-0.03348582929062059,-0.011102823205119815,0.04494853232173701,-0.058854330566565013,0.039714916708564446,0.08960355716850679,0.04437431948831831,0.008496089869163352,-0.1446461279255179,0.1940297709557318,-0.01879055785604381,-0.07699158096789281,0.14182865720937562,0.1999711129721312,-0.008792600104194628,-0.07153510693391958,0.14286798553370691,0.08309925410483203,-0.029890453710020425,0.07717115832196239,0.009629929209126272,-0.12265015470762923,0.02811847229534451,0.014140112589946803,0.0036802928606428495,0.032821731106349124,-0.035898338278141984,-0.037351953121273276,0.09022786399554636,0.12089427274004166,-0.08753563929595083,-0.016195467856687858,-0.0025144067260207616,-0.03166630960433237,-0.02624405920248114,-0.017052852911806197,-0.02679743208041972,-0.026402109403379663,0.09363936786270122,0.0763328127214987,-0.12382784715649067,-0.03477540933187133,-0.0463666489605947,-0.018876911172918835,0.1388057006031041,0.08250169283509,-0.010335812756216268,-0.005833534621988408,0.15006280855992624,-0.03323508283876205,-0.07085800659236692,0.14094070449363574,0.045277558903743215,0.04058072746581329,0.006174393974037307,-0.005542013978032553,0.011830620375519175,-0.02891281716865845,0.08356726042197339,0.10235447563016045,-0.24481898263160842,-0.14078721072064543,-0.08756447862355375,0.1439453947529496,-0.19455435785814607,0.014897527712940405,-0.09690893636254914,-0.176362706720826,-0.007747900022875457,0.026949412608085692,-0.02052312004218794,-0.013514663207383468,-0.07085040828459145,-0.057484293646862215,-0.04505015503630287,0.09018437117442106,0.014848589574436811,-0.06021770637075266,-0.03014362404465005,0.11435651600593777,0.10942580304756293,0.06735912079068422,0.1220194890370071,-0.03888853438620411,-0.06265893632992392,-0.1371280345464926,0.005698053431763009,-0.0805784067475731,-0.11081182494028555,-0.01037913059265026,0.16819957523040474,-0.07575404449926132,0.012708054432892085,-0.14224342577240814,-0.053302924006539444,-0.09432512874248092,0.17263805654346037,0.195084211346419
zyffh_0000-00000720-00000864,0.04228345041216415,0.01582719912904314,0.07505305659657777,-0.052773755263126894,-0.07566796881122966,0.07876029777386274,0.0033763619774384236,0.154361517395788,0.13075319132050758,-0.05955572508708246,-0.013513547557384997,0.1668144296476981,-0.07480945019928033,0.03894095685600792,0.0020186611737018786,-0.05999870543878758,-0.02158182936237407,0.04058295167539403,-0.01816476623899908,0.0027593959146985105,-0.04530802643090841,-0.09027400885534213,0.04304440740882107,0.030876920476238176,0.042572465622241304,0.17495306100701485,0.0024342499343098464,0.07501276581415864,-0.06816473065889064,-0.058602798073497074,-0.015424952186965478,0.020717420573079386,0.0693031487660773,-0.07817586387548796,0.0023638196617760242,0.08287998235899711,0.0070668674487758265,0.030040973423170105,-0.07260829677315696,0.22807994308706275,-0.046157113619323,-0.033709709300265095,0.14712552192127068,0.19610901432093517,-0.020969773720969486,-0.03841583836533571,0.1420982986113711,0.04450098309662298,0.008295073586869837,0.09814166889300806,0.01246055947705123,-0.06671762209136292,-0.014806312747493212,0.031168436804796685,-0.07355868888889999,-0.010667315241529326,-0.04343458257851117,-0.09073342915574831,0.07362996590694296,0.11049318634420136,-0.049161300371962355,0.0018396408474562452,0.03236486589464836,-0.06279182402397275,0.0007580625322960943,-0.06421317859548886,0.021132788542787856,-0.03206664719522201,0.039638763002673716,0.11092806912714369,-0.12361530824878134,-0.029558326159721496,-0.03728180567495908,-0.04173829910303086,0.11005999842804697,0.0824013753387326,-0.029206802899646563,-0.0019240095155497996,0.18416702328911336,0.028016146104936586,-0.10410783362966503,0.07387511017374321,0.07532086644849767,0.03237977499894268,-0.01047298308678638,-0.007705868144861696,0.04370285865892945,-0.01765734483869081,0.1214445404192964,0.0679595060748522,-0.22541075062451013,-0.1631342586823895,-0.06418449358302872,0.19399222391980614,-0.19406554184326558,-0.02645876371386958,-0.07697159206567888,-0.2063913665504648,0.025307223889364315,0.027709375335032344,0.0080713990703945,0.013123511380550545,-0.08036064484079455,-0.06817646944303594,-0.12198671350629617,0.0807050814475024,0.040362643503931046,-0.09168476873998155,-0.06570599746243312,0.10717095703242945,0.12070217881971396,0.014196850626254675,0.11571553767524671,0.03383619986764341,-0.05543088357088034,-0.14671842453087622,-0.02255488796835529,-0.125910560272588,-0.12320152339822944,-0.030491559420895504,0.16651291182225214,-0.07553870455775423,-0.009540305813756892,-0.12770962289346924,-0.02547076481403178,-0.05782770651923151,0.19583474086047997,0.17284597584559433
zyffh_0000-00000744-00000888,0.035789929322949325,0.010660882728914535,0.05131904143223602,-0.029816399274600048,-0.038577936711933526,0.06265596050768053,0.024169713967200947,0.10705452897252309,0.0810068552899144,-0.04294399703585547,-0.00915287421311124,0.14656920126929185,-0.08685172575612299,-0.00043303016240202243,0.029808272049578942,-0.03053977033311534,-0.052834932526383625,0.027089676617810036,-0.06204771334379412,0.0335759719362481,-0.008944938078036537,-0.03140354784684535,0.060111693234262784,-0.009902218099576634,0.01865836179121694,0.15133154218237,-0.008345901336882955,0.03469689533059963,-0.04488868187201662,-0.06054565901617508,-0.02051701023472737,0.011589316123336395,0.07023030332413129,-0.08341370388535724,0.03635915318703436,0.09041582418267839,0.007868715300164655,0.00951257443950041,-0.11573412624944897,0.24854559256515035,-0.03559199675581474,-0.06108289978331416,0.1655068712056825,0.22030602116664233,-0.06525991764099605,-0.072474589968356,0.09342339028978895,0.03312982007602959,-0.02997503795593905,0.11717952238386596,0.004881685126587453,-0.047675993968691516,-0.009775360552099627,0.037937531026257756,-0.051837869525307285,-0.0028140109398315594,0.028779996741026246,-0.05299517161322255,0.10009234923564186,0.07656911769372998,-0.008146348361333752,0.04649705831135951,0.007976582270536886,-0.1024601234500587,-0.013648580823030854,-0.09120636054169914,0.05898078794335164,-0.03835096737962956,0.06428366703722735,0.06729773133910473,-0.10266051622336253,-0.00722095179004303,-0.057159726575467196,0.022820826141901483,0.14123615708722229,0.051785807485435965,-0.00598674497954484,-0.008537366914662501,0.18357651660906413,0.04061662479486007,-0.08695106523944238,0.0830906206611499,0.046014431460857604,0.042250617808644676,-0.009559163578361613,0.06522757414311302,0.03329785853091752,-0.03125286701222135,0.10376983203841403,0.041047712883960516,-0.3107260560302779,-0.14086403847506634,0.0011343385636373004,0.16848750840200358,-0.14907496726728545,-0.03559319014066485,-0.118151867823765,-0.23295921186143717,0.07517609475242132,0.07002406296079479,-0.039020175737880046,0.026659001016046544,-0.06809688882472673,-0.10391120175788876,-0.11361062558277794,0.012296946246611653,0.0651928899924967,-0.049073366041429124,-0.058486703816041506,0.09789632465691041,0.11057846548336481,0.01987581034004285,0.12145269783947357,0.027604652022637247,-0.07729955090333088,-0.20219066002361682,-0.06058449273857162,-0.10697759208531482,-0.06501900762000638,0.002256323910230326,0.21454455152865873,-0.06847427635288225,0.04110235789680238,-0.10474618588276374,-0.025386145428900667,-0.050416122136255064,0.14536045291290042,0.18026694087305248
zyffh_0000-00000768-00000912,0.042270362658284176,0.020461878043683608,0.03560740832242242,0.018792340381610814,-0.06877944696004422,0.024422280375375607,0.013776594485682652,0.10906975911945468,0.035760971830265706,-0.043959439800019984,-0.04888935326350267,0.13941477304631025,-0.08905235500486039,0.010467446009981814,0.027317799099842024,-0.0008472813839654114,-0.03622103879282161,0.02004485793186135,-0.04256138245535575,0.04560545759930975,-0.050982922070966934,-0.07582167036751698,0.11008538368360608,-0.008476427996827697,0.03440026501863219,0.17857587428485294,-0.015954229446170264,0.001064740239325849,-0.03544288315458935,-0.07906320379331544,-0.02759039313467084,0.02087499564664506,0.08903032461082522,-0.05411772908997676,0.004329258746687294,0.09817279940306878,-0.061907202707779344,0.002596054420490505,-0.12133745882394717,0.25580253847771567,-0.03829042359728372,-0.09680694776122024,0.13563427880678597,0.24724622655033798,-0.034962785316464545,-0.12574435425506483,0.04275043903103492,0.0818738476390705,-0.047159330478221434,0.08014561185570407,0.01780481715614675,-0.07179226876011231,-0.051527454949388034,0.021171383895690007,-0.014135158151189537,-0.029120276122397124,0.018522719747533896,-0.08234261878977464,0.10555948170100841,0.06738946507367778,-0.020848358384393664,0.08815966385137547,0.06819497934235635,-0.03381242041299713,0.04006994401087829,-0.07892204764452596,0.09107673171014495,-0.09306851535930069,0.06809719927906954,0.08706823249551805,-0.1493215548661259,0.032400163297518145,-0.07149998428109042,-0.00869784898898855,0.1128328832654279,0.05061508217320005,-0.0376207514107641,-0.030658408758484138,0.18156806988887453,0.026998655890826336,-0.07153394585595695,0.0875429377981718,0.06061160766674993,0.06279399128357246,0.013126592547122732,0.07168549472575368,0.022705354586494378,-0.054099620901958946,0.12724770209743586,0.091903555753082,-0.3149790776729369,-0.12279370074696418,0.08994128130657571,0.13804136873751807,-0.12707988653478058,-0.04999287250015964,-0.10795549907263569,-0.21059777274550676,0.06863223621689486,0.003384386933165828,-0.07782469959117876,-0.05061033672659175,-0.05831574581063163,-0.04887436053272358,-0.13705949605604195,-0.012622289903178605,0.061347590878972555,-0.030002498218865054,-0.04979341658155255,0.10075369035742134,0.07148107503034595,-0.006700187244701854,0.07592824450193604,-0.014634157076089511,-0.052269485106474944,-0.18560710565564226,-0.013842256016651766,-0.13349035246913507,-0.04835724742691794,0.0041900211322953435,0.19421843410102793,-0.09089801913235447,-0.013550219187475333,-0.098172085438498,0.02684682075583472,-0.05374533930545872,0.11124771161934746,0.13650817405186397
zyffh_0000-00000792-00000936,0.04434448206059426,0.05664805161386232,0.03744535436995879,-0.012415204160220468,-0.0840646182741374,0.0048420686076206445,-0.010338872066906465,0.09232053783207766,0.04128904467065375,-0.038503502538310086,-0.04958165162876884,0.12410411546058735,-0.08876694877950224,0.06991831156756684,0.029791379473337123,-0.011613219238078155,-0.0028041759797967263,0.025568826644629433,-0.059560514465257314,0.05242899842634572,-0.12954746241459306,-0.008422904919206595,0.12996489186544946,-0.020968586434650282,0.0016768712498050787,0.16644031900649198,-0.057514248536734876,0.05358664686164667,-0.04838111035160189,-0.1111482005571278,-0.010058820897268101,0.03474638366478642,0.11195043192770596,-0.04391364684384101,-0.03426387059474435,0.0819047133499374,-0.0564804487642234,0.017724378986196807,-0.0926234042202632,0.2405961443924312,-0.05936482984040532,-0.09988813462109454,0.10914785766794391,0.25147232141758286,0.02171850649515459,-0.1301543419133623,0.011368421054792405,0.05240279364213424,-0.054176992710108174,0.09290556046041999,-0.01977487662691772,-0.07783427297777364,-0.06842774223259261,-0.063577699016411,-0.045179219223991846,-0.0031613594631594607,0.013269229515421735,0.016762141852778818,0.11202502506994613,0.05957618214180652,-0.030220621566302116,0.09726065291426697,0.021738124680558964,-0.059042153958230065,0.0292195323491453,-0.09649540131636772,0.10282134324826536,-0.16030787108849498,0.024218047063163897,0.03245709814747952,-0.18514088777768026,0.034443346517156845,-0.10404405373211235,-0.04449148065927758,0.12858962121298675,0.05951319222155285,0.012329719971995974,0.010207045009776403,0.11919617584683105,0.04209476993476127,0.0043169564149991525,0.11620527861774406,0.07671669404957465,0.08545322411244582,0.02165991668794811,0.10234396155692696,0.0602894373025909,-0.052859079189483016,0.15478618988868054,0.08458287995034412,-0.2775843753364795,-0.13509193426588936,0.08706674538623872,0.09885947910627316,-0.10390253451537822,-0.04175812323356381,-0.10797827802340049,-0.19578708733004732,0.0891256583166095,0.007004017534630118,-0.004925711005156349,-0.12121321642050392,-0.05910682921715611,-0.05687599498947926,-0.13296776477084613,-0.019456867780944947,0.06978041894181436,-0.026362321812628972,-0.05875827640974554,0.05679220850776694,0.029320656920280238,0.0018858116004138567,0.10237146847439348,0.036736054534662936,-0.04819695969440736,-0.21647324830103265,0.006363269591599734,-0.07306267202252195,0.014244892410755569,-0.021960406078156476,0.20593234247109027,-0.09308125744116733,-0.011070556517625632,-0.052797962955612364,-0.004640180367521497,-0.06177911762849194,0.11126712722549036,0.09912945193679
zyffh_0000-00000816-00000952,0.05390702003415637,0.07514541210012289,0.02229286534127203,-0.01653233599784604,-0.11109637175766761,0.022507762032394962,-0.005782669945288001,0.10140823460815365,0.04801172172641464,-0.05447921169295317,-0.031161239940154423,0.1422179688314476,-0.10592253047675043,0.07899830307978378,0.01974376921035059,0.034364785439334376,-0.029931219061990436,0.03789418379142707,-0.06959350388285067,0.0462656788113768,-0.14197910907306413,-0.01392515533675423,0.14469439087562458,0.0066433352426799736,0.01733362173875049,0.14664053548856715,-0.03951822081868021,0.07816185166205217,-0.034318588056713006,-0.13520433211061625,0.0005243873531115029,0.007626066840979764,0.11890959116626408,-0.05427953769665475,-0.03707660647848076,0.06832435116130309,-0.10557143484426172,-0.006796281578573047,-0.09466005588197854,0.20452749319236962,-0.05083052408352636,-0.12764171649681738,0.13602076024183354,0.29254525016106486,0.0353009044610998,-0.15310816766423727,-0.0028146356986049033,0.05191075700960163,-0.059385601570556,0.08725314105194101,-0.014274062427815239,-0.11494772867452231,-0.05781706194873419,-0.07179742134410225,-0.04642218108972594,-0.008341069756660931,0.028336378390570457,0.034394187210035954,0.09128292198900038,0.10337968303425282,0.0485842552429458,0.05311243283103885,0.032275266744883804,-0.0626329976441512,0.014709277725530576,-0.11838577713178909,0.09696823573449634,-0.17640542022437516,0.0328508874733832,0.05789041726232616,-0.15804216434482068,-0.006841153048038201,-0.07694165799294489,-0.012968168883673414,0.11665438736251313,0.025127718364084266,0.004653742892430335,0.03876032721862772,0.037676412318360004,0.0330643535636716,0.031043333024988816,0.06919629270248419,0.09657343118283579,0.08990099045128433,-0.013712070518048222,0.1183972569325676,0.028771591208851022,-0.03160625565324802,0.16537962012122648,0.026409666933164162,-0.24426854150187038,-0.14896801070097632,0.1253229096193992,0.10845526812248069,-0.055977208233529085,-0.07315341918240062,-0.06436300408824211,-0.14521437399426068,0.14775952398060072,-0.031022694416827024,-0.037670803155693815,-0.11354486065099804,-0.05877144613122893,-0.03496603613284113,-0.13570035650662005,-0.0012796007849584295,0.03382980348680314,0.04690313836146987,0.023733498230974745,0.09793019815512347,0.02208654264093713,0.03392673071838982,0.05419885990979727,0.04087345930240717,-0.04329093416937765,-0.20529339011042522,0.005344452092557319,-0.10912944119057422,0.054175473175680805,-0.01593053300995797,0.22302788984524904,-0.05117283799260213,0.01286360330341703,-0.03981566714635432,-0.010737555423927347,-0.02598872475259286,0.07929653472747027,0.03661470280160466
zyffh_0001-00000000-00000108,-0.034734786553313884,-0.045079262530154034,-0.1288899573792183,0.01261902503212706,-0.051163021471709785,-0.06590660101607648,-0.05446216894916146,-0.12474683215213814,0.002462755110387563,0.10062936143369149,-0.037351149809610615,0.0012596901080971887,0.13439963713752212,-0.11351510817382965,-0.1844533987753935,0.05033506178851943,0.015861369757817077,0.0037879023275726783,0.009549136077628514,-0.02546249268925976,-0.06637552654173755,-0.06834543376822262,0.004093640880606592,-0.09437240398303852,0.04457679297035579,-0.012220364867518489,-0.05059942718195734,-0.01641657477214376,-0.13234364099388068,0.006214221799491298,-0.02560640524280509,0.029805039432014836,0.05667666945627862,-0.05629963722163394,0.1142766256138066,0.23242383623490084,0.017808299769913476,-0.023033118549115463,-0.04073777113449785,0.04010514973902887,-0.02429451286943306,0.0036045525433066705,0.04172903777242261,0.14911441110661577,-0.0030971151344296624,-0.08493286383449279,-0.034794542653295846,0.19035919605113913,0.1217149036890262,0.13344240005522806,0.16748964686065934,0.054054757441588504,-0.0021409949390217204,0.01037680359016459,0.008045614726767528,-0.1598428147795251,0.08535085104088472,0.1312408525923635,0.019811708575997414,0.0619782583426087,0.0820765680719027,-0.08694739092181351,0.06871996757125645,0.08373921770579419,-0.06953246352455418,-0.19486132811682275,0.0016604255289465301,0.20187041880938833,0.0561786629893938,-0.20826461345540304,0.00938375040518709,0.11838210028564972,0.03313672686994927,0.1444798009531829,0.051516946803231406,-0.15052744079777858,0.09596080652003247,-0.0022646802188871842,0.03160442495908957,0.04858439778404103,0.17423447831209657,-0.08244275902672188,-0.011848743646771225,0.03054732354580083,-0.0690880706392624,0.019975393082707567,-0.03048031362270369,-0.03601725123905067,0.07052062217334369,-0.007189017928626442,0.13490858013056947,-0.0034468182474254386,-0.13233135751075636,-0.0007113594063934,-0.0917545599337863,-0.04766752226539398,-0.04682682870413905,-0.06879014598910146,0.03841162388765732,0.21565482954895468,-0.0789819966227335,-0.038237600994208386,-0.03885443362634644,0.03615682584908069,0.023339252247379542,0.05351161488804398,0.08766203173649308,0.03601791047901853,0.10903365258808079,-0.06436626795414918,-0.02149765955556352,0.09386355107028695,0.07355872725659904,0.046289339196538756,0.08910278796820179,-0.08857181801272092,0.035057187894766174,0.006389537305841795,0.04361156262216031,0.03222170368489575,0.007950721815146338,-0.10638826314045559,-0.17178469194790227,-0.14187804806403706,0.07737319932302822,-0.005560857881151941,0.19166416652279103,0.07690918180629373
zyffh_0002-00000000-00000144,0.01804068673897954,0.02829307630185215,0.03344077988388857,-0.039092752284309085,-0.10241582031628822,0.05101906930409427,0.0010658324931098412,0.03844684883142204,-0.025939753105388503,0.03849677571526176,-0.009850069595953307,0.14607983211892642,-0.13976715151032784,0.05365544116164674,0.05138970380959526,-0.07908576600670557,0.04446338364649013,0.03296755755951741,-0.009974247262264124,0.10135553552774658,-0.11160155766893348,0.01572436614027908,0.09564372025243373,-0.00796565455650886,-0.043098686367243226,0.026670876592118867,-0.10268647588297088,0.06068480162435303,-0.011272636931112929,-0.002681142581555967,-0.04092397131778793,0.10062069411698772,0.04287657012675293,0.04327320046323007,-0.05663527404824657,-0.02763429124753294,-0.06511849536747061,0.19856982642455043,-0.06969704853008453,0.0903353435459628,-0.21726184611256413,-0.10567272903030593,-0.09446080073568351,0.16153437084669553,-0.0163443451277573,-0.03202073021565423,0.04157711300053198,-0.017072265223282066,-0.08926790363552531,0.060530980029992305,0.08672174713492484,-0.12084778560585747,-0.11430558814611726,0.026956627893784325,-0.006320330801401079,0.035883739923161004,-0.02536710450278101,0.10718562883331664,-0.07706117253880572,0.030160266820720212,-0.11461372057364225,0.0814472601371205,-0.025828126814093664,-0.04487878974542148,0.06510901037834278,-0.18075419954558433,0.0017398482333083008,-0.13660683146462904,0.015602950795315334,-0.07423404084036693,-0.09077136784317491,0.06567529579820605,0.05014050291159749,-0.08139051580538632,0.03784424984834388,-0.045189040775302475,0.16110028598807954,-0.03495416753847217,0.06956195562578525,-0.14793899900572297,0.00466576291766333,0.05710414731464894,-0.013718940063122319,-0.0028902852808238614,-0.0035862009995700967,-0.0022464476349407392,0.08393005860066437,-0.2519517890162328,0.33063223280349663,-0.05393973669631665,-0.11376567645152905,-0.06843241901808567,-0.006462601171432444,-0.1423452549902586,0.02142438366523803,-0.08325605542956031,-0.06813269477263889,-0.10622652328840698,0.010868499950280412,0.02457053451106002,0.15794532536525882,0.05263738593711485,-0.029774398871356147,0.009565723007385655,-0.14128867826574065,-0.0475635857156126,0.11039511573164354,-0.09624764277484264,-0.022107434525596617,0.07953926574238189,-0.030190069245241962,-0.10184758965558922,0.01865955878124729,-0.13710826897832581,-0.13262691000426785,-0.010998546133686476,0.09688722266358384,-0.017002480511287277,-0.11131754433984317,-0.09775657060771549,0.1176250171549448,0.033487269113548164,-0.04990140881038754,0.005141954123844205,0.1915863352240519,-0.014441315827634917,0.09543813697758173,-0.015451089031817576
